tree
version=v4
num_class=1
num_tree_per_iteration=1
label_index=0
max_feature_idx=42
objective=lambdarank
feature_names=momentum_5m volatility_5m price_range_5m volume_avg_5m momentum_15m volatility_15m price_range_15m price_change_lag_1 price_change_lag_3 price_change_lag_5 ctx_close_mean ctx_close_std ctx_close_min ctx_close_max ctx_close_range ctx_close_slope ctx_vol_mean ctx_vol_std ctx_range_norm ctx_std_norm ctx_skew_10m hour_sin hour_cos dow ret_1m ret_2m ret_3m last3_same_sign z_momentum_5m z_price_range_5m vwap_dev order_flow_proxy acceleration rejection_count vol_regime_high volume_regime_high price_near_extreme ema_cross rsi_14 macd macd_signal macd_hist confidence
feature_infos=[-9.7856752417317949:6.4929106120651836] [0:1821.9082752842037] [0:4976.3600000000006] [0.0012688:277.25377489200002] [-11.903912042976639:9.4847482592516954] [0.59361683974478519:1759.7044990025972] [2:6608] [-4.7261663286004012:2.9894675671946258] [-3.5353730231569731:3.6420583870660823] [-3.7664992437154039:2.7880564168009325] [8002.7600000000002:108381] [0.0091891561601425819:1807.7931789282782] [8000:108258] [8004.3100000000004:108557] [0.030000000000654836:5381] [-448.32300000000032:375.80000000000001] [0.0029875889999999997:204.29770014100001] [0.001866815406844288:341.69153129446124] [2.4028853848224819e-06:0.10986983976895391] [7.3601618328170195e-07:0.035617940130070011] [-3.161823967367825:3.1602813084523582] [-1:0.49999999999999994] [-1:0.96592582628906809] [0:6] [-3.4455630865804499:2.8489458689458846] [-6.0842379421907067:3.9464553060325924] [-8.2550991775509956:4.9155031235222468] [0:1] [-14.837529792083828:14.745797788440724] [-3.0484770500442968:17.580548118699713] [-14.788957383510459:9.8299331674645796] [-930.99982169588441:1533.9884156932462] [-29875.000015653248:46229.999998989799] [0:9] [0:1] [0:1] [0:1] [-1299.2686178681761:952.81437049344095] [0:99.996947776455087] [-1185.3692870266168:959.85828246475285] [-1141.5068904549671:840.73577740394728] [-439.69443486953583:299.97650259178783] [0.50000010149100294:0.83344229228582589]
tree_sizes=7050 7082 7027 7032 7053 7013 7045 7034 6998 7007 6996 7065 7034 7052 7020 7033 7041 7068 7042 7053 7010 7043 7038 7037 7069 7052 7024 7065 7065 7036 7062 7022 7045 7029 7073 7035 7030 7041 7035 7061 6991 7017 7054 7049 7094 6992 7041 6994 7027 7003 7007 7059 7071 7034 7067 7050 7047 7047 7016 7052 7002 7052 7028 7078 7027 7025 7052 7029 7042 7053 7042 6988 7036 6985 7040 6997 7003 7008 6961 6995 6988 6994 7000 6995 7020 7019 6988 7016 6996 6971 7028 6990 7024 7047 6968 6944 7008 6974 6930 7049 7038 7013 7000 7057 6963 6992 6974 7044 6979 6939 7021 6947 7004 7027 7021 6965 6970 6918 6994 7005 6950 6953 6982 6956 6888 6974 7026 6938 6954 6994 6946 6948 6996 6892 7010 6980 6969 6957 6967 6969 6945 6941 6935 6909 6950 6946 6961 6985 6926 6968 6945 6980 6914 6955 6935 7022 6965 6938 6999 6937 7032 6948 6931 6908 6917 6948 6975 6947 7034 6948 7008 6975 6934 6957 7027 6933 6894 6908 6957 6956 6949 6920 6902 6900 6941 6955 6954 6928 6957 7024 6951 6893 6953 6952 6939 6961 6953 6924 6962 6948 6944 6931 7057 6941 6900 6993 6931 6975 6979 6916 6942 6937 7017 6947 7045 6983 6876 6978 7035 6987 6924 6910 6962 6981 6966 6993 6969 6986 7033 6961 6949 6914 6935 6896 6921 6988 7009 6922 7027 6957 7029 6955 6981 6961 6958 6923 6946 6946 6978 6979 6991 7030 7002 6923 6877 6979 6910 7010 6883 6941 6917 6941 6921 6974 6907 7018 6926 7058 6994 6968 6916 6965 6911 6992 6984 6956 6921 6980 6908 6971 6946 6956 6921 6932 6975 6965 6993 6894 6994 7028 6949 6949 6981 6997 7046 6940 6910 6966 7034 6984 6962 7015 6980 6982 6952 7001 6978 6917 6930 6965 6942 6916 6957 6953 7045 6940 6915 7020 6901 6956 6929 6993 6990 6951 6957 6927 6983 6964 6924 6949 6933 7035 7036 7000 6936 6977 6979 6943 6979 7016 6948 6915 6912 6956 7026 6937 6938 6943 6926 6958 6984 6967 7002 6982 6909 6948 6980 6997 6956 6903 6933 6896 6937 6953 6939 6965 6956 6960 6960 6931 6980 7052 6963 6945 6911 6981 6994 6938 6992 6949 6911 6971 6959 6913 6971 6965 6940 6977 7009 6913 6995 6967 6930 6973 6942 6965 6966 7015 6991 6979 6972 6986 6957 6976 7048 6903 6999 6973 6935 7074 6935 6938 6968 6983 6993 7002 6964 6933 6967 7075 6925 6930 6953 6975 6969 6972 6920 7030 6909 6954 6954 6953 7048 6960 6955 6933 6995 7023 6940 7014 6914 6978 6932 7063 6962 6997 6940 6963 7032 6929 6974 6945 6948 6931 7043 6932 7013 6951 6999 6943 6966 6980 6971 6960 6957 6953 7007 6924 6971 6878

Tree=0
num_leaves=63
num_cat=0
split_feature=21 18 29 18 16 29 29 19 22 18 16 12 3 4 4 19 42 35 15 10 32 2 8 6 16 29 13 12 21 12 10 6 23 2 13 12 37 2 31 23 41 2 41 32 29 22 19 19 42 16 33 25 38 4 32 9 18 8 38 42 9 4
split_gain=3565.74 761.585 504.303 140.946 127.693 91.9591 84.8289 39.933 36.0422 33.7915 32.7712 30.6632 26.0294 24.8864 26.4554 24.0573 23.5766 21.8343 20.7534 18.9431 16.1466 15.7968 15.4494 14.5875 13.7554 13.419 12.5035 11.7881 11.6177 11.5234 11.0606 14.4077 12.2571 14.5253 11.03 10.9528 10.6035 10.5201 10.4258 10.4142 12.2688 10.2078 9.99152 9.98106 9.57199 9.51148 9.50802 8.69521 8.46892 11.9937 9.78817 8.3422 12.5472 8.775 8.20676 8.15843 8.14794 8.94439 8.13459 8.10455 9.7183 8.01246
threshold=0.37940952255126054 0.0020913210177762689 0.0087636550266793848 0.006200337303230258 0.57305712350000027 1.1462151589710032 -0.54812549423745094 0.00034943497049563473 -0.60355339059327406 0.0010064031342550217 0.46068057350000075 16569.495000000006 0.78235596600000001 -0.34974260487347081 0.43149639988359084 0.00040549718260678456 0.55078503745367702 1.0000000180025095e-35 2.5005000000000113 57701.600000000006 2.6583252722366368 101.00499999999739 0.095342818811861019 742.0550000000004 3.996067186499999 -0.31257815153039953 25073.000000000004 16480.145000000004 -0.70710678118654735 63480.630000000012 23121.727000000003 52.005000000000116 3.5000000000000004 16.810000000000404 58125.260000000002 57316.725000000006 -47.774080972336371 23.004999999999203 0.25599893808628038 3.5000000000000004 7.4564369801819108 28.650000000000549 2.2497149622261423 5.09756808000256 -0.57844974772295499 -0.60355339059327406 0.00020499148857319353 0.00097680800928199728 0.537847068866111 4.4901422255000005 1.0000000180025095e-35 -0.10660439868634962 44.243532834806167 0.24342082682966562 1.600521863475399 0.028142511471052005 0.0017146111458457385 0.071966439829529424 36.940747904907028 0.56710147986199899 -0.067225300478718178 -0.20737142060606725
decision_type=2 2 2 2 2 2 2 2 2 2 2 2 2 2 2 2 2 2 2 2 2 2 2 2 2 2 2 2 2 2 2 2 2 2 2 2 2 2 2 2 2 2 2 2 2 2 2 2 2 2 2 2 2 2 2 2 2 2 2 2 2 2
left_child=2 4 6 10 7 8 12 30 34 46 43 -10 28 38 36 -8 23 45 22 25 56 26 24 -5 54 -17 -13 -19 -1 -23 32 -32 -2 44 -4 -14 -15 -35 -12 40 47 -41 -16 -3 58 -7 -6 -38 50 -50 -44 52 -22 -53 55 -11 57 -9 -34 60 -43 -20
right_child=1 3 5 16 9 17 15 20 11 18 13 21 35 14 42 19 -18 27 61 -21 51 29 -24 -25 -26 -27 -28 -29 -30 -31 31 -33 33 37 -36 -37 39 -39 -40 41 -42 59 48 -45 -46 -47 -48 -49 49 -51 -52 53 -54 -55 -56 -57 -58 -59 -60 -61 -62 -63
leaf_value=0.025159830338237571 -0.081883730883913819 -0.040020085565025551 0.025258939082831285 0.012253433950892552 -0.079499886086591032 0.038116670155297017 0.043309036626069927 -0.069301655477514754 0.033834811841682903 -0.048853085893880904 0.0093132805501007897 0.050666711877213361 -0.0067150930399914547 0.010375672116403094 0.03716826066324138 0.010753491610467557 0.053631837896352057 0.058172868920028202 0.024794527909008737 0.038505755419249998 -0.050682450169500654 0.042188061831554664 0.0023219877796525935 0.057780450560550471 -0.016819781505646055 0.024429057473698626 0.072240115151993287 0.077113340726767524 0.0064375857151487414 0.062821771518298139 -0.090362195073317608 -0.071285466167188602 0.058018137406282401 0.02523095088375937 0.047836033472323333 0.018761445435332806 -0.026610227877659237 -0.078172737232634848 -0.023811034151499821 -0.026829221016880372 -0.039554897814746331 0.008802887341044249 -0.067271157206505686 0.0040275579754731755 -0.070589293045572446 0.060739752624623645 -0.053689475280081916 -0.01330421064158665 0.032022219782190837 -0.019629665411797729 -0.0054509325956267132 -0.052046939897753219 0.022352006829575999 0.0047929572549578652 -0.03098951093095418 -0.029469503189797627 -0.050909672352784152 -0.030324174572711568 -0.049026620228232815 0.030803196322993744 -0.014914882339083186 -0.057548046917793472
leaf_weight=141.68036509957165 46.163601081493198 154.91459433914315 254.70088505936292 182.25991707356843 45.495213389534797 65.191628235970711 159.28607662279637 290.99179774800086 223.88444758110563 204.16737879281163 153.79278613110546 108.15610882994224 406.39421145025699 30.841141651217185 21.813359844476508 298.08820367121007 54.798802930128659 104.74321361766124 3.0295660325064082 148.9835498491193 13.062151214413463 238.78688806150603 29.548357472291173 19.474695115895884 91.220441017307166 450.4287277693038 177.20726505741914 380.83413532023042 199.58376815724114 94.42167053995945 196.00337976525771 199.93720736018076 2.8234441504173438 9.7359697310093889 68.686801459556591 47.074542607027979 256.9311940501816 3.2912539596582056 28.094443694000802 93.378446607462138 98.852356426101323 55.695069277860966 7.6771429409654948 14.02525906781011 39.081512412027223 161.70137184823398 165.41036747229407 235.14898302904112 32.284724702364656 17.240418149780453 38.578607451119751 153.93252273527287 10.69641945819785 7.1035115863487581 233.7655742363329 73.945828141391758 100.25932513623593 15.502610117899165 4.7784565971887787 13.072754579830869 192.35848439991059 118.94408099374232
leaf_count=73762 1318 3604 143481 4025 1453 35828 115844 7442 84795 5102 3017 42746 176344 706 493 130178 1431 35345 78 67145 290 86901 645 452 2158 179502 76916 112977 139110 34448 6251 5406 72 153 37149 22033 5901 66 593 2258 2198 1190 153 324 1157 55357 4298 5236 669 393 867 3624 180 108 5561 1736 2508 360 350 246 4530 2971
internal_value=-4.56454e-10 -0.0343597 0.0346387 -0.00960467 -0.0548144 0.0528924 0.0161208 -0.0665158 0.0442438 -0.0415637 -0.0156692 0.0496906 0.00377951 -0.0129288 -0.0157765 0.0254018 0.0245486 0.0670445 -0.0366187 0.0222237 -0.0577148 0.0554294 -0.0329778 0.0166484 -0.0347073 0.0189829 0.0640635 0.0730277 0.0142104 0.0480351 -0.0768905 -0.0807291 -0.0625354 -0.0475767 0.0300543 -0.00407038 -0.0184751 -0.000893403 0.00419687 -0.0194163 -0.0234808 -0.0126411 0.00662813 -0.0363633 -0.0606039 0.0542396 -0.0592571 -0.0202517 -0.000327151 0.0140415 -0.0157113 -0.0454591 -0.0178014 -0.0495397 -0.037895 -0.0436993 -0.0632827 -0.0673302 -0.00926881 -0.00756739 -0.00958957 -0.0555028
internal_weight=7489.96 3760.12 3729.83 1701.23 2058.89 1878.31 1851.52 1093.36 1165.84 965.527 1444.7 842.456 794.733 1275.76 1093.87 1056.79 256.533 712.47 754.621 897.5 591.548 618.572 632.648 201.735 603.099 748.517 285.363 485.577 341.264 333.209 501.815 395.941 105.874 59.7106 323.388 453.469 976.278 13.0272 181.887 945.437 590.933 354.505 117.594 168.94 46.6834 226.893 210.906 492.08 95.7809 49.5251 46.2558 184.795 23.7586 161.036 511.879 278.113 406.754 306.494 7.6019 261.126 248.054 121.974
internal_count=1741434 91573 1649861 38286 53287 745943 903918 29285 506436 24002 32378 325806 411249 28450 24840 492669 5908 239507 18251 376825 14512 241011 15202 4477 14557 309680 119662 148322 212872 121349 14773 11657 3116 1798 180630 198377 22265 219 3610 21559 13335 8224 2575 3928 1579 91185 5751 11137 2082 1062 1020 4202 470 3732 12399 6838 10310 7802 422 5966 5720 3049
is_linear=0
shrinkage=0.05


Tree=1
num_leaves=63
num_cat=0
split_feature=18 22 29 29 29 21 30 30 18 35 6 16 29 18 42 3 34 25 22 42 39 22 22 20 40 6 29 30 21 29 25 23 42 22 30 3 30 24 29 42 1 42 23 2 10 23 21 14 42 18 6 14 23 36 39 30 23 19 21 42 40 9
split_gain=1650.03 763.552 357.665 340.504 258.565 185.616 151.194 163.461 115.588 100.186 86.1218 54.374 76.4983 77.8763 48.8688 45.9753 43.6855 40.6041 39.6032 37.0537 35.079 33.7572 32.0039 28.7268 32.0475 28.6892 27.71 27.6592 27.6253 27.3789 26.6859 26.5347 25.5048 24.9739 23.9297 23.7963 22.406 22.9877 21.8654 20.916 36.0165 20.7285 19.9066 19.3387 28.1862 19.0488 18.9892 18.3225 18.3081 17.8592 17.5604 32.1962 18.3757 18.227 17.8613 17.5404 17.1582 19.6386 18.0162 17.0174 25.3196 21.2697
threshold=0.0033992532986826993 -0.60355339059327406 4.3559885457171541 0.044757899654906431 0.38854373626615268 -0.25881904510252113 -0.27097676384976854 0.3572637641427549 0.0071363287300130092 1.0000000180025095e-35 52.005000000000116 2.3400061790000009 1.1750832009607224 0.0017666011504696806 0.54202270697983745 4.9279789060000008 1.0000000180025095e-35 -0.23289125715757472 -0.12940952255126037 0.5314188308646991 -5.9883768403506101 -0.37940952255126048 -0.37940952255126048 1.6509139093816489 5.6141611410212722 446.00999999999846 0.31544264965819546 -0.56075197335095961 -0.78656609248549292 -0.11387627807836874 -0.1755330031383617 4.5000000000000009 0.52947441909559401 -0.12940952255126037 -0.18788406971878066 7.1560677730000002 0.42594279734357227 -0.040909580873349498 1.3716552503918711 0.56018985278078037 13.076696830624504 0.53931564678616739 4.5000000000000009 127.89000000000307 16580.388500000005 4.5000000000000009 1.0000000180025095e-35 123.86999999999809 0.51959263507587994 0.001701450252112102 103.5599999999986 70.004999999997395 4.5000000000000009 1.0000000180025095e-35 -18.553544201909968 -0.49752714642346513 2.5000000000000004 0.0019103344471278476 0.12940952255126059 0.50207919026899173 -2.9251292450362274 0.044881366374716056
decision_type=2 2 2 2 2 2 2 2 2 2 2 2 2 2 2 2 2 2 2 2 2 2 2 2 2 2 2 2 2 2 2 2 2 2 2 2 2 2 2 2 2 2 2 2 2 2 2 2 2 2 2 2 2 2 2 2 2 2 2 2 2 2
left_child=1 6 4 28 29 9 -1 11 27 17 20 12 42 23 22 -4 -12 41 48 -10 -5 36 25 34 -25 -11 -9 -7 -3 -2 -15 43 33 -17 -14 46 37 -22 -23 -19 55 -6 -8 44 -13 -28 -29 49 -18 -45 54 -52 53 -53 -32 -41 -48 58 -58 60 -54 -61
right_child=2 3 15 10 5 8 7 26 19 14 16 31 13 30 -16 32 18 39 -20 -21 21 38 -24 24 -26 -27 45 35 -30 -31 50 -33 -34 -35 -36 -37 -38 -39 -40 40 -42 -43 -44 47 -46 -47 56 -49 -50 -51 51 52 59 -55 -56 -57 57 -59 -60 61 -62 -63
leaf_value=-0.0082353295695427823 -0.021785967792907236 -0.015311759245063703 0.027464326257576017 0.026102603056446391 0.020260560636824448 0.014587583689994807 -0.042385731569008045 -0.024923602100258149 0.013148328196272027 0.012464233037536736 0.0087794660586620298 -0.028576027183028842 -0.034561470546852976 -0.00074377775560653756 0.049972728361106139 0.038271351353617054 0.0022385656434517928 0.0061406219665790136 0.03598035403613168 0.041782995925661044 -0.0067806558941745174 -0.0088163622573956858 0.035197220192867647 -0.080223840366580645 0.038173219187374693 0.035422313330556919 -0.0050256729296435871 0.0017782283738954016 -0.030170999656646425 -0.0034385277378950162 0.020116192702786737 -0.013040763574089349 0.067768505499863893 0.067584967491316206 -0.078174914687323752 0.0043662459127113374 0.011005864200230153 -0.04800595961259127 0.013587640017206687 0.042441023055488872 0.039326287831831098 0.047927510810474416 -0.024150957826335816 -0.050669227567441924 -0.054615807443166478 0.029279729464537843 -0.028663313716170993 -0.031982512581972176 0.026361433365170911 0.030169010605503688 0.036449270364073125 -0.025917139669122624 0.069017323653034077 -0.060033906890996927 -0.06340295448208208 -0.010773521173801049 0.0015787571058699474 0.017867094472548448 -0.027140389856543625 -0.046233609757726696 -0.076353239736656933 0.013076087509211685
leaf_weight=447.69286273179387 387.64722931855067 756.74589321993699 178.78287285664555 90.78956633566122 164.54038150378619 161.5885367024166 397.4679590260348 137.11687283414358 267.08445036434568 402.17548693711433 662.32924628010369 190.6573654171516 33.961657979991287 32.41147381986957 343.34932781379757 237.94514325054479 178.16487805182078 775.21798513797694 444.24092949614715 195.79876685346244 51.913288364870823 270.19377253930725 866.63201110274531 10.808532750299493 12.12941904578838 205.66520616292109 153.52438129094662 163.15682674806521 533.16990517875092 427.64228744529828 6.6504893451783564 139.58650086059788 270.18468597868923 104.59882275868949 425.45567374947132 281.16552075617074 34.651662600692362 96.994453207036713 182.43861832281982 19.307328638446052 140.19642499860493 115.0267747273756 240.07278826511902 9.1768771194911078 228.42989993605443 54.948316564710694 211.58134268842696 102.50480949610937 140.8255194960584 26.742411446713959 12.938028782475156 50.73469465974631 9.7003673851868353 171.43631411542083 170.97719083975244 78.225595476862509 88.700678724955651 52.165601390093798 142.07927341881441 78.265353002891061 4.3334151221206403 18.734980708337389
leaf_count=63175 126934 260776 2892 8464 10629 4901 207228 48228 6484 14692 102514 41054 876 657 22021 3876 12761 66382 45450 5594 1649 46900 63211 286 96 8591 10747 6236 202256 102600 87 13451 6683 4298 11036 7127 1333 6546 5317 692 4476 3280 112891 294 20197 2690 6484 3582 8289 951 174 1185 101 3949 5387 2693 2872 1193 3790 1797 95 334
internal_value=9.19346e-11 -0.0174394 0.0183514 -0.00113978 0.0138204 0.0183529 -0.0351597 -0.0395933 0.00429797 0.0254172 0.0110333 -0.0442718 -0.0491527 -0.057522 0.032984 0.0497731 0.0181753 0.0147751 0.026329 0.0252607 -0.00297163 -0.00712075 0.029028 -0.0722244 -0.0176164 0.0202322 -0.0074659 -0.00451972 -0.0214536 -0.0121622 -0.0447713 -0.0325363 0.0562823 0.0472225 -0.0749509 -0.00780834 -0.0252068 -0.0336337 0.000213825 0.0101194 0.0230938 0.031644 -0.0355192 -0.0374175 -0.0427694 0.00401639 -0.0130131 -0.0212142 0.0128882 0.00951597 -0.0474957 -0.0409374 -0.0439422 -0.052243 -0.0602759 -0.000239328 -0.0178931 -0.00983936 -0.0161021 -0.0273329 0.0241291 -0.0347783
internal_weight=12889.4 6608.92 6280.46 3442.46 5488.95 4673.66 3166.46 2718.77 1563.32 3110.34 2152.54 2373.18 1676.08 1038.54 1817.82 791.512 1425.56 1292.51 763.231 462.883 726.981 636.192 1474.47 482.355 22.938 607.841 345.59 1100.44 1289.92 815.29 556.182 697.098 612.729 342.544 459.417 938.849 183.559 148.908 452.632 1012.95 237.729 279.567 637.541 557.511 419.087 208.473 657.684 138.424 318.99 35.9193 523.771 346.143 333.205 222.171 177.628 97.5329 494.527 282.946 230.78 111.034 14.0338 97.0003
internal_count=1741434 1252803 488631 702255 470882 241348 550548 487373 44681 196667 239223 425708 346179 26060 108515 17749 169014 88152 66500 12078 70209 61745 86494 12294 382 23283 61665 32603 463032 229534 13766 79529 14857 8174 11912 27702 9528 8195 52217 74243 7861 13909 320119 66078 61251 13437 20575 4827 21050 1245 13109 7635 7461 5134 5474 3385 14339 7855 6662 2327 196 2131
is_linear=0
shrinkage=0.05


Tree=2
num_leaves=63
num_cat=0
split_feature=29 18 29 29 18 42 42 42 22 18 35 30 30 21 29 40 42 42 39 35 18 40 23 32 35 14 30 39 23 13 21 21 31 1 29 19 4 42 35 34 42 34 18 5 28 17 37 4 39 29 1 4 18 12 8 42 37 41 16 38 28 20
split_gain=6504.39 720.062 183.911 167.824 165.55 148.093 100.458 88.2676 69.5817 59.2531 57.4933 47.3003 70.2958 39.0832 36.9323 36.5239 32.5971 32.5939 32.3274 31.37 29.2225 28.7287 27.9047 26.6368 26.5781 26.2008 24.0093 23.6228 22.7588 21.0933 19.259 19.082 18.8824 18.5201 18.1987 17.5618 17.2984 17.0892 15.942 15.2955 20.9925 14.5338 13.159 17.4758 13.3637 13.0591 17.4772 23.895 14.0067 13.0082 12.9896 12.9017 12.6959 15.7097 14.1445 12.4272 12.3016 12.0482 11.9785 11.8329 11.7193 11.706
threshold=1.1462151589710032 0.0058419309429163608 5.024607192804706 0.38854373626615268 0.0034908632205750676 0.52854540402628858 0.54202270697983745 0.53210452865154412 -0.37940952255126048 0.0033992532986826993 1.0000000180025095e-35 0.30679088417913752 -0.21315955705608755 -0.78656609248549292 4.3559885457171541 -42.659770933444172 0.52884555594374383 0.58087954570366707 -9.1563502743247209 1.0000000180025095e-35 0.0025343659883066776 42.68987896320926 4.5000000000000009 1.5681132506179236 1.0000000180025095e-35 59.004999999997388 0.47100729451632201 3.8071335598624505 4.5000000000000009 27624.500000000004 -0.37940952255126059 -0.25881904510252113 -8.5997432239941034 13.718863837507497 2.5304098945350773 0.00070030412739470395 -0.28441703759708442 0.5314188308646991 1.0000000180025095e-35 1.0000000180025095e-35 0.50155459489248466 1.0000000180025095e-35 0.002045294037512667 14.640796930717427 3.2213876079217814 8.6319639760021314 20.465741984495256 -0.14595997157937354 -3.4638554452394597 6.2633508865321765 5.9329587896947773 -1.6751185544055078 0.0014457814054037981 8051.005000000001 0.082422888622191118 0.5561836169355957 -11.259833343247008 7.6868354140785327 1.3070224404999997 87.717308690339522 -3.1784455954102082 1.9036207244901926
decision_type=2 2 2 2 2 2 2 2 2 2 2 2 2 2 2 2 2 2 2 2 2 2 2 2 2 2 2 2 2 2 2 2 2 2 2 2 2 2 2 2 2 2 2 2 2 2 2 2 2 2 2 2 2 2 2 2 2 2 2 2 2 2
left_child=3 4 5 13 8 19 31 10 24 -8 -6 12 36 41 30 -7 -4 21 -9 -3 22 23 52 -17 -2 -18 32 -13 61 45 -12 38 -20 -34 -21 57 -10 59 -5 -24 -41 -1 43 -31 -45 46 47 -14 -47 -35 -50 -22 -15 54 -54 -27 -11 -29 -37 -16 -38 -26
right_child=1 2 16 6 7 15 9 18 11 56 14 27 29 20 37 17 25 -19 26 34 51 -23 39 -25 28 55 -28 35 -30 42 -32 -33 33 49 -36 58 60 -39 -40 40 -42 -43 -44 44 -46 48 -48 -49 50 -51 -52 -53 53 -55 -56 -57 -58 -59 -60 -61 -62 -63
leaf_value=-0.044938637155260128 -0.046036459155080423 -0.017750482593301368 0.048553382981750222 -0.038211029261311077 -0.025278276999048634 0.05891077269719977 -0.033844985365980344 0.0481220330382819 0.030634641340526014 0.03336814455399216 0.012465402945966056 -0.015658283010132331 0.014783464331638517 -0.067847459834739429 0.036251502615496208 0.022545196112729416 0.0056437269555571767 0.058777436731036276 0.039470636478653398 0.013148474821975656 0.046449936288128539 0.049992534350410289 -0.050175068048957827 0.041937715071522642 -0.03111333728668287 0.061664492963313167 0.036944882129665166 0.051250381212238738 0.008128978022139341 0.011238516401038293 -0.016575804644544424 -0.051888244539726583 -0.0088906120082120742 0.015185557528112879 0.028945621062547312 -0.014093770273673537 0.053960527322730704 -0.053586486597487618 -0.02428283581898728 0.063589950157201244 -0.033321055663426233 -0.031639649087811493 -0.020126263144941398 -0.066671346456305347 0.054513264326984515 -0.039320525106534859 0.056715384216884247 -0.030540185756613582 -0.06904890660968635 0.05571224574065034 0.055598344828587831 -0.045757809471410477 -0.060044122005213446 -0.05773611232881283 0.074853777271868857 0.073649928282995283 0.0056209922996952226 -0.040793983370736336 0.02307111770749776 -0.016366214944644696 0.0034373162498726991 0.051655742405060372
leaf_weight=1161.3578393550124 87.244511147626326 53.689949626568705 464.90133614011211 528.97714313330653 93.082196984891198 387.52988664085569 98.804615584405838 268.13319264947495 108.98772146174451 56.649122226415784 596.57525297618122 38.268638662731973 42.29131051863078 472.03730609521153 241.39955710212234 363.8167720187339 18.469854692462832 220.82556062570075 78.704438729109825 331.48015894964919 3.8123137924703761 322.08860327351431 411.39129407983273 344.97783887448895 100.83502041667816 632.11180231708568 339.95818144193618 72.332536427304149 77.232504367129877 10.02030852914322 63.128932245163014 154.31435350053653 77.748282223954448 154.39437283592997 405.14975531524397 24.664733395329677 12.15389193833107 5.7049955574329934 335.90154686485766 6.4165411241992834 43.277402285020798 249.58898806179059 109.2049503660528 48.562968726851977 2.3867507912218562 6.6693350378191125 8.7029546946287137 93.091382565442473 2.3254296439699855 22.713333057239652 20.654695539589738 773.4656605338314 3.5621414503548285 560.53040246136516 4.2756191881198902 328.75804897386115 135.47004968876718 3.7389959555584928 179.21259790394106 11.179652638733385 206.34145662290393 4.4607727432739912
leaf_count=352994 28570 8914 4748 114309 18385 7426 23007 5197 3002 5974 21986 2747 1403 193715 2643 8174 78 3501 1248 15630 859 5321 160242 7054 18815 2832 6960 2144 8769 1071 6652 52938 2626 4807 11587 1655 179 43 60458 752 14953 59820 4724 3020 37 292 167 5974 156 95 384 241191 549 195341 94 1787 17400 128 5539 94 10027 247
internal_value=2.39415e-10 0.0308118 0.0453257 -0.0436673 0.013308 0.036926 -0.0282943 0.0224239 -0.000826484 -0.00237962 0.0121649 0.0053098 -0.00221584 -0.0491259 0.0159616 0.0454974 0.0594559 0.0413447 0.0334392 0.0191476 -0.0531751 0.0376104 -0.057249 0.0319837 -0.0233363 0.0646314 0.0275939 0.0211878 -0.0124861 -0.0180035 0.00968637 -0.0356915 0.0180635 0.0114525 0.021837 0.0262246 0.0143638 0.0319896 -0.0328016 -0.04701 -0.0208078 -0.0425861 -0.0305152 -0.0491231 -0.0609944 -0.00574822 -0.0119667 -0.0163818 0.0244712 0.0203829 0.0429849 -0.0453056 -0.0617867 -0.0567532 0.0135448 0.0657653 0.0138026 0.0467263 0.018575 0.0339225 0.00624769 -0.0276069
internal_weight=12085.7 7085.91 3873.8 4999.83 3212.11 2429.56 1310.12 1952.72 1259.38 290.924 1011.07 989.611 671.393 3689.72 917.988 1639.24 1444.24 1251.71 941.652 790.32 2278.77 1030.88 1501.49 708.795 269.773 979.34 673.519 318.218 182.528 343.91 659.704 1019.19 333.56 254.856 736.63 279.949 327.483 258.284 864.879 461.085 49.6939 1410.95 170.175 60.97 50.9497 173.735 144.086 135.383 29.6495 177.108 22.9801 777.278 1040.41 568.368 7.83776 960.87 192.119 76.0715 203.877 252.579 218.495 105.296
internal_count=1741434 246838 77052 1494596 169786 67607 274086 70736 99050 46381 49803 42649 30436 1220510 31418 31476 9445 24050 20933 36131 807696 20549 565646 15228 56401 4697 15736 12213 27831 17228 28638 227705 8776 7528 27217 9466 13208 2780 174767 175947 15705 412814 8852 4128 3057 8376 7544 7377 832 4902 540 242050 389699 195984 643 4619 23374 2272 7194 2737 10206 19062
is_linear=0
shrinkage=0.05


Tree=3
num_leaves=63
num_cat=0
split_feature=29 18 42 29 29 18 21 42 29 42 37 21 42 15 35 35 29 30 35 18 3 42 42 6 30 29 42 22 12 23 18 39 40 23 30 20 29 35 32 15 22 29 12 2 5 38 38 39 37 20 42 38 30 40 30 17 5 40 30 42 2 25
split_gain=7389.29 630.198 210.321 134.688 133.957 124.189 120.859 109.524 100.698 76.1386 56.4553 37.38 35.1501 32.8632 30.3834 29.1492 25.9727 25.0809 28.6966 20.6268 20.5684 16.6821 16.3666 23.0349 16.197 15.6031 14.2209 14.0959 13.962 14.0255 17.0883 13.8653 18.6443 18.38 14.7034 13.5461 13.2246 13.2219 13.1058 13.0768 12.6842 12.6265 12.028 11.7933 11.7245 11.6636 11.5925 9.87692 10.4852 9.85901 9.78148 10.378 9.46886 9.42253 11.3269 9.38865 9.25715 9.15585 11.9201 9.13445 9.02093 9.01815
threshold=1.1462151589710032 0.0048486238577908685 0.52884555594374383 3.5936911478445923 2.9340292095759621 0.0034294358276758521 -0.25881904510252113 0.54202270697983745 3.9280915815198294 0.52793267109325492 -11.259833343247008 -0.70710678118654735 0.55273915211324887 -11.068999999999868 1.0000000180025095e-35 1.0000000180025095e-35 6.2633508865321765 -0.43109916611320725 1.0000000180025095e-35 0.0097063024057923979 2.3787111330000035 0.53074664490480206 0.61484288817202304 121.00500000000012 -0.069337094776418987 0.45270035951831217 0.53174737009086692 -0.12940952255126037 8051.005000000001 4.5000000000000009 0.0014574337790698526 -47.120630562170838 8.3926444473805315 4.5000000000000009 -0.34341680705749006 1.6509139093816489 0.12792449286012461 1.0000000180025095e-35 1.3927756033914498 -2.9994999999999887 1.0000000180025095e-35 0.38854373626615268 69554.500000000015 9.0049999999992014 5.0303604836515738 82.625022253987041 32.237854168585102 2.994550372900449 -11.601810242922509 0.73016789076679756 0.50129476407752838 50.190605942649142 0.14991677349368163 -7.8921144278334712 1.1290055321569377 0.22826643476391376 57.888560807705026 50.851892309389591 0.41565761245103644 0.53435762734453129 24.004999999997384 -0.021986453872452346
decision_type=2 2 2 2 2 2 2 2 2 2 2 2 2 2 2 2 2 2 2 2 2 2 2 2 2 2 2 2 2 2 2 2 2 2 2 2 2 2 2 2 2 2 2 2 2 2 2 2 2 2 2 2 2 2 2 2 2 2 2 2 2 2
left_child=5 3 4 6 15 11 9 -7 12 14 25 36 13 59 27 -3 56 61 -19 45 -8 40 23 53 39 -9 35 -2 47 30 -30 -16 34 -34 -33 -22 -1 -15 -21 -20 -5 -12 -31 52 -29 -10 -17 48 -13 -35 51 -44 -38 -14 -55 -46 -6 -39 -59 -4 -41 -11
right_child=1 2 8 21 16 7 20 10 19 17 41 28 22 37 31 46 -18 18 24 38 26 -23 -24 -25 -26 -27 -28 44 29 42 -32 32 33 49 -36 -37 43 57 -40 60 -42 -43 50 -45 55 -47 -48 -49 -50 -51 -52 -53 -54 54 -56 -57 -58 58 -60 -61 -62 -63
leaf_value=-0.050317461586554257 -0.038495800243670671 -0.031886206310389659 0.037454900720721086 0.016724521725909512 0.02095731346478202 -0.043410962806225389 -0.052001651971043318 -0.0080548774246493437 0.056322028927470097 0.047127240499872491 -0.034594836942829797 0.076642942932258554 0.049790188172335492 0.0074778008149396676 0.02035572532011282 0.021636800070648835 0.049926126065153342 -0.0030445706262225954 0.022075479969153839 0.057390815461494916 -0.045801438324850778 0.047599368313089065 0.06702862462760327 0.053001033303225989 0.028372708812246617 0.033958099585046614 0.0026029195073015666 0.060468928788569402 -0.068204530312401396 -0.053349743627071601 -0.056437841121648839 0.0049004161854374834 -0.0012917495712243257 0.017565194710483217 -0.019740867964037852 0.053992890929241755 -0.043322104435182744 0.026602661359477239 0.07007128498554184 -0.094352384001691436 0.03990706752603905 -0.010337537189772802 -0.057597011370905726 -0.04141699771970403 -0.056011975503580017 0.038917003034623365 0.0034103672538031149 0.042947819840509362 -0.050515508335371676 0.053658989997667009 -0.03566763804670809 0.077737737213106908 0.093072097815495178 0.01806325115044442 0.049514480770772529 -0.0090535537602656879 0.03541492705241666 -0.0019455795826914105 0.043581062896543808 0.054776461788643753 -0.01289434024296183 0.019429281869013743
leaf_weight=1066.3217113010833 59.78547605669155 48.181219536614663 119.26416581205558 130.62926945259096 140.62910751522577 838.04553670736641 89.800239529096871 31.782336028431018 575.69855680468027 105.79688041827467 118.52848105211888 1.8238968853984303 60.101629350960138 64.235271833487786 107.177524166269 128.71055314548721 307.63249721561442 142.74027045119146 33.083819890744053 337.86649592837784 41.386025180931028 172.87296316382708 119.705289745747 482.19925025479461 295.37419668940129 72.538253230595728 42.939420325572428 5.6929023718694216 483.28912567439693 543.29847224822879 853.39979563763336 107.2178586772352 125.64397619164083 64.074555989413057 139.04956827775459 3.7049275508907149 2.2351778993615872 352.264540173157 513.39402652610443 3.9118443555198636 107.61022013257025 98.001879246614408 2.1385067205992518 529.42453374362958 11.519185281358657 115.57939934293972 270.75970784814854 5.1567265826161011 14.585181058268063 26.846431900048628 33.721338519681012 4.1959953375626355 2.9543445382732898 109.13473462776165 38.8062374604051 140.14505214981909 520.58245656577492 15.599457453907233 183.57474976900266 210.35227037669392 25.91408080724068 40.690009713565814
leaf_count=346093 15038 12024 2699 5545 3833 258415 25689 10164 3609 2541 40475 29 1046 5384 5511 6819 2826 11962 736 2283 9381 2974 1572 7824 8267 5419 4913 204 193437 190481 286590 6032 8730 2634 11983 194 1256 8070 2557 340 1999 17170 510 130458 1528 755 19467 300 1605 508 11860 186 148 2412 627 15764 11418 278 2676 3254 1196 1736
internal_value=-2.06263e-10 0.033568 0.0435865 0.0102285 0.0274723 -0.048108 0.00371516 -0.0339001 0.050508 0.00853453 -0.00905814 -0.0527559 0.0423173 0.0357678 -0.00191247 0.0048519 0.0379241 0.0212345 0.0159136 0.0598281 -0.0351654 0.0357755 0.0499613 0.0470014 0.0234665 0.0211584 -0.0179907 -0.0178282 -0.0574197 -0.0578691 -0.0606922 0.00415056 0.000397956 0.0110994 -0.00901275 -0.0376018 -0.0470997 0.0289464 0.0650384 0.000430846 0.0271958 -0.023616 -0.0514003 -0.0406818 -0.0099759 0.053412 0.00928298 -0.0174127 -0.0363816 0.0282227 -0.0249588 0.0320492 0.0343258 0.0330955 0.0263132 -0.0126201 0.03234 0.0314472 0.0400154 0.0485091 -0.023578 0.0394335
internal_weight=11439.3 6737.88 4714.27 2023.61 1416.5 4701.44 1612.49 1158.9 3297.78 1434.66 320.851 3542.54 1755.24 945.29 787.153 447.651 968.844 647.511 501.024 1542.54 177.831 411.112 809.947 690.242 358.284 104.321 88.0304 217.143 1941.61 1920.04 1336.69 570.01 462.832 216.565 246.267 45.091 1600.94 615.674 851.261 62.9097 238.239 216.53 583.354 534.614 157.357 691.278 399.47 21.5658 16.4091 90.921 40.0558 6.3345 5.18952 208.043 147.941 151.664 661.212 551.439 199.174 329.616 29.8259 146.487
internal_count=1741434 246838 101433 145405 56387 1494596 134887 331643 45046 94710 73228 1162953 35842 22361 67932 38310 18077 26778 22501 9204 40177 10518 13481 11909 10539 15583 14488 32534 684998 683064 480027 35398 29887 11872 18015 9575 477955 16408 4840 2272 7544 57645 203037 131862 17496 4364 26286 1934 1634 3142 12556 696 1404 4085 3039 17292 15251 11024 2954 5953 1536 4277
is_linear=0
shrinkage=0.05


Tree=4
num_leaves=63
num_cat=0
split_feature=29 18 42 4 29 29 21 29 42 42 18 42 42 40 35 35 30 21 29 22 38 18 3 40 25 37 29 29 30 30 22 6 29 5 19 42 40 23 30 23 18 13 42 16 12 39 42 35 39 19 41 28 16 25 26 24 42 12 15 16 21 0
split_gain=6699.31 574.186 182.154 127.935 123.832 118.731 101.515 87.6312 78.6872 71.4221 53.4604 45.7755 38.2401 35.5478 27.9176 26.6401 31.4493 26.2475 24.835 22.7851 22.6434 22.2847 21.4908 20.1994 19.8945 15.9458 15.3804 14.4476 13.8376 16.8778 13.6451 13.5806 13.5802 12.7796 12.6538 13.6564 12.1071 18.9142 16.5116 11.766 15.9323 14.0023 12.4659 10.4519 9.97724 9.84859 9.68146 9.59928 9.47574 9.40809 10.9775 12.8773 9.29315 8.93388 8.89147 13.9981 9.27471 10.1871 8.50632 8.46288 8.27452 8.06808
threshold=1.1462151589710032 0.0048486238577908685 0.52884555594374383 -0.45061662318719992 3.1120475110967951 2.9340292095759621 -0.25881904510252113 5.024607192804706 0.52764525794511818 0.54325572567615066 0.0034294358276758521 0.58387426122893482 0.54202270697983745 -40.989756649564576 1.0000000180025095e-35 1.0000000180025095e-35 -0.45631980673865985 -0.70710678118654735 5.024607192804706 -0.78656609248549325 32.237854168585102 0.0034603413940367581 2.3787111330000035 37.872457223389503 -0.22209015888946523 -47.774080972336371 6.2633508865321765 0.45270035951831217 0.30679088417913752 -0.33380950876887622 -0.60355339059327406 742.0550000000004 0.40036030595738131 5.0303604836515738 0.00035802814280217371 0.53174737009086692 8.3926444473805315 4.5000000000000009 -0.35344333526007715 4.5000000000000009 0.0015345723591331276 96300.500000000015 0.50129476407752838 6.6012368210000014 8051.005000000001 -10.720751169677895 0.53645124801971578 1.0000000180025095e-35 -13.713563655177493 0.00056346846309754395 -0.91112062664519022 1.6681513033884976 4.6490695080000011 -0.21233191981233077 0.49443053222756334 -0.17237902977169092 0.55078503745367702 23458.485000000004 -3.259500000000116 27.261038768000009 -0.98296291314453399 -0.22735001753997339
decision_type=2 2 2 2 2 2 2 2 2 2 2 2 2 2 2 2 2 2 2 2 2 2 2 2 2 2 2 2 2 2 2 2 2 2 2 2 2 2 2 2 2 2 2 2 2 2 2 2 2 2 2 2 2 2 2 2 2 2 2 2 2 2
left_child=3 4 5 9 6 20 8 11 14 -1 17 13 -12 46 33 16 61 -5 -7 21 -3 -6 -8 24 -15 -16 28 -11 29 -21 -26 54 59 -2 -24 -36 38 -38 -27 40 -19 -41 -43 -25 -42 -34 -4 -22 -17 50 -50 -52 -30 -31 55 -9 57 -57 -37 -14 -18 -10
right_child=1 2 7 10 19 18 22 31 15 27 12 -13 32 23 25 48 60 39 -20 26 47 -23 34 43 30 36 -28 -29 52 53 -32 -33 45 -35 35 58 37 -39 -40 41 44 42 -44 -45 -46 -47 -48 -49 49 -51 51 -53 -54 -55 -56 56 -58 -59 -60 -61 -62 -63
leaf_value=-0.034048561800184111 0.031306646865673353 0.016175044037136831 0.039754591583271798 -0.046708091405565103 -0.034634432133234708 0.025982543463855451 -0.057521036362888439 0.061909776802630136 0.04792644075530407 -0.0081801159713395088 -0.043887698885540657 0.056801418224294437 -0.034032209354394452 0.041913814677349531 0.017415794327743341 0.038686588027360101 0.015710386341867257 -0.064871049021843777 0.042256230978693327 0.036302970198666705 -0.03619995449979567 0.02116972322399803 0.048728166023420949 0.034944452627553933 0.012191158884020198 0.00029016019157970856 0.05380417050689517 0.031697884526475394 0.04977108618353137 0.042465823056833274 0.02932764361441155 0.069738311420631832 0.023142699740792985 -0.027577622976752848 -0.048933819261709699 0.036294443774051693 -0.014367957557627995 0.019573479010410566 -0.031662057004566389 -0.051289133916037059 -0.0092540916525714525 0.049580250964145235 -0.032736760550035125 0.049740228831395429 -0.054382886713883562 -0.014620228004973635 0.054271607122870116 -0.0057281278630341489 -0.085241996319932414 0.023155411737255743 0.029401845495436892 -0.10198679063645358 0.02205190769680045 0.0027558165007317056 0.06627112393618563 0.026359464310523124 0.056367511332659527 0.049077378131436047 -0.019003322750342434 0.027532844074400892 -0.020136398511596595 0.0083126640823244485
leaf_weight=159.53849160169193 9.778252710180821 134.20004099109792 167.82935057375289 1487.2364088069662 23.919173228758154 425.65506679966347 72.886296320692054 300.52116232644767 33.472617533843732 33.246424075456162 661.24535697147076 441.68875547705102 116.26922388642561 225.89817712979857 98.780670962180011 100.47704900507233 19.577052661246853 531.46430626207439 521.8753680401278 104.34711903173593 30.493294118386984 70.975590667163488 6.266572510910918 236.77024885675928 163.67905585247354 83.258944063956733 80.940933711710386 71.685143999842694 103.0779579213704 16.559359923237935 400.16548979789513 252.95793777471408 22.213927850083564 159.74589261470828 32.425954722799361 9.5651595974923094 75.801074364761007 89.520432263438124 78.603310916689225 545.19689279997692 12.443684528203447 5.9989209742634584 19.711504498904105 240.70155396078189 776.32363536104822 77.509088247497857 363.81206875345379 169.55953126467648 4.1725872320239459 311.68535164336208 11.22732940566493 2.2363390397513276 42.78918091149535 97.908357372565661 184.68010976462392 79.580080186016858 162.38914269977249 129.88751906366087 25.48067826507031 5.8635027178752344 90.597606461153191 20.865810627656174
leaf_count=55053 495 9590 2784 471277 3838 12655 24609 1164 756 11187 214610 5140 39954 4391 4783 1910 1267 210297 5422 2263 9253 2554 439 3760 5548 5990 833 5169 1728 322 10292 1141 1909 31087 8577 587 8187 2892 11156 195113 1113 393 6803 3513 264721 15463 4484 19467 423 9081 468 215 1011 4207 819 512 846 652 3868 1534 10637 1222
internal_value=2.66465e-11 0.032485 0.0419376 -0.0467204 0.0091555 0.0259074 0.000987909 0.0480701 0.0058255 -0.0129759 -0.0488146 0.0423786 -0.037861 0.0388372 -0.00702013 0.0186966 0.00158606 -0.0516778 0.0349457 0.0293498 0.000285942 0.00710373 -0.0382672 0.0342846 0.0293762 -0.00019044 0.0340871 0.019063 0.0297109 0.0217587 0.0243531 0.0595583 -0.0198984 -0.0241811 -0.0192359 -0.0255482 -0.00550597 0.00401109 -0.0152264 -0.0555861 -0.0581796 -0.0495887 -0.01353 0.0424033 -0.0536709 -0.0062083 0.0496889 -0.0103728 0.0252459 0.0211451 -0.0143824 0.00757796 0.0416398 0.00850043 0.0565538 0.0538847 0.0473992 0.0404465 -0.00391075 -0.0310765 -0.0137667 0.0327149
internal_weight=11035.2 6509.29 4632.34 4525.95 1876.94 1281.78 1336.42 3350.56 1189.8 264.47 4261.48 2240.54 883.101 1798.86 595.489 594.312 164.513 3378.38 947.53 540.518 334.253 94.8948 146.625 1267.21 789.743 425.964 445.623 104.932 364.682 218.815 563.845 1110.02 221.856 169.524 73.7384 67.4718 327.184 165.322 161.862 1891.14 1320.23 570.907 25.7104 477.472 788.767 99.723 531.641 200.053 429.799 329.322 17.6363 13.4637 145.867 114.468 857.058 672.378 371.857 209.468 35.0458 122.133 110.175 54.3384
internal_count=1741434 246838 101433 1494596 145405 56387 128649 45046 90569 71409 1423187 39912 273470 34772 64590 25979 13882 1149717 18077 16756 38310 6392 38080 27504 20231 33008 10364 16356 9531 6792 15840 5134 58860 31582 13471 13032 28225 11079 17146 678440 476131 202309 7196 7273 265834 17372 7268 28720 12097 10187 1106 683 2739 4529 3993 3174 2010 1164 4455 41488 11904 1978
is_linear=0
shrinkage=0.05


Tree=5
num_leaves=63
num_cat=0
split_feature=29 18 42 4 29 42 29 29 42 18 30 35 42 21 42 39 37 18 22 40 21 29 38 18 21 21 18 23 16 20 29 40 6 42 42 12 18 1 15 23 13 13 5 18 12 18 37 38 32 9 1 5 6 30 39 13 22 42 32 22 31 22
split_gain=5837.7 489.569 168.535 125.073 124.909 107.066 100.13 91.3344 68.432 46.8328 39.7153 42.8512 38.1266 31.8256 28.0218 26.0007 25.2113 24.6747 23.3761 22.6326 20.7504 20.6325 20.5381 20.0932 17.9919 15.1309 14.4572 14.1107 14.5849 14.0335 13.3112 13.3024 11.4329 12.3024 11.0872 10.487 10.4522 10.165 9.53163 9.38591 10.656 12.3147 11.2127 10.0595 9.56048 8.93683 8.60483 8.58562 8.46312 8.43374 8.38053 8.24087 8.22642 7.99036 7.98126 7.92704 7.8432 7.67798 7.48489 7.40048 7.39887 7.19439
threshold=1.1462151589710032 0.0049162169603964795 0.52884555594374383 -0.4206630021689472 3.1120475110967951 0.52680473521154514 2.9340292095759621 3.5936911478445923 0.54325572567615066 0.0025729140532016839 -0.43109916611320725 1.0000000180025095e-35 0.56518536004137054 -0.25881904510252113 0.54202270697983745 -29.088463665033483 -50.048821474687422 0.0097063024057923979 -0.60355339059327406 33.916259501689844 -0.78656609248549292 5.024607192804706 32.237854168585102 0.0034294358276758521 -0.98296291314453399 -0.25881904510252113 0.00392422574021871 5.5000000000000009 1.8418587075000008 1.6509139093816489 -0.0092006770386212269 10.868875489944296 133.60000000000221 0.60865725667331538 0.53010038318457864 8170.7800000000016 0.001846210579825588 27.051802158073123 -5.2994999999998971 4.5000000000000009 96300.500000000015 96817.000000000015 39.489449416608025 0.001383001954510397 8051.005000000001 0.005733790983609992 -13.088933665443617 15.855631857289447 1.3927756033914498 -0.018932939555338296 8.5118861006177795 35.287437771088975 49.004999999999207 0.49512072622066655 -5.9883768403506101 98921.000000000015 -0.12940952255126037 0.5373712132130638 0.91007504752155655 1.0000000180025095e-35 11.245240322385506 0.78656609248549303
decision_type=2 2 2 2 2 2 2 2 2 2 2 2 2 2 2 2 2 2 2 2 2 2 2 2 2 2 2 2 2 2 2 2 2 2 2 2 2 2 2 2 2 2 2 2 2 2 2 2 2 2 2 2 2 2 2 2 2 2 2 2 2 2
left_child=3 4 6 8 5 13 22 12 -1 20 54 24 15 16 -11 57 -2 38 23 58 -5 -8 -3 -6 -12 53 -16 28 -18 -15 -10 -29 33 -14 59 -28 60 -33 -9 43 47 42 -42 -22 49 -40 -37 -41 -19 -45 -31 -32 -25 -13 -7 -34 -23 -4 -17 -20 -30 -43
right_child=1 2 7 9 18 10 21 17 30 14 11 25 32 29 26 19 27 48 34 -21 39 56 -24 52 -26 -27 35 31 36 50 51 37 55 -35 -36 46 -38 -39 45 40 41 61 -44 44 -46 -47 -48 -49 -50 -51 -52 -53 -54 -55 -56 -57 -58 -59 -60 -61 -62 -63
leaf_value=-0.032689863969896531 0.012183676817275427 0.012465548008321987 0.033258891164368413 -0.044401617444932012 -0.030688991586171107 0.036229899176852244 0.022829896313705359 0.053473600463270189 -0.021133157601463004 -0.042964414067376451 0.0186675951614752 0.010752082602682849 0.029772486083124047 -0.050020905470338717 -0.036619417111858558 0.0057493198843548629 -0.035319336487506382 0.05278450971955273 0.015402878028262283 0.034637758552238017 -0.061756708022590881 0.030381528509461353 -0.015180652087987854 -0.066317471442013151 -0.029135776538014874 -0.017731433681944152 0.021307938230856579 -0.017745724191016256 -0.0019484724246706928 0.073949200846647509 0.0088153643383088037 0.043446426616980872 0.054533598789893105 0.052294575891971874 0.041978266352505123 0.015631579045707989 -0.017842638918743218 -0.0047462030227781189 0.025340262488486271 0.0081058850666224074 -0.0819520478556819 -0.059088865524554904 0.068588470468286394 0.042123022387531281 -0.053067073224945874 0.04519546561110712 -0.024232601781250033 -0.050554293469479983 0.062894140415458696 -0.049549071831239182 -0.051739678596722308 0.037530078267411143 0.021624607406772186 0.026494817387731726 0.0041385458711602572 -0.0022453141412437524 0.04310637455374592 0.04680866429332764 0.021664183400490439 0.032771429340091661 0.052332824261585364 0.0056616626111440464
leaf_weight=176.45866861077229 96.494497987674549 118.82309801205702 175.68528554229124 932.36112455202965 25.75635576096829 174.37717424001312 396.18058539065532 312.80175307071477 19.8595530583043 1110.3869332655158 24.628809768008068 175.54883301383234 142.26578509737737 76.539113687555073 162.29999089804187 111.62998958195385 115.92375825432828 319.81695478544862 96.67783069727011 341.84326004497416 478.46483687861473 200.56008927049697 154.56333468337107 2.7380402955459422 98.024753799538303 32.644090938367299 17.364366197012714 45.113303086778615 21.235825187060986 3.8202105922391629 48.267412708577467 23.392656856303802 333.96127640281338 105.67050712637138 202.02467607671861 15.189702316725741 170.24482236391486 20.55734403905808 68.147935452288948 6.3130795961478716 1.565661731990988 13.450350786617493 5.8909521886380389 4.9957395873498172 697.27688752378162 336.56652822058822 124.40105997470528 522.46666063144221 586.92310225112305 5.0401152841804997 2.0314742634363938 51.803160253817623 92.399897756011342 149.02657655350049 21.796472582529532 6.26246272411663 305.63249749180977 258.20954537873331 218.45830273356114 167.73975722689647 8.9124880277086032 6.298889009980484
leaf_count=63288 6670 9359 3666 306022 4398 4089 12453 1860 7475 372198 1336 6703 2685 25216 50260 4881 23014 2682 3783 6048 192026 2529 27911 197 17426 5542 1811 6431 2263 85 5864 850 4378 915 2479 2513 23178 1541 851 1792 673 5309 498 260 245275 2633 40076 192806 2885 495 409 4790 3068 3955 1211 88 2852 3751 7087 3171 309 1165
internal_value=5.13305e-11 0.0307033 0.0396111 -0.0442506 0.00903711 0.000162249 0.0233446 0.0453748 -0.0128832 -0.0465161 0.0137102 0.00596169 0.037252 -0.0155139 -0.0392109 0.0317814 -0.0107857 0.0538463 0.0280809 0.0256205 -0.0504216 0.0313759 -0.00316467 0.00848754 -0.0195369 0.0147168 -0.0261561 -0.0162532 -0.0212032 -0.0443152 0.0162593 0.00132703 0.0475375 0.0393714 0.0331592 -0.0153364 -0.0130373 0.0209046 0.0469185 -0.0536441 -0.0482838 -0.0177668 0.0369795 -0.0561574 -0.0523697 0.0418521 -0.0198947 -0.049854 0.0593284 -0.0039157 0.030315 0.02368 0.0190937 0.0179803 0.0326643 0.0534885 0.0380646 0.0413223 0.0162821 0.026421 0.0140982 -0.0384371
internal_weight=10741.8 6341.65 4494 4400.16 1847.65 1260.31 1175.76 3318.24 296.389 4103.77 676.047 479.873 1693.99 584.265 1429.64 1105.83 501.875 1624.26 587.337 671.932 2674.12 902.373 273.386 120.894 122.654 357.22 319.255 405.38 316.317 82.3908 119.93 89.0633 588.16 247.936 466.442 156.955 200.393 43.95 717.516 1741.76 555.986 27.2059 7.45661 1185.78 707.313 404.714 139.591 528.78 906.74 10.0359 5.85168 100.071 95.1379 324.575 196.174 340.224 506.193 433.895 330.088 264.418 30.1483 19.7492
internal_count=1741434 246838 99514 1494596 147324 130228 55104 44410 81417 1413179 40262 34962 33499 89966 466858 25433 64256 10911 17096 18016 946321 17834 37270 7663 18762 16200 94660 57586 48764 25710 18129 8822 8066 3600 9433 44400 25750 2391 5344 640299 202243 7645 1171 438056 246030 3484 42589 194598 5567 755 494 10654 3265 10658 5300 4466 5381 7417 11968 6954 2572 6474
is_linear=0
shrinkage=0.05


Tree=6
num_leaves=63
num_cat=0
split_feature=29 18 42 4 29 42 29 29 42 18 30 42 35 35 42 15 29 40 42 22 21 30 38 21 18 18 37 20 6 18 23 5 21 35 21 4 29 30 12 8 30 4 5 38 12 19 23 13 42 30 30 37 25 17 17 38 5 24 42 16 6 22
split_gain=5046.27 431.239 150.15 129.304 102.798 85.8065 85.7143 81.3875 66.091 44.588 42.7379 41.99 37.0148 27.0895 21.5821 21.5322 20.664 19.7978 18.8727 18.1997 18.0173 17.9568 17.472 16.7635 16.3836 15.7792 15.2322 19.9897 14.9773 14.6555 14.0623 13.6674 13.1783 12.4873 11.3782 11.1473 10.7202 10.5818 10.0441 10.9734 9.89323 13.6508 9.58603 9.55264 9.32777 8.75065 8.52834 11.9948 12.3311 8.10146 9.9513 7.87168 7.87138 7.73403 7.68711 7.62988 7.54315 7.46653 7.14316 6.84441 6.76845 6.66949
threshold=1.1462151589710032 0.0048486238577908685 0.52884555594374383 -0.45061662318719992 3.1120475110967951 0.52680473521154514 2.9340292095759621 5.024607192804706 0.54325572567615066 0.0023260138925188215 -0.43109916611320725 0.54820803313146371 1.0000000180025095e-35 1.0000000180025095e-35 0.54202270697983745 -9.9554999999996632 5.024607192804706 -24.097254622529267 0.60865725667331538 -0.60355339059327406 -0.98296291314453399 0.49512072622066655 32.237854168585102 -0.78656609248549292 0.00392422574021871 0.0033088667046753664 -50.048821474687422 0.89485342368853471 126.46499999999925 0.0075305815406592419 4.5000000000000009 35.287437771088975 -0.25881904510252113 1.0000000180025095e-35 -0.9159756150367534 -0.31393948707460478 6.2633508865321765 1.5032726618387204 8051.005000000001 0.070404002260815404 0.30679088417913752 -0.30624514139462317 3.3486965890516376 22.390079378639317 8170.7800000000016 0.00072554610939726467 4.5000000000000009 96300.500000000015 0.50129476407752838 -0.56075197335095961 1.1290055321569377 -13.532690548609024 -0.027079947450153737 2.9985869962201042 1.3244534177678524 24.432397750455426 43.595305682331983 -0.09471096407156486 0.58709792847768116 1.5164250914999988 72.009999999999323 -0.12940952255126037
decision_type=2 2 2 2 2 2 2 2 2 2 2 2 2 2 2 2 2 2 2 2 2 2 2 2 2 2 2 2 2 2 2 2 2 2 2 2 2 2 2 2 2 2 2 2 2 2 2 2 2 2 2 2 2 2 2 2 2 2 2 2 2 2
left_child=3 4 6 8 5 13 22 11 -1 23 -7 15 20 42 -11 -4 -8 -13 28 25 -12 34 -3 -5 -16 -6 -15 32 49 -9 -29 -10 60 -17 -14 53 40 -35 39 -25 41 -21 -2 -37 -26 -42 -40 55 56 -19 -51 -46 -47 -36 -44 -48 -49 -43 -30 -45 -28 -18
right_child=1 2 7 9 19 10 16 29 31 14 12 17 21 26 24 33 61 18 -20 36 -22 -23 -24 38 44 -27 27 30 58 -31 -32 -33 -34 37 35 43 -38 -39 46 -41 45 57 54 59 51 52 47 48 -50 50 -52 -53 -54 -55 -56 -57 -58 -59 -60 -61 -62 -63
leaf_value=-0.030214798837970576 0.056754395853044093 0.010376792492220451 0.037936654948809892 -0.042399047476936992 -0.032265567132441747 0.030903134216266268 0.020164462332777532 0.04296307102348431 9.0849356623620063e-05 -0.040567669405796342 0.013825460977280291 0.053003443243957442 0.016329224172634296 0.010533655073346294 -0.036081383690859309 0.0038172568405822858 0.028272423788502078 0.039937082842012188 0.053430645114678967 0.034845573274996884 -0.033530310438433582 0.023728763732693309 -0.015983453642518627 -0.043938475523811416 0.016710523808822177 0.01591529355412907 -0.035848056500407295 -0.021815695113217737 0.037779393920700288 0.057116907484819263 0.037544639220295294 0.034426319850614701 -0.050244264520709681 0.022253298416248332 0.061004695217366546 -0.092730099025923871 0.045234357291652608 0.039243524776766972 -0.054230530386924415 0.045996836757627405 0.059479560074216287 0.032534824346724792 -0.043343460971890665 -0.050817659893185797 0.013313150138174513 0.0051790585975522024 -0.017470531561716608 -0.09379959926079906 -0.034096050405600563 0.010943860731651404 0.039388654189605396 -0.023762852497066316 0.035503749449479073 0.00038505961403443532 -0.021805473789789292 -0.049437350805891775 0.062279040911192289 0.0032708980500295681 0.055165140149818374 -0.008453134765414913 -0.010765458400968386 0.040257371569794344
leaf_weight=147.53177912344836 2.9895879485993637 114.04926470319333 458.24570757106994 810.83323114991072 20.928226781426929 198.70233643254323 384.95613772690558 235.20363953160268 50.237650324190327 1296.6776806241178 26.439754164544865 376.94159777907771 69.574763171607628 86.350050906650722 205.15285435794794 71.025214444700396 188.76193891836738 61.53621987508086 182.15293542685686 82.530701049661729 83.575326043413952 155.30281349555298 140.0574511281593 8.8991954137454723 20.61918613310263 90.377302810142282 32.093821105576353 15.185272754664764 363.92340974848776 822.28748424164951 29.090019182942342 68.503416770712647 30.279549944287282 396.59179653853062 7.9973734846571487 4.0532824688125393 86.548279628506862 119.18368676229147 1042.7465890598178 5.4804702706605886 29.855072963633575 27.212657173164189 91.349851318198489 11.002239884255685 16.243542278200039 26.579498694918584 19.453460357355652 0.88454788783565419 19.74970349855721 115.20418559318932 41.942086983384797 120.64191994921566 109.79779031366343 15.381161478726424 75.807021945212909 461.33214110510744 6.2005799274193123 109.52159278077306 70.530570277362131 71.438234022338293 166.05997980465327 301.47625291347504
leaf_count=55053 215 9590 6593 274879 4093 5145 12655 1272 9143 446405 1315 4887 2511 5790 66263 4633 2547 1254 1504 1399 17239 4392 28720 1094 1851 3447 5468 2822 6063 3862 1203 7213 9742 8386 183 546 763 2183 398777 169 200 574 26263 1741 2662 675 6697 200 6970 2933 778 40716 1590 856 17654 176305 199 4015 698 5764 19800 2875
internal_value=-1.10045e-10 0.0288688 0.0371579 -0.0416139 0.00789127 -0.000641188 0.0214121 0.0425223 -0.00786696 -0.043841 0.0116245 0.0371598 0.00301156 -0.0155551 -0.037552 0.029815 0.0288345 0.0434915 0.0391991 0.0250435 -0.0221494 0.0112807 -0.00415234 -0.0482338 -0.0267696 0.00685609 -0.00776783 -0.0135628 0.0352301 0.0539689 0.0171856 0.0198995 -0.0195225 0.0234727 0.000507423 -0.00951146 0.029332 0.0261793 -0.0512573 -0.00966175 0.0257617 0.0187874 -0.0319886 -0.0177914 -0.0146407 0.034961 -0.0516431 -0.0463281 -0.0137952 0.024558 0.0185357 -0.0193632 0.0295936 0.0211219 -0.0335758 -0.0481439 0.0427933 0.00909496 0.0406018 -0.014107 -0.0148279 0.0356427
internal_weight=10501.3 6200.09 4444.07 4301.19 1756.02 1172.67 1129.3 3314.77 266.273 4034.92 643.467 2257.28 444.765 529.205 1659.34 1045.05 875.194 1212.23 835.289 583.351 110.015 334.75 254.107 2375.58 362.658 111.306 359.059 272.709 653.136 1057.49 44.2753 118.741 228.433 586.801 179.447 109.872 472.046 515.775 1564.75 14.3797 385.497 219.265 170.146 86.4938 157.505 166.232 1550.37 507.62 26.8348 218.682 157.146 136.885 136.377 23.3785 167.157 480.786 7.08513 136.734 434.454 82.4405 198.154 490.238
internal_count=1741434 246838 101433 1494596 145405 128649 56387 45046 71409 1423187 39692 39912 34547 88957 557897 21795 18077 18117 13230 16756 18554 15993 38310 865290 111492 7540 44825 39035 11726 5134 4025 16356 35010 15202 11601 9090 9216 10569 590411 1263 8453 5988 44132 8051 45229 2465 589148 190371 7369 4965 3711 43378 2265 1039 43917 183002 399 4589 6761 7505 25268 5422
is_linear=0
shrinkage=0.05


Tree=7
num_leaves=63
num_cat=0
split_feature=29 18 42 4 29 42 29 29 42 18 42 30 35 21 29 15 42 22 21 37 40 42 18 18 21 20 38 18 29 30 23 30 30 21 5 16 29 30 30 21 4 40 39 24 12 37 23 1 40 3 23 13 42 29 40 18 39 38 35 17 30 17
split_gain=4411.21 364.245 133.72 126.305 85.7654 76.9946 74.3741 72.1307 61.2005 44.8017 43.0741 35.8129 36.4302 23.8159 19.2821 19.0047 18.1289 17.9301 17.7145 17.457 17.1996 17.2669 16.117 15.1256 14.8469 14.5175 13.9419 13.1126 12.5396 12.0402 11.9143 14.8126 11.7973 11.2505 9.73563 10.3254 8.85242 9.52268 13.6606 8.64145 12.2582 8.58366 8.40337 8.74681 8.37244 8.97178 8.30371 8.14975 9.43481 7.95555 7.80448 14.1926 14.1707 7.61743 7.50743 7.73809 7.27447 7.22532 7.03604 6.69337 6.67896 8.36625
threshold=1.1462151589710032 0.0048486238577908685 0.52884555594374383 -0.45061662318719992 3.1120475110967951 0.52680473521154514 5.024607192804706 2.9340292095759621 0.54325572567615066 0.0022465750293935824 0.54820803313146371 -0.44352127468409724 1.0000000180025095e-35 -0.25881904510252113 5.024607192804706 -9.5989999999997941 0.54202270697983745 -0.60355339059327406 -0.98296291314453399 -50.048821474687422 -24.097254622529267 0.6309013164416829 0.00392422574021871 0.0033088667046753664 -0.70710678118654735 1.6509139093816489 32.237854168585102 0.0073287648468565369 -1.0000000180025095e-35 1.5032726618387204 5.5000000000000009 0.23133022094805505 0.49512072622066655 1.0000000180025095e-35 3.3486965890516376 1.9971509220000001 6.2633508865321765 0.30679088417913752 -0.33380950876887622 -0.9159756150367534 -0.31393948707460478 19.915510482467816 -9.1563502743247209 0.18428518585614787 8051.005000000001 3.3315590000747766 4.5000000000000009 27.051802158073123 11.174471354623758 21.921078097000002 4.5000000000000009 96300.500000000015 0.50129476407752838 6.2633508865321765 7.2230045418123154 0.0016879769685960589 -16.46296112708114 23.788880106956693 1.0000000180025095e-35 2.9985869962201042 0.24945304669382842 3.4590104495013509
decision_type=2 2 2 2 2 2 2 2 2 2 2 2 2 2 2 2 2 2 2 2 2 2 2 2 2 2 2 2 2 2 2 2 2 2 2 2 2 2 2 2 2 2 2 2 2 2 2 2 2 2 2 2 2 2 2 2 2 2 2 2 2 2
left_child=3 4 7 8 5 13 10 26 -1 24 15 -7 18 19 -9 -4 -11 23 -13 -2 -12 33 -18 -6 -5 -15 -3 -8 -10 58 34 -32 39 41 -21 -36 37 38 -19 57 59 42 -22 -44 45 -26 -37 48 -33 -24 -46 -52 -53 -29 -48 -56 -30 -14 -17 -41 61 -42
right_child=1 2 6 9 17 11 27 14 28 16 20 12 32 25 -16 29 22 36 -20 30 21 -23 49 -25 44 -27 -28 53 56 -31 31 47 -34 -35 35 46 -38 -39 -40 40 60 -43 43 -45 50 -47 54 -49 -50 -51 51 52 -54 -55 55 -57 -58 -59 -60 -61 -62 -63
leaf_value=-0.028019480277481246 0.0097641233989059772 0.0086853353144030164 0.034602766451200487 -0.041294180480430084 -0.034871884573879929 0.028648765880620927 0.039751315567093055 0.017998847592566505 -0.018201607236192106 -0.038139288028195051 0.049753455947270098 0.011458162964850678 -0.034657548227920068 -0.046352200819158113 0.033162469574308011 -0.00057939938016585526 -0.034493295434560325 0.029637278797964978 -0.035183450556359012 0.069700459196600589 0.040701979673734401 0.058492184574234454 -0.017264497165681944 0.013823536891081834 -0.037002215674191104 0.033079359264817906 -0.015506712163080678 0.047689746811015822 0.035581855848880711 0.033980269620122815 -0.01918648810916871 -0.036648967942449734 0.021363095589692963 0.017436271881535442 -0.033793274500399532 -0.019377344902668903 0.041799650686190445 0.033240146909235158 0.0043951235542807167 0.053777006821024126 -0.063314639680727355 0.043606339162164498 0.019990451392170979 0.042247332585068964 -0.052657918239681759 0.054909923209300243 -0.022825103399532629 -0.0083122351826542314 0.052770255225556929 0.019378844513188123 -0.04673634118043142 0.044265841543455149 -0.034549168748241398 0.057544108720452958 0.067146893720141668 0.0044192506268323495 0.0067731304971413988 0.020474831795063649 0.019080435596043457 0.0016913282961736485 0.0024392878032865745 -0.01593413020098047
leaf_weight=143.75623138823721 88.0303419477641 109.7713621808216 461.55374384557217 921.06657676301984 19.447553242876893 204.27672363711463 206.96916813423741 370.10105844545615 18.147303814614133 1334.4049775893873 391.92975347673928 27.855262114986544 6.5266312616877249 72.297365260397783 483.5664529815258 52.121232289660838 214.99942135140009 110.07497604994569 75.629590158183419 2.9671251822728655 163.88204655761365 84.428376721800305 138.47390336963144 88.593215231376234 8.6534238190506567 6.2496253608551333 130.18349628219585 315.62354798987508 72.296969280723715 131.28171202841622 40.503041464209673 3.4099506853963275 155.89086776034674 84.329434730054345 101.69599027925869 122.74074813725747 89.44304277561605 168.05706973088672 104.46824960684171 10.405174892744983 12.655565466906408 274.14874032462831 167.61433253214636 59.924711998930434 878.56266618082009 3.8302514939568928 12.171798886425675 12.759280599682823 21.866498039569706 16.586425946916279 410.77966584559181 8.5218547810800391 17.242401303607039 517.88155760802329 7.5404654736630645 14.128457095939664 31.442510062435758 66.421142033184879 358.79972725951666 15.147002248471834 27.595789529179456 35.316692461899947
leaf_count=55053 6448 9590 6699 322479 4093 4970 1184 12655 6678 470676 4887 1321 291 25068 5422 4008 71440 1995 17326 92 2499 648 41082 3447 907 494 28720 1610 5490 2772 6245 578 4392 1889 24083 21726 763 2465 3993 188 2428 3635 3489 1070 346790 104 1363 1370 574 4147 159175 356 6031 2340 59 857 4188 2248 8316 879 2221 3428
internal_value=-7.80838e-11 0.0272287 0.0349158 -0.0392949 0.00777164 -0.00016897 0.039977 0.0197804 -0.00592096 -0.0415376 0.0348266 0.0113891 0.00325487 -0.0147255 0.0265884 0.0271459 -0.0354238 0.0234326 -0.0226288 -0.0100791 0.0411137 0.0370551 -0.0256318 0.00505826 -0.0461719 -0.0400322 -0.00443966 0.0510155 0.0201426 0.0207982 -0.0152201 0.0018559 0.0113728 0.0346416 -0.0203537 -0.0213882 0.0276381 0.0243275 0.017346 0.00242568 -0.00703649 0.0368215 0.0320695 0.025852 -0.0495559 -0.00880166 -0.0133314 0.0242633 0.040707 -0.0133448 -0.0499428 -0.0444785 -0.0084801 0.0538126 0.00859714 0.0262475 0.0268502 0.0155421 0.0165868 0.0229013 -0.0171595 -0.0284336
internal_weight=10307 6088.28 4364.11 4218.76 1724.17 1144.08 3270.49 1093.62 265.643 3953.12 2230.01 637.72 433.444 506.361 853.668 1003.76 1704.46 580.084 103.485 427.814 1226.26 834.328 370.06 108.041 2248.66 78.547 239.955 1040.47 121.887 542.203 339.783 78.5388 329.959 749.899 261.245 258.277 472.043 382.6 214.543 174.068 101.12 665.57 391.421 227.539 1327.59 12.4837 156.581 38.0357 25.2764 155.06 1315.11 436.544 25.7643 833.505 33.8407 21.6689 103.739 72.9478 410.921 25.5522 75.568 47.9723
internal_count=1741434 246838 101433 1494596 145405 128649 45046 56387 71409 1423187 39912 39692 34722 88957 18077 21795 587345 16756 18647 63395 18117 13230 116669 7540 835842 25562 38310 5134 16356 15096 56947 8767 16075 12582 48180 48088 9216 8453 5988 11683 9144 10693 7058 4559 513363 1011 24005 2522 1152 45229 512352 165562 6387 3950 2279 916 9678 2539 12324 1067 8077 5856
is_linear=0
shrinkage=0.05


Tree=8
num_leaves=63
num_cat=0
split_feature=29 18 4 42 29 42 29 42 18 30 29 42 37 16 21 42 42 19 42 23 42 40 29 16 18 29 21 30 18 39 6 15 39 39 16 19 5 32 3 40 6 18 4 21 10 22 40 22 42 41 15 40 11 14 2 11 40 3 42 12 0 31
split_gain=3836.71 325.262 124.687 113.65 78.8927 76.2483 73.8759 55.7669 43.9339 38.6276 35.4399 28.2894 24.1761 22.6108 20.6958 19.1346 19.0284 17.259 16.6847 15.9787 15.3093 15.2049 14.4532 14.27 13.8387 13.6619 13.6502 13.4291 13.4073 12.6061 12.0244 11.2315 11.0235 10.6903 10.4844 10.2803 9.52198 8.95819 8.93907 8.93721 8.84473 8.75912 8.71064 11.0698 8.68877 8.62757 8.07888 7.59496 8.37195 9.14467 8.16818 9.58154 8.73737 8.51091 7.58326 7.56301 7.39115 11.8655 7.20496 6.96579 7.99904 6.95349
threshold=1.1462151589710032 0.0055395651101039006 -0.45061662318719992 0.54143710751323182 2.6479663984001913 0.52680473521154514 3.9280915815198294 0.54325572567615066 0.0022465750293935824 -0.54383173361777271 3.5936911478445923 0.52450301058077364 -50.048821474687422 0.90450555799999977 -0.25881904510252113 0.52884555594374383 0.52884555594374383 0.001217871981094881 0.57819541132269159 5.5000000000000009 0.54202270697983745 3.8802609101240133 2.3257415674096316 1.9971509220000001 0.00392422574021871 5.024607192804706 -0.70710678118654735 0.77294965958446837 0.0019027332370471011 -31.103653242294964 742.0550000000004 -8.6065000000002314 -16.46296112708114 -5.9883768403506101 0.51977542299999968 0.00054255375851492338 2.6403298854546318 0.50204297783807739 21.921078097000002 33.916259501689844 132.00500000000014 0.0097063024057923979 -0.29876164283922363 -0.37940952255126059 73984.000000000015 -0.9159756150367534 77.046980648384945 -0.12940952255126037 0.58709792847768116 -12.253257167561669 -32.597999999999949 -6.3166954556606756 107.64283978509907 244.5499999999993 66.004999999999214 3.1463722227755788 -25.689574658718836 0.012011072000000003 0.60865725667331538 8051.005000000001 0.12977739701831584 -44.87059424672632
decision_type=2 2 2 2 2 2 2 2 2 2 2 2 2 2 2 2 2 2 2 2 2 2 2 2 2 2 2 2 2 2 2 2 2 2 2 2 2 2 2 2 2 2 2 2 2 2 2 2 2 2 2 2 2 2 2 2 2 2 2 2 2 2
left_child=2 4 7 6 5 12 11 -1 26 33 18 22 -2 28 15 25 45 55 29 23 -10 -21 -3 36 -22 -6 -4 42 -11 -5 47 -13 -9 -7 -23 -36 -14 -18 -26 -31 58 -39 -15 -44 -42 -8 -33 48 49 50 -12 52 53 -52 -51 -16 57 -28 -20 60 -58 -17
right_child=1 3 8 10 14 9 16 32 20 13 30 31 19 27 17 61 37 -19 40 21 24 34 -24 -25 38 -27 56 -29 -30 39 -32 46 -34 -35 35 -37 -38 41 -40 -41 44 -43 43 -45 -46 -47 -48 -49 -50 54 51 -53 -54 -55 -56 -57 59 -59 -60 -61 -62 -63
leaf_value=-0.02586408567596285 0.0082088395753302235 -0.013161311454050809 -0.039191872240276669 0.04095240280118112 0.010192453839356392 0.033991276709694679 0.010576745672963371 0.029471175214577535 -0.035681864426733885 -0.069376391135325552 0.042950626621939797 0.02810752276644848 0.070877794033443409 0.017193509658210246 0.067058426969367382 0.052105545435408462 0.028045893651297633 0.012269916467929375 0.022884099900254966 -0.025187694195714778 -0.032358585838191789 -0.053630222167661695 0.010177687925167173 -0.015062012949349547 -0.017038258997672456 0.029472165952079455 0.06674153747787695 0.022315624402939136 -0.011573150838570728 0.019230474804292075 0.059876824888689818 0.0074825335982799841 -0.0022152265061392055 -0.0069212372370361019 0.054324282253621264 0.0063273262968682985 -0.038655336296125789 0.037859259609884628 0.020258990509006435 0.034226146773999995 0.053184743786164751 0.052716412930340829 0.0039148227423228396 -0.022478439627708055 0.011246680205360526 0.030206757336093817 0.027351909070629312 0.051784581816947561 0.055286278468789973 0.003772846371003313 -0.0085890845149447712 0.055221256483266826 -0.047297354036949291 0.050578141591818483 0.045578959375564471 -0.040243914646026967 -0.032853078393672616 -0.036058139960375844 0.045013922437026337 -0.048518594769968136 0.062527822852981585 0.029493580157951612
leaf_weight=140.54177207449538 105.09122314942942 105.20527451643284 902.99927023286727 222.5842414268991 286.11986759130377 188.70902135531651 62.945552596240304 88.963448278555006 1307.017823642127 12.789796705299521 28.322650191024877 274.56298484659055 2.0159542162436983 87.783791712718084 1.7534492079867074 37.416973745566793 100.16402531717904 81.860119569304516 66.092046602541814 35.762729521113215 210.46413871852565 4.7683819846133693 179.53606147700339 179.26719872781541 133.29822449261701 135.3541436768719 2.9176908950321367 131.31053584061738 46.519567043578718 216.6281746122113 231.99000195035478 172.30504944232962 39.695793312246678 17.442613317951327 17.727395653841086 30.097203945071669 125.80245539621683 213.22182032576529 18.266356289226678 183.54557718234719 218.54183719989669 185.51889957051026 213.09781461326929 48.831370075742598 13.090175966382956 505.39639944156806 72.763167830897146 357.98332483519334 81.088038636022247 11.593995891860684 18.521094574884049 8.8655970961553958 8.4464148771949095 9.0466577149927598 168.39664155835635 25.874346949480241 9.508500804891808 73.998094185000809 82.932258990011178 1211.8723852564144 2.8590905573219052 372.19391622435069
leaf_count=55053 9676 19581 322479 3216 13698 3708 1225 8532 470676 3274 163 6844 59 3355 35 300 888 3585 1178 7375 71440 1240 11246 32131 41082 2069 123 4765 6493 6630 1409 8701 7824 957 543 2626 36026 1325 4147 2816 2507 994 11689 7235 176 7737 1673 2390 497 173 128 57 51 49 1301 5860 917 27712 650 484517 94 6534
internal_value=2.7156e-11 0.0255968 -0.0369942 0.0344402 0.0102381 0.0019917 0.0256639 -0.00409011 -0.0392812 0.0121158 0.0429613 0.0142215 -0.0131071 0.00509036 0.0211713 0.0238633 0.0342879 0.000737208 0.0364547 -0.018772 -0.0331616 -3.44879e-05 0.00155447 -0.0241632 -0.0240628 0.016384 -0.0439151 0.00868185 -0.0240382 0.0314139 0.0500252 0.0211627 0.0196948 0.0305296 0.0170695 0.0241186 -0.0369278 0.0414137 -0.0125432 0.0261085 0.0447014 0.0447717 0.00356263 -0.00100566 0.0508147 0.0280327 0.0133819 0.0467238 0.0413041 0.0368261 0.021926 0.0086578 -0.00280471 0.0108273 0.042886 -0.0334338 -0.047193 -0.0321586 0.0351994 -0.0481376 -0.0108033 0.0315591
internal_weight=10129.3 5986.88 4142.4 3799.29 2187.59 1247.02 1871.62 269.201 3873.2 746.485 1927.67 804.373 500.533 540.333 940.573 831.085 1067.25 109.488 1003.41 395.441 1669.05 88.3557 284.741 307.086 362.029 421.474 2204.16 481.024 59.3094 622.758 924.254 519.631 128.659 206.152 52.593 47.8246 127.818 498.905 151.565 400.174 380.656 398.741 349.713 261.929 231.632 568.342 245.068 692.264 334.281 253.193 73.2024 44.8798 36.0142 27.5678 179.991 27.6278 1301.16 76.9158 149.024 1224.24 12.3676 409.611
internal_count=1741434 246838 1494596 83605 163233 131152 60214 71409 1423187 41476 23391 48045 89676 36811 32081 22601 12169 9480 17173 80000 587345 11784 30827 68216 116669 15767 835842 27044 9767 12662 6218 17218 16356 4665 4409 3169 36085 3207 45229 9446 4511 2319 22279 18924 2683 8962 10374 4809 2419 1922 448 285 228 177 1474 5895 513363 27835 1828 485528 1011 6834
is_linear=0
shrinkage=0.05


Tree=9
num_leaves=63
num_cat=0
split_feature=29 18 4 42 42 29 29 42 18 29 21 29 30 42 4 30 30 42 22 42 23 29 40 29 42 21 3 5 25 4 30 30 30 38 18 39 5 3 18 30 2 38 32 18 6 21 29 40 3 38 33 24 23 20 42 30 30 3 29 6 42 19
split_gain=3378.68 301.834 118.325 104.946 81.3469 75.1853 60.5453 49.5609 42.5861 33.6075 31.4126 27.5646 26.4152 24.5494 22.8892 18.012 16.8037 16.4855 16.0824 15.2965 15.1025 14.2306 13.7476 13.6538 14.674 12.4737 10.8607 10.7621 10.6197 10.1373 10.5516 10.0233 14.7833 14.2952 9.63201 9.43793 9.39107 9.54444 8.89326 8.88308 8.63873 9.71694 8.22494 8.17121 7.93121 7.90034 7.7353 7.61954 10.4931 7.61088 7.5541 7.45588 7.34386 7.1503 7.55581 7.13277 6.99774 6.91686 6.90819 6.55191 6.49786 6.4811
threshold=1.1462151589710032 0.0058419309429163608 -0.45061662318719992 0.54325572567615066 0.52793267109325492 3.1120475110967951 4.3559885457171541 0.54325572567615066 0.0020913210177762689 3.9280915815198294 0.12940952255126059 2.6479663984001913 -0.54383173361777271 0.52577292668024345 -0.27778983515158723 0.84114834152802664 0.26244694390164974 0.58387426122893482 1.0000000180025095e-35 0.5211546872308277 4.5000000000000009 2.3257415674096316 -53.74162052771495 -1.0000000180025095e-35 0.5561836169355957 -0.78656609248549292 9.0939310599999974 35.287437771088975 -0.063542533049093505 -0.29876164283922363 0.21340780064674636 -0.39610812365716491 0.27721079938080201 80.562141963101851 0.0034603413940367581 -5.9883768403506101 2.6403298854546318 2.9915795720000018 0.0015085775280215179 -0.45631980673865985 63.004999999997388 18.722688623821394 1.3636363636360274 0.0073287648468565369 132.00500000000014 -0.5 6.2633508865321765 -25.689574658718836 0.012011072000000003 43.390525480962033 4.5000000000000009 0.060808110709198455 1.5000000000000002 0.27758596092412507 0.58087954570366707 0.017319023955534658 -0.26315740792738151 33.667634583000016 1.0000000180025095e-35 742.0550000000004 0.55739519364503476 0.00079706122710768124
decision_type=2 2 2 2 2 2 2 2 2 2 2 2 2 2 2 2 2 2 2 2 2 2 2 2 2 2 2 2 2 2 2 2 2 2 2 2 2 2 2 2 2 2 2 2 2 2 2 2 2 2 2 2 2 2 2 2 2 2 2 2 2 2
left_child=2 4 7 6 5 14 13 -1 25 17 11 12 35 21 56 29 36 28 34 -8 -18 -3 -15 -10 -25 -4 -26 -9 -5 -14 -31 -13 33 40 45 60 -16 39 55 -38 41 -33 -34 -11 -19 -7 59 48 -27 -22 61 -52 -48 -43 -55 -39 -2 -12 -28 -21 -6 -41
right_child=1 3 8 9 10 18 19 27 23 43 57 31 15 22 16 -17 20 44 -20 46 49 -23 -24 24 26 47 58 -29 -30 30 -32 32 42 -35 -36 -37 37 38 -40 50 -42 53 -44 -45 -46 -47 52 -49 -50 -51 51 -53 -54 54 -56 -57 -58 -59 -60 -61 -62 -63
leaf_value=-0.024216062561002571 0.010036132811821311 -0.012750283880741523 -0.036778084326381653 0.039458782925483743 0.025104036530512148 -0.0033216206490266015 0.025333847907545975 0.00021364418827048097 -0.035998328029618547 0.037162986108673385 -0.02387129690422907 0.03947430111642708 0.015852066815627539 0.033664980244761042 0.059776008194940035 0.022933871801305513 -0.018979076386580737 0.034609503437684423 0.025620152187756814 0.029567240739943476 -0.053828375320795901 0.010992356864459861 0.016555856775214636 -0.029811619070790881 -0.019976942375432988 0.06301324842689722 0.067657819271347022 0.029424676795929663 0.026046589537221318 -0.013274514271881574 0.0059878301735754834 -0.079531138694143175 0.017587795307981584 -0.051508685577202853 0.012214438906503991 -0.010339309564339602 -0.010179532033165841 -0.022530897529347674 -0.020785980290598846 -0.052677674418155844 0.025129212698673103 0.016418929324011317 0.03698925748702498 0.051919700309832589 0.050699896230040169 -0.053531321894898544 0.031821701805320367 -0.046093543569629067 -0.033496901952068711 0.016651501472791621 -0.030707827210564038 0.05416560626778625 0.049514285379315875 -0.060490616581045535 0.03099843012647906 0.04939821540751544 -0.01364619123143402 0.054923488177412529 0.0040961577064579004 0.048321319309552267 0.044451233420625756 -0.029135429802725984
leaf_weight=138.27860973433417 120.1349714047974 89.82259296655684 667.91703142531333 237.53924841336266 146.6231574943231 45.388319414574653 340.78698220953811 50.570200001653575 924.41339308171155 109.01482617852162 49.78382061587763 149.93391918425914 97.829490818177874 166.31700317838113 3.1658466866938388 139.40961696850718 86.70916992425191 119.7439623841783 205.7046135274577 248.56519991620735 4.0731442790856809 212.22015808356082 399.2902505687598 767.47792993601615 85.024273765629914 2.929645378375425 5.1191225083021008 83.752893685290474 389.75087433437875 130.59874705553375 156.04154695949546 3.7305966340354635 77.871934891620185 8.6324785296455939 164.01521843782393 14.91770736654871 31.205983094318071 5.6195504904608233 83.767670073451882 74.310005474166246 78.309635645651724 31.811576292559039 182.99897728087672 672.57304094801657 212.48729152514716 9.4689222861779836 81.89261244921363 1248.3781785637038 72.870957414248551 64.273142534089857 7.3284341583494079 3.9999176647688728 206.66991731955204 7.0841004063258861 3.3117551613249816 8.9132712512218841 42.131747130028089 2.9502385648229383 25.917333089666499 57.308366338809719 61.644341632185387 48.194552354580082
leaf_count=55053 12508 18430 241328 4353 2834 2383 4783 9143 337898 737 6868 1752 3618 3712 139 4662 18902 1363 4000 2359 783 12342 12562 275965 26993 122 349 7213 7720 13303 9415 266 1546 456 5217 984 6790 874 15054 22083 1671 1140 2551 4064 2332 2617 523 505422 27553 4890 1827 310 1245 462 96 489 6362 80 7557 527 874 11980
internal_value=-1.88022e-10 0.0241932 -0.0350238 0.0334092 0.0103059 -0.000427388 0.0249537 -0.00320379 -0.0373065 0.0421646 0.0183621 0.0199075 0.0136742 0.0154408 -0.0120701 0.00753745 -0.0182124 0.035895 0.0155823 0.0337792 -0.00512505 0.00393168 0.0215868 -0.0317504 -0.0273059 -0.042349 -0.0107359 0.0184273 0.0311255 0.00195468 -0.00278846 0.0284725 0.0242832 0.0107086 0.00614836 0.0280787 -0.0258267 -0.0268558 -0.0145219 -0.0342022 0.0150314 -0.00218227 0.0311978 0.0498615 0.0449005 -0.0119883 0.0386209 -0.0451589 -0.0297668 0.0124512 -0.0398036 -0.000739942 0.0444932 0.00465438 -0.0313454 0.0215847 0.00388714 -0.0194631 0.01458 0.033081 0.0308305 -0.0434159
internal_weight=9968.52 5895.87 4072.65 3543.98 2351.89 1008.4 1802.87 272.602 3800.05 1741.11 1343.48 1290.75 747.065 867.65 583.827 523.879 421.561 959.521 424.577 935.223 155.055 302.043 565.607 1807.95 883.539 1992.1 116.061 134.323 627.29 384.47 286.64 543.685 393.751 132.88 218.872 223.185 266.505 263.339 98.3005 165.039 124.248 45.938 260.871 781.588 332.231 54.8572 594.436 1324.18 75.8006 68.3463 133.833 11.3284 288.563 42.2074 10.3959 14.5328 162.267 52.7341 31.0365 305.874 208.267 122.505
internal_count=1741434 246838 1494596 77052 169786 117208 56483 71409 1423187 20569 52578 45630 35690 47046 102991 30998 84121 15768 14217 9437 24575 30772 16274 648762 310864 774425 34899 16356 12073 26336 22718 9940 8188 4091 10217 4692 59546 59407 16417 42990 3635 1964 4097 4801 3695 5000 4654 533097 27675 5673 36200 2137 1768 1698 558 1363 18870 6948 7906 2886 3708 34063
is_linear=0
shrinkage=0.05


Tree=10
num_leaves=63
num_cat=0
split_feature=29 18 4 42 42 29 29 42 18 29 29 30 42 21 37 30 4 42 6 40 20 22 29 23 42 18 21 17 39 39 30 22 32 6 42 16 6 18 35 30 6 30 17 6 30 21 18 2 10 40 3 39 16 0 21 23 38 20 42 40 19 42
split_gain=2982.51 271.181 114.765 93.0092 72.207 60.4671 57.93 44.1299 43.547 29.8722 29.147 28.3993 24.6967 24.2413 17.1099 16.453 16.5272 16.271 15.884 14.9039 14.2993 13.8826 13.1216 13.0588 12.1147 13.469 12.0829 10.9312 10.5578 9.94067 9.68871 10.7831 9.11688 9.40037 8.98101 8.93176 9.09975 8.37067 8.03254 8.01176 7.98529 7.4388 7.21438 7.31963 7.13978 7.65668 7.04753 7.00264 8.32588 6.98372 13.8119 6.65195 6.55451 6.48378 6.41772 6.37097 6.35284 7.69305 6.06993 6.05232 5.95649 5.90387
threshold=1.1462151589710032 0.0058419309429163608 -0.45061662318719992 0.54662718774353147 0.52884555594374383 3.1120475110967951 4.3559885457171541 0.54325572567615066 0.0020913210177762689 3.5936911478445923 2.6479663984001913 -0.65444680796623189 0.52577292668024345 1.0000000180025095e-35 -50.048821474687422 0.54730694643123423 -0.23621465871646594 0.5211546872308277 114.98999999999889 -48.550262144795447 -0.16785203315312291 1.0000000180025095e-35 2.3257415674096316 5.5000000000000009 0.5561836169355957 0.0038828096531982269 -0.70710678118654735 1.5389194203269703 -16.46296112708114 3.9419750358283641 -0.39610812365716491 -0.60355339059327406 1.8750000000018094 796.13500000000215 0.58087954570366707 1.9331942720000002 12.004999999999201 0.0034603413940367581 1.0000000180025095e-35 0.29894379737484372 493.91999999999831 -0.15440796111784474 10.749524086912482 271.00500000000108 -0.48326993929725742 -0.98296291314453399 0.0017146111458457385 78.005000000000123 26474.450000000004 -25.689574658718836 0.012011072000000003 -5.7880578972781214 1.4663780399999999 0.21866488658529584 -0.5 3.5000000000000004 84.003041967665794 0.26255937374302657 0.55739519364503476 9.1714497419539232 0.0001827539017353087 0.51255837504625756
decision_type=2 2 2 2 2 2 2 2 2 2 2 2 2 2 2 2 2 2 2 2 2 2 2 2 2 2 2 2 2 2 2 2 2 2 2 2 2 2 2 2 2 2 2 2 2 2 2 2 2 2 2 2 2 2 2 2 2 2 2 2 2 2
left_child=2 4 7 6 5 13 12 -1 26 20 11 51 22 14 -2 16 -13 -8 27 53 -5 37 -3 35 38 -26 -4 -18 -9 41 -12 39 33 42 -22 36 -16 54 -10 -32 -11 -25 -19 -44 -29 52 59 48 -31 50 -28 58 -46 -14 61 -41 -36 -58 -6 -37 -43 -7
right_child=1 3 8 9 10 21 17 28 24 40 30 15 19 -15 23 -17 18 32 -20 -21 34 -23 -24 29 25 -27 49 44 -30 47 31 -33 -34 -35 56 46 -38 -39 -40 55 -42 60 43 -45 45 -47 -48 -49 -50 -51 -52 -53 -54 -55 -56 -57 57 -59 -60 -61 -62 -63
leaf_value=-0.022050639010878934 0.0090038853753329363 -0.013304134322251488 -0.035887365980500845 0.041425846651264919 0.024406593577859775 -0.025050282827876438 0.023624559147243138 0.026826780277842261 -0.033315146111653315 0.043652601460667483 0.03680646217913882 0.011950020644024961 0.03586952666521253 -0.040598969717410678 0.074027533543481391 0.016779748230082901 -0.050907351750602986 0.015214824646185815 0.0070920158950427319 0.015509149780699014 0.022547856388816179 0.023017809126612401 0.010069940487773203 0.0010264479693132022 -0.028173579288726804 -0.0030086231964698978 0.065211377460226136 0.025192050556547246 -0.0040929037982866548 -0.011072351952199916 -0.01004621904324186 0.026768784759601812 0.042623366403012661 0.048636850505353546 0.040031958877603399 -0.0067127580767340281 -0.030145962578484398 0.010659520886463826 -0.024596077796915534 0.0018854177260031859 0.054084034436413068 0.055094318409599601 0.018292845755091058 0.04217803636350162 0.056945369237540192 -0.025009023850404873 -0.014096656132025129 -0.0019096463244222652 0.048441194451103259 -0.044842184448146541 -0.033736469198421819 -0.017831173509106981 -0.0099140889224836187 0.013026953818550372 -0.050622419931449718 0.034429777076976004 -0.037123571314361413 0.036601111740006194 0.045144152069206432 0.043887271027964456 -0.056333288164390538 0.011770576141323442
leaf_weight=136.135393498349 125.36062508456234 84.919646808571997 798.44838281638658 352.86951752644381 110.89363798996783 19.311701687867753 323.93515551251767 98.466372206465167 1206.1528924473168 484.10563376999926 154.47951825210475 147.0446776036697 171.8583022885723 60.32078814363922 2.1365310312248758 208.01918529797695 24.655439642607234 91.134811940253712 83.123355878247821 434.05485405898071 283.16468815878034 214.5829624668113 204.9549160832903 23.919017895648722 147.90804930789454 83.015362803911557 3.7340205599321044 10.521362543338908 38.365635836060392 7.864425745210613 38.597360548694269 301.24409849382937 361.88154569343897 58.173710270260926 155.628811530245 14.014788617030719 111.34550985880196 166.28689626129926 338.22335287072929 28.394741864554817 295.41219466296025 1.330201694741844 50.878567190724425 86.791030813517864 5.5398554101120707 75.539429004260455 180.12471855375043 25.589207821780292 23.252220641239546 1092.6948296480696 63.554992045501422 7.284992181666893 10.835365395352708 37.919966663794185 8.9938601243920839 31.969554597439128 6.1306948325945987 8.3684741158504021 51.754973824223271 10.218472191889303 12.191883366758701 24.953373453521635
leaf_count=55053 10259 18430 295199 5416 2126 1334 4783 8532 443482 3263 1767 6108 3108 20339 82 7880 5500 788 6543 13898 5674 4085 12342 3438 51797 25864 121 349 7824 784 2917 4662 2431 494 1847 1748 29378 5382 127619 979 1813 157 563 766 89 8780 31732 2559 792 454681 24424 658 528 1278 2676 714 62 96 662 478 3209 1092
internal_value=7.00564e-11 0.0228746 -0.0331919 0.0316794 0.00963079 -0.000228318 0.0242377 -0.00189533 -0.03548 0.0406268 0.0175172 0.0109888 0.0153414 -0.0105443 -0.00717049 0.00560078 -0.000908332 0.0327765 -0.00990271 0.0207977 0.0338784 0.0139738 0.00322243 -0.0120921 -0.0298085 -0.019127 -0.0406211 -0.021018 0.0181574 0.00426408 0.0261703 0.0220647 0.0373455 0.0306901 0.0280031 -0.0169369 -0.0281847 0.00513423 -0.0314056 0.00774525 0.0476058 -0.0157306 0.0261271 0.0333508 -0.0138239 -0.01829 -0.0106909 0.0174659 0.0333997 -0.0438794 -0.0282456 0.0289117 0.0127049 0.0317405 -0.012117 0.0191212 0.0370828 0.00542805 0.0310053 0.0146238 -0.0453719 -0.00429341
internal_weight=9820.58 5813.88 4006.7 3492.18 2321.69 1031.8 1906.5 272.967 3733.73 1585.68 1289.9 735.212 933.708 597.668 537.348 565.279 357.259 972.795 210.215 643.833 806.162 434.129 289.875 411.987 1775.3 230.923 1958.43 127.091 136.832 94.147 554.685 400.206 648.86 286.978 453.293 317.84 113.482 219.546 1544.38 98.9617 779.518 37.4411 228.804 137.67 102.436 91.9146 204.358 56.7059 31.1166 1159.98 67.289 169.934 16.3752 209.778 53.2589 60.3643 170.128 14.4992 162.649 24.2333 13.5221 44.2651
internal_count=1741434 246838 1494596 77052 169786 119524 58881 71409 1423187 18171 50262 39223 49056 104955 84616 35777 27897 9825 21789 18284 13095 14569 30772 74357 648762 77661 774425 15246 16356 10939 11039 9272 5042 2611 7679 63418 29460 10484 571101 4610 5076 6804 2117 1329 9746 9397 33958 4135 1576 479226 24545 3446 617 4386 5102 1693 2005 158 2788 2226 3366 2426
is_linear=0
shrinkage=0.05


Tree=11
num_leaves=63
num_cat=0
split_feature=29 18 4 42 42 29 25 18 42 21 29 29 29 42 30 30 39 18 16 18 42 29 42 23 21 40 39 35 42 22 21 16 21 40 42 30 29 19 39 23 19 28 30 25 29 29 24 30 42 42 18 23 17 17 23 5 3 42 18 31 24 17
split_gain=2625.3 247.936 110.528 86.2443 68.7252 57.7282 44.447 43.4847 40.0493 38.6508 32.0067 27.2034 25.3009 19.2519 19.0004 20.3173 18.3 16.2433 15.0193 12.5614 14.3966 11.6576 10.6453 10.518 10.4185 10.2242 10.0509 10.0239 9.93248 8.82755 8.77209 8.30953 8.08476 7.79 10.039 7.66901 7.66737 7.6305 7.57598 8.27972 8.53993 7.90348 7.45103 8.45951 7.90307 7.352 7.30781 7.20687 7.01467 6.68469 6.66282 7.71939 6.62853 6.49908 6.46415 9.50976 9.86281 6.42904 6.12334 5.98509 7.79405 6.21712
threshold=1.1462151589710032 0.0075305815406592419 -0.45061662318719992 0.51978393963448555 0.53435762734453129 3.1120475110967951 -0.21233191981233077 0.0018882633773459636 0.54325572567615066 -0.25881904510252113 6.2633508865321765 4.3559885457171541 2.6479663984001913 0.57819541132269159 -0.56075197335095961 0.44824030438029033 -82.366104654654904 0.0030935599189906818 0.56236586550000023 0.0035574607543667155 0.5561836169355957 6.2633508865321765 0.55739519364503476 3.5000000000000004 -0.70710678118654735 -7.8921144278334712 -16.46296112708114 1.0000000180025095e-35 0.54086857822421652 0.60355339059327384 1.0000000180025095e-35 2.8127862790000004 -0.9159756150367534 19.915510482467816 0.54202270697983745 -0.51232440065721063 3.9280915815198294 0.00017412327421592505 -51.397640125480386 5.5000000000000009 0.00050869824235930128 1.02038270495788 0.54730694643123423 -0.015472698065460698 6.2633508865321765 1.7091747936039781 0.052202781720112064 0.60551145740811563 0.52577292668024345 0.52197635572961942 0.0018600188020808078 1.0000000180025095e-35 2.8233610847453465 3.3134414999139308 4.5000000000000009 43.595305682331983 0.012011072000000003 0.51387344233135213 0.0010609382409522672 -10.207038179229448 -0.0041901648929587578 0.34084231314222574
decision_type=2 2 2 2 2 2 2 2 2 2 2 2 2 2 2 2 2 2 2 2 2 2 2 2 2 2 2 2 2 2 2 2 2 2 2 2 2 2 2 2 2 2 2 2 2 2 2 2 2 2 2 2 2 2 2 2 2 2 2 2 2 2
left_child=2 3 8 5 11 18 -5 24 -1 12 13 27 14 16 22 25 -6 53 -2 35 -21 29 -8 -19 -4 28 -10 -3 -16 57 37 42 46 34 -17 -9 -18 -20 -39 -40 41 -41 44 -44 59 -15 52 -37 -29 -13 51 -34 -27 -11 58 -56 -57 -7 -26 -14 -61 -62
right_child=1 4 7 6 10 21 9 19 26 17 -12 49 31 45 15 33 36 23 30 20 -22 -23 -24 -25 54 32 -28 48 -30 -31 -32 -33 50 -35 -36 47 -38 38 39 40 -42 -43 43 -45 -46 -47 -48 -49 -50 -51 -52 -53 -54 -55 55 56 -58 -59 -60 60 61 -63
leaf_value=-0.020415151078180829 -0.039275299597567211 -0.014390741358494583 -0.034820007356760212 0.031266248488756913 0.043964437127862438 -0.0015278902679747017 0.016905482169176853 -0.022777906530747113 0.025756433392900221 -0.048765573270844791 0.051967269511100256 0.022987659760430934 0.026575446014689169 0.031724590832525899 -0.0026812618490154286 -0.012653837129172589 0.02282238514425745 -0.0091721629043603047 0.073250752831243243 -0.026146068638260789 -0.0054274512282049417 0.027859138328560358 0.040676537388896317 0.014049469653485878 -0.052351175688178687 -0.029377264684415951 -0.0044914971827420902 0.0051502783503336825 0.027720247763978762 0.023334498021493195 -0.032026046373259391 0.026956110524266205 0.028689082703995478 0.021564076283486219 0.015643205329500139 -0.035464992165801512 0.0341058276467563 0.0038556952661411379 -0.016203583867652072 0.045260264104180305 -0.007047371550432488 -0.085096167664855657 -0.043658052178088096 0.032907066608243607 -0.041092592821204081 0.048825514469713185 0.020539680414857937 -0.025946361354845838 0.021507203831495743 0.034864020892126785 -0.013052134364137694 -0.067011997722938213 0.0040247776470171137 -0.010267301633947491 -0.0397829531546827 0.065109881032068648 -0.021222536902237146 0.01494510075970956 -0.042224537190064193 -0.015048629147158224 -0.069431585126744161 0.016657312035930325
leaf_weight=134.12681300935947 46.424424812634243 37.498086797626456 680.96070628836605 484.95247279019532 219.77017669774068 174.0768020520045 168.07938404289598 210.24244935456227 103.70391241604375 24.767759909525921 399.8708613589406 232.71141169904149 50.270561840326991 80.030033779941732 62.916757279046578 46.663528582881554 386.45534623124695 103.57132427611214 2.9311878903536117 570.84659264752554 98.280333018723468 99.698222597828135 65.433176473597996 92.145732019132993 228.8479647668064 23.217060077819042 37.356402832629101 132.4080957125334 46.888104757599649 76.839469060185365 38.836332092549128 546.85583610511094 2.57298623753013 206.3975755317224 95.469034673296846 836.47357876793831 246.64871241746005 103.83963653433602 228.93630421940179 15.248546561924742 42.560116379885585 1.2587544235866506 3.8019975697388864 70.572829853510484 7.2483767311787224 292.77887785286293 34.372477138094837 260.87329702451098 129.80034745894227 241.37717508836067 98.121857302714488 11.637628644297363 41.228435749566415 19.667594626458595 322.2955570124177 3.823972335841975 24.5277090305608 89.776551860821201 429.33749985455506 31.953481993172318 2.1568768499419084 75.768658726563444
leaf_count=55053 15689 5579 256804 9878 2764 7584 6718 81132 8532 8487 1922 3714 1077 1095 5057 4101 9420 7214 75 221085 31055 1106 973 4458 104983 2672 7824 13886 1365 1613 11927 8519 278 7193 3167 305060 2032 10265 45589 660 5153 263 140 900 139 2922 1722 98505 4265 2218 9011 2409 2098 3269 136825 132 8498 3073 179108 1129 146 1904
internal_value=7.1045e-11 0.0215864 -0.0314155 0.0127723 0.0338455 -0.000252321 0.0177329 -0.0337093 -0.000853828 0.0143355 0.0396839 0.0215804 0.0170002 0.0356765 0.0112857 0.00700229 0.0315334 -0.00443519 -0.012246 -0.0286748 -0.023103 0.012821 0.0235664 0.00176084 -0.0395986 -0.00207446 0.017746 0.00978943 0.0103006 0.00842037 -0.00935211 0.0235435 -0.00850987 0.0153609 0.00635301 -0.031526 0.0272183 -0.00712154 -0.00772276 -0.0118974 0.00479285 0.03532 0.0158246 0.0289931 0.00997383 0.0451545 0.00192153 -0.0332021 0.0132474 0.0290344 -0.0176863 -0.0496843 -0.0080086 -0.0317258 -0.0428242 -0.0373408 -0.00957833 0.00407707 -0.0457455 0.0122851 0.00574715 0.0142745
internal_weight=9678.2 5736.51 3941.7 3337.16 2399.35 920.426 2416.73 3666.51 275.187 1931.78 1625.55 773.795 1691.63 1225.68 902.998 669.485 852.874 240.152 480.035 1976.72 669.127 440.391 233.513 195.717 1689.79 320.955 141.06 299.707 109.805 340.693 433.611 788.629 211.15 348.53 142.133 1307.59 633.104 394.775 391.843 288.004 59.0674 16.5073 241.773 74.3748 167.398 372.809 98.818 1097.35 262.208 474.089 112.332 14.2106 64.4455 44.4354 1008.83 350.647 28.3517 263.853 658.185 160.15 109.879 77.9255
internal_count=1741434 246838 1494596 197021 49817 102997 94024 1423187 71409 84146 20155 29662 60718 18233 46764 39073 14216 23428 89621 736837 252140 13376 7691 11672 686350 24612 16356 23730 6422 12270 73932 13954 18190 14461 7268 484697 11452 62005 61930 51665 6076 923 5435 1040 4395 4017 6492 403565 18151 5932 11698 2687 4770 11756 429546 145455 8630 10657 284091 4256 3179 2050
is_linear=0
shrinkage=0.05


Tree=12
num_leaves=63
num_cat=0
split_feature=29 18 4 42 29 42 18 29 42 29 30 42 29 21 42 42 16 40 6 29 4 20 18 22 18 42 40 6 20 21 40 40 5 23 25 30 30 40 5 5 29 32 30 30 4 32 17 29 16 2 42 22 40 3 0 42 22 40 30 31 12 23
split_gain=2320.99 227.418 104.782 91.5237 55.9413 51.0925 43.5372 42.6381 33.5314 29.2377 25.0707 23.2443 22.4884 19.5886 16.7536 16.5043 15.6551 15.2115 13.927 13.8173 13.2927 14.4441 13.6674 13.2446 11.5823 14.1372 10.728 10.5818 9.87804 9.77448 9.4908 9.30967 9.30217 8.97392 8.68983 8.49229 8.39009 8.33535 7.86239 7.85779 7.85615 7.81487 7.76466 7.48267 7.30384 7.2169 7.18288 6.97296 6.9558 6.74147 6.7339 6.2797 6.06215 11.6746 5.99333 6.02553 5.81373 5.62814 5.5447 10.5891 6.6123 6.0414
threshold=1.1462151589710032 0.0055395651101039006 -0.45061662318719992 0.54820803313146371 5.024607192804706 0.52793267109325492 0.0018882633773459636 3.1120475110967951 0.54325572567615066 3.5936911478445923 -0.54383173361777271 0.52577292668024345 2.6479663984001913 1.0000000180025095e-35 0.52197635572961942 0.60865725667331538 0.8722698935000005 -39.443562710351607 122.44500000000154 2.3257415674096316 -0.27778983515158723 0.89485342368853471 0.0010064031342550217 1.0000000180025095e-35 0.003696587160512195 0.5561836169355957 11.174471354623758 379.85000000000042 -0.27567147807495301 -0.70710678118654735 32.781250210711988 2.9423970160663271 24.997688911374613 5.5000000000000009 -0.20322909182488022 0.47100729451632201 -0.4187698967232471 -8.3983812231741002 5.0303604836515738 110.51339066875008 -0.0092006770386212269 1.600521863475399 -0.45631980673865985 0.60551145740811563 0.26073501660454085 1.1904761904753494 7.1778082092932376 4.3559885457171541 13.866758042500003 78.005000000000123 0.61484288817202304 -0.37940952255126048 -25.689574658718836 0.012011072000000003 0.25417154845109874 0.53435762734453129 1.0000000180025095e-35 -5.1656217064912111 0.27721079938080201 -11.176391435170176 97224.500000000015 4.5000000000000009
decision_type=2 2 2 2 2 2 2 2 2 2 2 2 2 2 2 2 2 2 2 2 2 2 2 2 2 2 2 2 2 2 2 2 2 2 2 2 2 2 2 2 2 2 2 2 2 2 2 2 2 2 2 2 2 2 2 2 2 2 2 2 2 2
left_child=2 5 8 4 11 7 29 13 -1 15 44 19 16 20 -6 18 32 54 41 -3 -2 26 -23 39 42 -26 36 50 -20 -4 34 -24 -12 -28 -19 37 -22 -18 56 47 -10 48 57 -44 -7 -14 -32 -9 -5 -35 -11 -16 53 -31 55 -13 -38 -8 59 -47 61 -61
right_child=1 3 6 9 14 10 24 23 40 27 12 17 45 -15 51 -17 35 30 28 -21 21 22 31 -25 25 -27 33 -29 -30 52 46 -33 -34 49 -36 -37 38 -39 -40 -41 -42 -43 43 -45 -46 58 -48 -49 -50 -51 -52 -53 -54 -55 -56 -57 -58 -59 -60 60 -62 -63
leaf_value=-0.018351047659619198 0.005425766646837432 -0.012979596599938723 -0.03336830126234102 -0.019523686129723484 0.02126871443893507 0.028462334863902535 -0.014559048857509058 -0.013957227355011715 -0.01165742784121495 0.036383762421243609 -0.052185637159019388 0.023331717971568331 0.0070999950511127889 -0.039137473103116494 0.028559771482295583 0.045140126425779054 0.013809902866310467 0.018172855538771984 0.03984568666688329 0.0094091935520021156 -0.0080905669642018559 0.058481446674838337 -0.036545057974418947 0.020335719261488971 -0.024484629743344685 -0.0031692617281851403 -0.014769465675522134 0.050809438260354882 0.025437486324603083 0.057685756313782893 0.011768251389930397 0.012765866142898747 -0.0069036485359334227 0.037404533462840679 0.00099186047480793473 0.013149039261100127 -0.057165535982409858 -0.0073629954072347986 -0.035249697398305239 0.024010217311846049 0.02125521386285802 0.024482745665075155 -0.033754643229236526 -0.024193345308412356 -0.014080401271747346 0.028588418957550189 0.029169921405272692 0.0073121325492016935 0.014560387205091034 -0.007151787571298699 0.055798980994129534 0.040183993022171072 -0.042133568286497142 -0.031450811982535652 0.01168152085183834 0.038875194449038426 0.047905190262537839 -0.029761404297864166 0.027789382482432262 0.0070166341092050433 0.069314727861907441 -0.026710543635754227
leaf_weight=132.7789131709651 142.39402105659974 90.551697025883186 670.86769207125326 27.540458543269779 274.76882152131293 281.51637524621037 132.61036446731305 74.709223029232817 21.245572795567568 349.79793778499879 18.66991237559705 123.58395102324721 104.79534212581348 54.063433508723392 170.87469397108362 156.70621076988755 66.032376819050114 125.84519011319207 185.21918765579176 288.38625908922404 51.157745210184657 11.660293943888972 13.754100603939149 195.83397989999503 510.40048539209602 91.776002477265138 74.845356596975762 344.66151965182507 332.5166769153584 3.9632637244649223 106.77870395842183 31.476902286689437 28.894125928083668 17.835558989434503 177.26058876838943 197.11699928176677 1.7888341759680759 157.01748009643779 115.99383784674137 32.658499538752949 123.68320098459662 60.029260246476042 824.33614110910275 272.1943314145974 10.463812534493625 64.477545896290394 133.36620487144683 79.582139914797153 32.79135417562793 16.200520709418925 51.196931172569748 363.01521964540007 933.26674501206435 50.231765134711168 46.841597268474288 125.83780517542618 4.9863407632219605 112.55509954638546 185.32967392427963 41.34670527317212 3.2563892750185905 19.558215390425175
leaf_count=55053 15082 20597 256804 883 3640 4691 51730 6152 6596 2527 4944 2628 3072 19667 1303 1564 3062 3098 2760 15407 10217 482 3193 3680 202627 28681 15591 2152 5765 116 2511 3606 3945 625 7658 7947 564 14988 28980 765 9760 1395 305971 104151 622 992 2976 2813 811 1758 294 2367 409361 20069 1596 1673 161 43677 2710 1870 36 1018
internal_value=-6.16003e-11 0.0204048 -0.0297927 0.0280862 0.0211049 0.00733927 -0.0320741 -0.00149809 -0.000199447 0.037273 0.0142304 0.0143382 0.010045 -0.0105984 0.0313006 0.030601 0.00250979 0.0189779 0.0270304 0.00405913 -0.00739793 -0.0127733 0.0102142 0.0112485 -0.026997 -0.021236 -0.0173976 0.0443847 0.030592 -0.0380255 0.0140076 -0.00222888 -0.0246778 -0.00508955 0.00812516 0.0055875 -0.0251027 -0.0010949 -0.0321916 0.00172944 0.0164304 0.0117101 -0.0295827 -0.0313812 0.0269377 0.0184614 0.0214324 -0.00298668 -0.000998419 0.0161966 0.0388626 0.0364636 -0.0411895 -0.0249323 0.0280918 0.0311737 0.0201636 -0.0215384 0.0222536 0.0142782 -0.000102556 -0.00381407
internal_weight=9544.9 5664.99 3879.91 3567.57 2027.11 2097.42 3602.2 918.941 277.708 1540.46 1178.47 1218.45 886.495 536.157 808.659 794.803 467.731 839.514 638.097 378.938 482.094 339.699 56.8913 382.784 1943.87 602.176 282.808 745.656 517.736 1658.33 543.251 45.231 47.564 108.881 303.106 420.167 173.927 223.05 122.769 186.95 144.929 120.361 1341.7 1096.53 291.98 418.764 240.145 154.291 60.3318 34.0361 400.995 533.89 987.462 54.195 296.263 249.422 6.77517 245.165 313.969 128.639 64.1613 60.9049
internal_count=1741434 246838 1494596 83605 65454 163233 1423187 113336 71409 18151 49897 58144 44584 99926 7310 13178 34886 22140 11614 36004 80259 65177 7281 13410 736837 231308 57896 4973 8525 686350 16243 6799 8889 17974 10756 25997 39922 18050 29705 9730 16356 3089 505529 410122 5313 9698 5487 8965 1694 2383 2821 3670 429546 20185 5897 4301 725 95407 6626 3916 2924 2888
is_linear=0
shrinkage=0.05


Tree=13
num_leaves=63
num_cat=0
split_feature=29 18 4 42 42 18 29 21 29 42 30 40 29 42 18 29 39 16 42 23 42 29 42 12 35 23 39 21 18 19 39 29 40 23 37 40 4 29 29 30 21 22 29 30 26 0 40 30 29 24 6 42 42 42 40 3 10 11 25 42 20 40
split_gain=2045.59 215.366 98.1478 69.1298 62.4137 44.1634 43.1973 36.0839 30.8864 28.325 26.4907 22.1126 20.4829 19.2921 18.4345 17.8227 15.4731 14.5906 12.2236 13.3665 12.1957 11.479 10.4341 10.3679 9.78389 9.74147 9.63716 9.33148 9.06903 8.54121 9.10254 8.51593 8.42708 9.26745 8.16354 7.94892 7.90116 7.84599 7.84195 7.53169 7.51539 7.3225 7.1325 7.02294 7.44075 7.40028 6.79883 7.26565 6.74925 6.72858 9.71228 6.69696 6.6109 6.60556 6.47297 12.5123 6.46732 6.44088 6.34828 6.10497 5.93551 5.85584
threshold=1.1462151589710032 0.0075305815406592419 -0.45061662318719992 0.51978393963448555 0.53435762734453129 0.0018882633773459636 3.5936911478445923 -0.25881904510252113 6.2633508865321765 0.54325572567615066 -0.37495536166021887 18.284387705309118 5.024607192804706 0.57819541132269159 0.0030935599189906818 2.9340292095759621 -82.366104654654904 0.56236586550000023 0.56175215706450921 4.5000000000000009 0.5944287896301188 -1.0000000180025095e-35 0.5561836169355957 35219.19000000001 1.0000000180025095e-35 2.5000000000000004 -15.466265862038197 -0.70710678118654735 0.003696587160512195 0.00017412327421592505 -54.025917825775643 6.2633508865321765 9.4369931154665583 4.5000000000000009 -24.922636085504561 -11.877152830929244 -0.2589568225238647 3.9280915815198294 2.2362056301221793 0.3151017631304257 -0.9159756150367534 0.60355339059327384 1.9357521894149674 0.40568044515656382 -0.20410350920703199 0.144646927287051 48.568530055935966 -0.54383173361777271 1.7091747936039781 0.06797110879119829 209.77500000000148 0.51299381964094337 0.56337562012698228 0.54202270697983745 -25.689574658718836 0.012011072000000003 57088.748500000009 3.2795566260212596 -0.02539386350955963 0.52197635572961942 -0.70065197298814363 2.5861130759440147
decision_type=2 2 2 2 2 2 2 2 2 2 2 2 2 2 2 2 2 2 2 2 2 2 2 2 2 2 2 2 2 2 2 2 2 2 2 2 2 2 2 2 2 2 2 2 2 2 2 2 2 2 2 2 2 2 2 2 2 2 2 2 2 2
left_child=2 3 9 6 12 27 17 10 13 -1 18 15 24 16 57 20 -6 -2 19 34 26 -7 46 -13 -3 -16 53 -4 -24 -19 -31 41 36 -34 -5 -11 -32 -18 -21 -28 -17 51 -27 44 -25 -45 47 -23 -15 50 -42 -8 -44 -12 55 -29 -26 -9 -40 -14 -35 -51
right_child=1 4 5 7 8 21 31 14 -10 35 11 23 59 48 25 40 37 29 -20 38 -22 22 28 43 56 42 39 54 -30 30 32 -33 33 60 -36 -37 -38 -39 58 -41 49 -43 52 45 -46 -47 -48 -49 -50 61 -52 -53 -54 -55 -56 -57 -58 -59 -60 -61 -62 -63
leaf_value=-0.016599949101094493 -0.035603428041766437 -0.014064595441412321 -0.031903226841862989 0.022397415288948092 0.039677589787987737 -0.028960588036378378 -0.0053634263426399261 0.033477462314945153 0.048762310698928994 0.023131220570248363 0.003439337948297995 0.030464840129384309 0.020521314218555495 0.028157556536289808 -0.0079493599601391327 0.02441312642810339 0.019774520714461598 0.064354017658782126 0.037585153947060364 0.018958084134787109 0.021579421789386061 -0.014990168994901361 -0.02085201296780052 0.029686389732810112 0.0088108695515014251 -0.0059230608901460254 -0.015535856556221223 0.056779187838406069 0.0064273367892080215 0.0044341343957378524 -0.0035213686589848935 0.025649946053600239 -0.012947390846793637 -0.035699325220585047 0.0079741826217397203 -0.0017723051072902991 -0.023867477754266682 0.031417845885065493 0.047852581721644367 0.00099181727953401451 -0.0086882145827651188 0.02346718763388559 0.010997057962091425 0.035049680618386286 -0.0097723460226923613 0.015358197961633993 -0.0093986139031158045 -0.027459514690932631 0.045376622597113683 0.002216625684178975 0.023641270906842676 0.014455352220717 0.037538005049958939 0.034744703932199021 -0.040605337305252842 -0.030070246172781985 0.024668421418213845 -0.036084061654768546 0.015998147667775513 0.033213724205359257 0.016743778763799445 0.02991313356701944
