tree
version=v4
num_class=1
num_tree_per_iteration=1
label_index=0
max_feature_idx=2
objective=binary sigmoid:1
feature_names=feat_t_offset feat_pnl_if_exit_pct feat_high_water_pnl_pct
feature_infos=[0:8] [-10.627837837837848:9.9203953237075009] [-0.20000000000000001:9.9203953237075009]
tree_sizes=3416 3487 3498 3506 3500 3501 3516 3509 3516 3493 3529 3513 3517 3512 3536 3507 3524 3519 3507 3547 3543 3541 3532 3560 3519 3546 3549 3520 3529 3548 3539 3550 3554 3553 3504 3566 3570 3501 3553 3503 3578 3530 3565 3527 3552 3515 3573 3559 3524 3561 3566 3522 3568 3495 3598 3516 3572 3523 3551 3580 3544 3519 3548 3500 3541 3551 3489 3561 3492 3503 3489 3579 3485 3493 3534 3538 3515 3579 3508 3586 3498 3516 3532 3525 3523 3531 3485 3608 3490 3585 3511 3585 3484 3487 3559 3529 3608 3515 3548 3530 3593 3554 3561 3506 3529 3606 3568 3562 3584 3587 3503 3560 3555 3520 3601 3604 3570 3540 3535 3594 3556 3585 3543 3560 3562 3543 3582 3594 3482 3607 3544 3600 3548 3573 3615 3486 3563 3552 3528 3535 3576 3508 3521 3583 3583 3518 3567 3560 3533 3540 3590 3500 3517 3591 3536 3583 3557 3584 3601 3574 3555 3510 3557 3515 3560 3505 3564 3528 3525 3555 3544 3505 3536 3554 3626 3486 3504 3554 3479 3586 3507 3574 3577 3535 3539 3591 3541 3489 3537 3619 3512 3545 3608 3551 3526 3577 3514 3512 3572 3554 3601 3539 3505 3546 3533 3577 3564 3482 3567 3505 3534 3551 3583 3573 3523 3594 3511 3618 3596 3541 3515 3490 3555 3492 3536 3566 3539 3565 3546 3534 3601 3554 3533 3586 3553 3554 3521 3569 3516 3565 3507 3536 3562 3555 3512 3600 3505 3490 3538 3556 3549 3528 3598 3535 3507 3517 3527 3549 3516 3612 3512 3514 3570 3556 3528 3586 3507 3536 3597 3517 3543 3545 3487 3522 3581 3516 3557 3578 3520 3525 3595 3559 3545 3528 3543 3524 3581 3542 3514 3496 3545 3536 3573 3495 3514 3582 3588 3509 3511 3533 3514 3552 3519 3555 3531 3514 3533 3519 3575 3564 3493 3541 3494 3526 3552 3540 3533 3588 3483 3523 3529 3511 3545 3526 3530 3548 3533 3536 3513 3519 3556 3583 3490 3521 3487 3569 3540 3526 3556 3526 3558 3524 3518 3545 3512 3511 3579 3532 3528 3571 3509 3594 3523 3569 3527 3517 3530 3541 3523 3573 3561 3522 3523 3489 3530 3591 3507 3524 3573 3567 3523 3516 3578 3503 3546 3580 3540 3494 3503 3582 3583 3511 3513 3539 3554 3522 3575 3515 3564 3533 3524 3588 3544 3532 3553 3537 3525 3560 3568 3531 3514 3510 3514 3550 3576 3561 3520 3517 3561 3539 3533 3507 3541 3530 3550 3573 3531 3567 3504 3518 3569 3535 3539 3505 3566 3513 3552 3529 3584 3537 3545 3546 3547 3551 3585 3596 3556 3530 3512 3529 3539 3539 3537 3569 3551 3554 3527 3507 3530 3584 3561 3530 3530 3564 3537 3532 3532 3559 3580 3520 3537 3516 3570 3548 3503 3504 3552 3584 3518 3548 3537 3523 3533 3570 3533 3559 3545 3520 3526 3579 3538 3565 3520 3527 3581 3507 3531 3566 3514 3546 3545 3538 3599 3529 3554 3558 3548 3510 3532 3575 3547 3539 3546 3592 3526 3541 3568 3542 3563 3578 3522 3506 3540 3546 3551 3521 3570 3579 3515 3551 3571 3524 3539 3513 3541 3518 3521 3583 3536 3532 3557 3540 3599 3521 3541 3514 3538 3553 3531 3554 3555 3557 3528 3557 3529 3570 3554 3552 3556 3543 3531 3564 3523 3559 3521 3552 3536 3576 3573 3532 3553 3554 3536 3563 3615 3550 3525 3526 3543 3550 3550 3590 3537 3528 3580 3540 3550 3528 3534 3527 3566 3531 3586 3524 3539 3545 3548 3543 3535 3547 3575 3543 3549 3515 3540 3546 3528 3544 3551 3585 3534 3579 3552 3537 3539 3530 3524 3547 3567 3550 3560 3595 3535 3535 3538 3530 3543 3542 3554 3533 3512 3567 3559 3557 3594 3546 3556 3562 3521 3556 3547 3522 3522 3538 3534 3560 3524 3537 3565 3560 3508 3561 3548 3548 3529 3535 3541 3537 3529 3534 3533 3570 3548 3528 3564 3546 3563 3534 3556 3528 3604 3555 3542 3597 3535 3566 3567 3530 3561 3525 3507 3575 3553 3562 3522 3539 3532 3555 3528 3557 3531 3575 3556 3548 3544 3556 3530 3529 3558 3528 3536 3544 3526 3564 3531 3558 3533 3539 3533 3554 3570 3568 3558 3556 3559 3538 3580 3547 3542 3572 3608 3524 3548 3572 3554 3564 3522 3555 3515 3531 3550 3579 3564 3544 3592 3536 3529 3566 3569 3541 3551 3553 3511 3542 3551 3544 3531 3557 3577 3588 3598 3536 3552 3549 3530 3557 3566 3538 3574 3562 3561 3553 3554 3541 3549 3565 3543 3561 3527 3556 3542 3566 3534 3598 3526 3561 3539 3571 3558 3575 3560 3542 3554 3583 3549 3531 3561 3552 3590 3531 3554 3566 3589 3560 3556 3532 3541 3559 3564 3584 3560 3538 3563 3526 3546 3555 3568 3552 3562 3565

Tree=0
num_leaves=31
num_cat=0
split_feature=1 0 1 2 0 1 2 1 2 1 2 2 1 2 1 1 2 1 2 1 2 2 1 1 2 0 2 1 2 1
split_gain=36762.1 12072.2 10141.1 5125.67 2211.33 2140.97 6248.58 2128.62 3982.35 1985.54 4560.9 1696.21 3456.18 1330.82 3096.53 1259.85 3874.51 1249.7 3279.21 1103.56 1145.85 969.903 1957.33 901.529 1142 724.947 715.69 1519.5 577.979 2289.76
threshold=-0.10041711865845769 7.5000000000000009 -0.20001162812602313 -0.10029711760941563 7.5000000000000009 0.11546590380968626 0.11403471712898587 0.027677766444800352 0.028659064037017751 0.13550157569205426 0.13423446068706618 0.20515815863846337 0.21004759238520979 0.3242044487545061 0.32432449796006035 0.0076836770063982507 0.0081940555005434023 -0.037111706264203244 -0.037726421987316149 -0.14345796760197846 -0.1443509029375509 0.46475402134791305 0.45129232204188541 -0.14345796760197846 -0.14324851634641675 5.5000000000000009 0.59880856367360324 0.59398901865977993 0.21217483120711272 0.21004759238520979
decision_type=2 2 2 2 2 2 2 2 2 2 2 2 2 2 2 2 2 2 2 2 2 2 2 2 2 2 2 2 2 2
left_child=2 9 -1 4 23 6 7 8 17 10 15 -7 -13 -14 -15 16 -2 18 -3 20 -6 -16 -23 24 -4 -17 -24 -28 -11 -30
right_child=1 5 3 -5 19 11 -8 -9 -10 28 -12 12 13 14 21 25 -18 -19 -20 -21 -22 22 26 -25 -26 -27 27 -29 29 -31
leaf_value=-2.1301959524250864 -2.0336924243613224 -1.8259227015462456 -2.068031081274722 -2.1301959524250864 -1.9141622476340281 -1.7670142901461374 -2.126937049822399 -1.7933884792682933 -2.1301959524250864 -1.9869212164257268 -2.1284247910158829 -2.1118180851772359 -1.7685846055635592 -2.1294541148319848 -1.7646360019414229 -2.0289529165080822 -2.1301959524250864 -1.7968269880976344 -2.126147127971171 -1.8274437256906686 -2.127036999415608 -2.1301959524250864 -1.7483181914307917 -2.0385202507268074 -2.1301959524250864 -1.97972544513319 -2.1301959524250864 -1.8594390905898042 -2.1301959524250864 -2.0145721045621836
leaf_weight=19068.750120989978 5614.3023444190621 235.47912167012691 9941.3055982589722 3595.867362588644 147.19924876093864 228.5357608795166 475.62021415680647 286.95918238908052 227.04789785295725 1280.0581571832299 1637.3436652943492 190.44646739959717 211.27654977142811 134.80039020627737 170.01314850151539 2784.8828222453594 1276.5864767879248 242.22410072386265 148.19115744531155 131.13032807409763 110.79620004445314 80.146221697330475 104.74555706977844 2359.9491418600082 798.08972744643688 1022.4594718515873 59.018566720187664 424.7352986484766 466.79222686588764 5177.5649506896734
leaf_count=192243 56601 2374 100224 36252 1484 2304 4795 2893 2289 12905 16507 1920 2130 1359 1714 28076 12870 2442 1494 1322 1117 808 1056 23792 8046 10308 595 4282 4706 52198
internal_value=-2.07391 -2.0237 -2.10513 -2.07715 -2.06301 -1.93408 -1.9747 -1.91119 -1.95082 -2.03868 -2.05071 -1.89315 -1.91412 -1.88233 -1.90702 -2.03882 -2.05157 -1.88575 -1.94188 -1.94555 -2.00558 -1.87127 -1.89838 -2.0665 -2.07265 -2.01573 -1.86681 -1.89247 -2.01726 -2.02413
internal_weight=58632.3 22479.2 36153.1 17084.3 13488.5 3219.24 1615.52 1139.9 852.942 19260 12335.6 1603.72 1375.18 1184.74 973.459 10698.2 6890.89 625.894 383.67 389.126 257.995 838.659 668.646 13099.3 10739.4 3807.34 588.499 483.754 6924.42 5644.36
internal_count=591106 226626 364480 172237 135985 32455 16287 11492 8599 194171 124362 16168 13864 11944 9814 107855 69471 6310 3868 3923 2601 8455 6741 132062 108270 38384 5933 4877 69809 56904
is_linear=0
shrinkage=1


Tree=1
num_leaves=31
num_cat=0
split_feature=1 1 0 2 1 2 0 0 1 2 2 1 2 1 2 1 2 1 0 1 2 1 2 0 2 1 2 1 2 1
split_gain=33026.7 11041.1 7815.86 5865.49 3657.46 2880.42 2819.4 2150.92 1428.83 1554.65 1179.24 3150.27 1087.08 3438.64 996.482 2538.33 735.934 2101.87 718.927 699.324 1083.15 666.175 905.32 580.342 554.106 1148.55 548.54 1412.5 479.739 849.821
threshold=-0.20001162812602313 -0.017649615475034745 7.5000000000000009 -0.017315029798736597 -0.083670145036607094 -0.083426389720519897 7.5000000000000009 6.5000000000000009 -0.1263835984848691 -0.12581327037244328 0.04174320031203891 0.040791873558965304 0.13423446068706618 0.13550157569205426 0.22808679278777402 0.23170334511872792 0.36414846436759757 0.36020210921108314 6.5000000000000009 -0.12820289280982533 -0.12795916118348821 -0.15859448520607586 -0.15781120581734842 4.5000000000000009 0.031661932682458656 0.03192723725687921 0.50928147751013764 0.51243892894303789 0.67255921195678059 0.69901767815995253
decision_type=2 2 2 2 2 2 2 2 2 2 2 2 2 2 2 2 2 2 2 2 2 2 2 2 2 2 2 2 2 2
left_child=-1 3 18 4 5 7 23 19 9 21 -4 -12 -13 -14 -15 -16 -17 -18 -3 20 -2 22 -9 -6 -20 -26 -19 -28 -29 -30
right_child=1 2 10 -5 6 -7 -8 8 -10 -11 11 12 13 14 15 16 17 26 24 -21 -22 -23 -24 -25 25 -27 27 28 29 -31
leaf_value=-0.055940697539791723 0.0047889424357015721 0.035561428707320625 0.23597580986550742 -0.056039635007316783 0.032096283032873117 -0.056086610795623638 0.20741610390569387 0.11141053498282474 0.16484431745599212 -0.056192415583807137 -0.05625114753049705 0.21968110014163134 -0.050164485349729337 0.23859975977708492 -0.043245702932179733 0.23058385851020155 -0.056395411065548476 0.23919222682982444 0.14635119830696128 0.030840483197409514 -0.056037353588340826 0.1671425881803531 -0.056345291908916552 0.077444322009568342 -0.055273499019887186 0.069342140659757676 -0.047602726544759284 0.2571093645044033 -0.0024255333288599823 0.17751092852037617
leaf_weight=18247.459570504725 10811.589175820351 11200.69185000658 250.91232332587242 3537.5205211341381 2255.7827036231756 1786.3970883786678 295.93576598167419 219.31941014528275 330.24299301207066 270.98665815591812 225.07480003684759 358.82324856519699 245.17210187017918 267.7606240734458 178.02767868340015 275.86230110377073 121.72953756898642 195.22513980418444 194.09502509236336 2302.1680580452085 785.03155842423439 186.33191504329443 126.99213901162148 1026.5929359272122 202.72591291368008 2103.2000860050321 84.217863254249096 127.51467052847147 78.515592254698277 399.49183970689774
leaf_count=192243 108457 109243 2092 36850 22046 18510 2545 2082 3061 2781 2301 2990 2499 2208 1783 2270 1229 1594 1878 22647 8174 1761 1278 10033 2058 20435 842 1067 723 3426
internal_value=-0.000101265 0.0250923 0.0565484 0.00339558 0.0137034 0.00393758 0.0596057 0.0110705 0.0772876 0.0413072 0.132536 0.122388 0.139627 0.125071 0.149929 0.133674 0.158231 0.138405 0.0409726 0.00566848 0.000671315 0.0909109 0.0498946 0.0462793 0.0652159 0.0583865 0.1652 0.144257 0.170942 0.147955
internal_weight=58691.4 40443.9 16509 23934.9 20397.4 16819.1 3578.31 15032.7 1133.87 803.63 2808.33 2557.42 2332.34 1973.52 1728.35 1460.58 1282.56 1006.69 13700.7 13898.8 11596.6 532.643 346.312 3282.38 2500.02 2305.93 884.965 689.74 605.522 478.007
internal_count=591106 398863 158638 240225 203375 168751 34624 150241 10963 7902 25024 22932 20631 17641 15142 12934 11151 8881 133614 139278 116631 5121 3360 32079 24371 22493 7652 6058 5216 4149
is_linear=0
shrinkage=0.05


Tree=2
num_leaves=31
num_cat=0
split_feature=1 1 0 2 1 2 0 0 2 1 2 1 2 1 1 2 2 1 1 2 0 1 2 2 1 1 2 0 2 1
split_gain=30551.6 9385.71 6164.23 5469.28 2641.25 2490.68 2113.93 1423.09 845.68 2059.94 857.623 2901.33 872.231 2372.77 769.071 4071.44 699.186 1784.2 623.099 900.511 539.643 488.558 1170.38 464.602 2245.95 444.79 696.932 438.695 419.449 1576.22
threshold=-0.20001162812602313 -0.037111706264203244 7.5000000000000009 -0.036478695808195044 -0.11450040335877464 -0.11472591125457599 6.5000000000000009 6.5000000000000009 0.0026454340648519501 0.0038379769744191507 0.083741338172704918 0.085804230231734266 0.16672486806672562 0.16511984539145944 0.14252374113705737 0.14435549293068131 0.26147558767758444 0.25443570559334788 -0.15859448520607586 -0.15781120581734842 6.5000000000000009 -0.055370894740047492 -0.054791592619118694 0.24439786788335047 0.24306810158322159 -0.15461242845254944 -0.15410518359444383 5.5000000000000009 0.39354732281782229 0.4005999619829505
decision_type=2 2 2 2 2 2 2 2 2 2 2 2 2 2 2 2 2 2 2 2 2 2 2 2 2 2 2 2 2 2
left_child=-1 3 14 4 5 7 -6 25 -4 -10 -11 -12 -13 -14 15 20 -15 -18 19 -9 -3 22 -8 27 -25 26 -2 -16 -19 -30
right_child=1 2 8 -5 6 -7 21 18 9 10 11 12 13 16 23 -17 17 28 -20 -21 -22 -23 -24 24 -26 -27 -28 -29 29 -31
leaf_value=-0.055617499079148286 0.0035600613776033798 0.035443838431713552 0.21399855387051137 -0.055780611633816382 0.029266514292010368 -0.054995532972837671 0.12766403819445776 0.097162468862535822 -0.050621800876595062 0.18651767559487281 -0.049347510237697595 0.20197558186200495 -0.056717728441594728 0.20241299104137225 0.05359032664855682 -0.056163888990385574 -0.056682734067378775 0.18728163730361833 0.12887011040011073 -0.055906500761038064 0.076380395059018821 0.20076711163633326 -0.057485283368726214 -0.056503666010854173 0.051447309374021491 0.025630181123295615 -0.055994443743472115 0.1075895550249832 -0.038849969609403873 0.14310799833415136
leaf_weight=17455.832407929003 9135.8789775893092 5917.7189460992813 190.78543145209551 3506.522263944149 4020.6850932464004 1725.2615973353386 563.71663302183151 238.36535024642944 197.68257512152195 377.14670270681381 269.48141114413738 311.22668513655663 188.52684658765793 279.94285796582699 1191.9940380603075 1279.1539920121431 135.46602682769299 287.39106921851635 322.88027546554804 160.9728362262249 931.81786780804396 145.57641290873289 100.58299768716097 533.41955788433552 4981.1014592349529 2124.0086624696851 519.16481422632933 549.51379878818989 137.18773753196001 898.65653095394373
leaf_count=192243 91345 56487 1368 37867 38580 18658 4780 2082 1982 2778 2686 2278 1884 2039 11045 13111 1353 2065 2746 1712 8606 1192 917 5251 46434 20877 5441 5053 1336 6910
internal_value=-0.000174872 0.0233029 0.0495396 0.00160737 0.0121668 0.00132016 0.0441114 0.00909212 0.111843 0.105521 0.11622 0.105648 0.124308 0.111765 0.0362829 0.0257209 0.130035 0.116144 0.0772209 0.0354605 0.0410129 0.11781 0.0996302 0.0481152 0.0410052 0.00491488 0.000357735 0.0706292 0.133837 0.119009
internal_weight=58677.7 41221.8 18658.2 22563.6 19057.1 14226.5 4830.56 12501.3 3273.49 3082.71 2885.03 2507.88 2238.4 1927.17 15384.7 8128.69 1738.64 1458.7 722.218 399.338 6849.54 809.876 664.3 7256.03 5514.52 11779.1 9655.04 1741.51 1323.24 1035.84
internal_count=591106 398863 172666 226197 188330 142861 45469 124203 26679 25311 23329 20551 17865 15587 145987 78204 13703 11664 6540 3794 65093 6889 5697 67783 51685 117663 96786 16098 10311 8246
is_linear=0
shrinkage=0.05


Tree=3
num_leaves=31
num_cat=0
split_feature=1 1 2 0 1 2 0 0 1 2 1 2 2 1 2 1 2 1 2 1 1 2 0 1 2 2 1 0 2 1
split_gain=28323.8 8001.85 5110.67 4855.82 2304.26 2298.12 1537.06 1391.23 693.432 973.444 637.31 3653.14 586.23 1731.05 611.133 2232.43 595.961 1947.62 513.619 1135.16 446.009 824.87 432.597 406.168 527.784 393.007 2298.5 424.847 377.177 1419.8
threshold=-0.20001162812602313 -0.037111706264203244 -0.036478695808195044 7.5000000000000009 -0.10041711865845769 -0.10029711760941563 7.5000000000000009 6.5000000000000009 -0.13404263417241521 -0.13365437837038449 0.14252374113705737 0.14435549293068131 0.0055592616085122009 0.0076836770063982507 0.083741338172704918 0.085804230231734266 0.17180774533329687 0.17314706203824817 0.23601028694129073 0.23170334511872792 -0.15461242845254944 -0.15410518359444383 6.5000000000000009 -0.17562966840907165 -0.17550973136684053 0.28071537855507445 0.27981594466547377 5.5000000000000009 0.48589294579031178 0.48128698933742625
decision_type=2 2 2 2 2 2 2 2 2 2 2 2 2 2 2 2 2 2 2 2 2 2 2 2 2 2 2 2 2 2
left_child=-1 2 4 10 5 7 -6 20 9 23 11 22 -5 -14 -15 -16 -17 -18 -19 -20 21 -2 -3 24 -9 27 -27 -12 -28 -30
right_child=1 3 -4 12 6 -7 -8 8 -10 -11 25 -13 13 14 15 16 17 18 19 -21 -22 -23 -24 -25 -26 26 28 -29 29 -31
leaf_value=-0.055313598394480558 0.0033725058774890858 0.032755588530216047 -0.055467241441139098 0.17499409687004702 0.035879503905424208 -0.055513831535694926 0.14574028369291525 0.095676498884199046 0.13239270617672227 -0.05607328222177136 0.045995145729107782 -0.05582735771578029 -0.045713166341624666 0.160157952023044 -0.048482334526566917 0.16631184950538111 -0.050185094530152741 0.19070976872100756 -0.056298844827659879 0.11551970673811779 0.021518014307605172 -0.055591871789046537 0.068456474583127161 0.11698681500241022 -0.057031246768955213 -0.056554504200212796 0.066269564040432424 0.090899042608346081 -0.057350602348499147 0.050365475907105967
leaf_weight=16693.418884165585 9161.0942177847028 6078.8689820244908 3353.8743521273136 233.34583556652069 3551.6363079771399 1527.0614170655608 349.73090343177319 125.56736221909523 283.91497755050659 192.18082652240992 1596.836104400456 1223.9178742691875 210.570761077106 399.49458180367947 249.75001829117537 376.69956540316343 200.37089528888464 194.84258887171745 102.47153263539076 1553.2943415939808 3025.473900064826 634.18430105596781 986.18503674864769 275.99701300263405 102.9888402223587 590.62636479735374 1777.2331057339907 786.04394651204348 350.13585661351681 2422.4615893736482
leaf_count=192243 91345 56487 37867 1474 32782 17148 2415 1022 2164 2045 14338 13111 2163 2602 2575 2435 2050 1230 1064 11086 29137 7024 8606 2264 984 5807 15954 6833 3134 21717
internal_value=-0.000235322 0.0216996 0.00148694 0.0453108 0.0114203 0.00268845 0.0457278 0.00912827 0.0665277 0.0396881 0.0334865 0.0239233 0.0984144 0.0929788 0.10247 0.0938628 0.108507 0.0978897 0.113922 0.104886 0.00473783 -0.000445076 0.0377389 0.076163 0.0268654 0.0440229 0.0362423 0.0608077 0.0482885 0.0367626
internal_weight=58610.3 41916.9 22583.7 19333.1 19229.8 15328.5 3901.37 13801.4 980.649 696.734 15812.3 8288.97 3520.84 3287.49 3076.92 2677.43 2427.68 2050.98 1850.61 1655.77 12820.8 9795.28 7065.05 504.553 228.556 7523.34 5140.46 2382.88 4549.83 2772.6
internal_count=591106 398863 226197 172666 188330 153133 35197 135985 8479 6315 145987 78204 26679 25205 23042 20440 17865 15430 13380 12150 127506 98369 65093 4270 2006 67783 46612 21171 40805 24851
is_linear=0
shrinkage=0.05


Tree=4
num_leaves=31
num_cat=0
split_feature=1 1 2 0 1 2 0 0 1 2 2 1 2 1 2 1 0 1 2 0 2 1 0 2 1 2 1 1 2 2
split_gain=26310.5 6904.23 4777.92 4153.73 1675.91 1896.46 1355.62 897.27 648.022 3897.98 547.309 1719.72 474.257 1817.6 549.701 1652.22 452.306 402.952 599.186 388.324 374.319 1646.8 354.528 340.785 973.776 334.739 805.786 332.904 1176.82 293.305
threshold=-0.20001162812602313 -0.058042516973255444 -0.057255794094468244 7.5000000000000009 -0.1263835984848691 -0.12581327037244328 7.5000000000000009 7.5000000000000009 0.091407781076813369 0.091996031357399907 -0.010348325694286899 -0.0089859161358727489 0.052133354126426952 0.054176982253218008 0.13423446068706618 0.13550157569205426 5.5000000000000009 -0.16428783988300366 -0.16449929979043243 6.5000000000000009 0.27049406954606797 0.26673759841416866 4.5000000000000009 0.36414846436759757 0.36020210921108314 0.53749209121407604 0.54935777726538049 0.040791873558965304 0.04174320031203891 0.71469638145275105
decision_type=2 2 2 2 2 2 2 2 2 2 2 2 2 2 2 2 2 2 2 2 2 2 2 2 2 2 2 2 2 2
left_child=-1 2 4 8 5 7 22 17 9 16 -5 -12 -13 -14 -15 -16 -3 18 -2 -10 -17 -22 -6 -23 -25 -26 -27 28 -18 -28
right_child=1 3 -4 10 6 -7 -8 -9 19 -11 11 12 13 14 15 20 27 -19 -20 -21 21 23 -24 24 25 26 29 -29 -30 -31
leaf_value=-0.05502766337130556 0.0035799995079278594 0.027551610444225817 -0.055347481202553575 0.15376417434197401 0.018694019509674697 -0.055297864010251607 0.12589928202622 0.091948427004435895 0.03351393975090966 -0.056086039297943251 -0.049927880860877655 0.14544935295261083 -0.047916743926044329 0.14918970453406238 -0.049053345818780791 0.13449709609477586 0.06651538881674933 0.024410423585963053 -0.053910843200865081 0.058662638500754316 -0.056761486804294062 0.15967471275306661 0.050901835347076457 -0.05704134962248425 0.15121160646807164 -0.028312552810038638 0.17201300315693765 0.096363493692536453 -0.056769412682136915 0.094165956300944154
leaf_weight=15959.693337053061 8703.0906053185463 5071.099606603384 3309.9866351336241 280.48533814400434 2979.9225585758686 1341.8400081172585 385.68737059831619 306.04107434302568 7521.1357628181577 1414.3118151128292 233.74767958372831 349.3298846706748 240.79852949082851 403.80250614881516 206.63638356328011 550.95831902325153 1106.4407127797604 2200.1242376044393 478.11294657737017 1928.583189971745 178.07464955747128 232.70521917939186 1197.8718787059188 98.609856836497784 309.00416667759418 122.33156434446573 152.45486582815647 411.39238822460175 234.61127722263336 586.39576929807663
leaf_count=192243 86354 46526 38436 1704 27603 15630 2636 2359 66862 14901 2510 2102 2431 2414 2210 3353 9713 21019 5178 16671 1841 1358 10756 938 1876 1008 952 3433 2273 3816
internal_value=-0.000283427 0.020257 -0.000236065 0.0400584 0.0101329 0.000999805 0.0362088 0.0074634 0.0297108 0.0194606 0.0864483 0.0812964 0.0902362 0.0839776 0.0951568 0.0862044 0.0351191 0.00519162 0.000586153 0.0386465 0.0987347 0.0870034 0.0279288 0.104054 0.0938523 0.106568 0.090549 0.0570174 0.0449472 0.110229
internal_weight=58495.3 42535.6 20902.7 21632.9 17592.7 13029.2 4563.48 11687.4 17687.6 8237.86 3945.33 3664.85 3431.1 3081.77 2840.97 2437.17 6823.54 11381.3 9181.2 9449.72 2230.53 1679.58 4177.79 1501.5 1268.8 1170.19 861.182 1752.44 1341.05 738.851
internal_count=591106 398863 209971 188892 171535 130540 40995 114910 160379 76846 28513 26809 24299 22197 19766 17352 61945 112551 91532 83533 15142 11789 38359 9948 8590 7652 5776 15419 11986 4768
is_linear=0
shrinkage=0.05


Tree=5
num_leaves=31
num_cat=0
split_feature=1 1 2 0 1 2 0 0 1 2 0 1 2 2 1 2 1 2 1 2 1 2 1 0 1 2 0 2 1 2
split_gain=24482.8 5986.78 4630.46 3126.51 2104.81 2295.23 1262.42 1112.24 556.044 1002.21 415.658 388.675 605.217 368.727 1648.21 365.379 1106.56 353.888 1241.35 310.687 1039.91 294.123 834.904 288.919 288.186 940.865 259.547 253.104 979.245 261.906
threshold=-0.20001162812602313 -0.023464944911444147 -0.023203869937693345 7.5000000000000009 -0.094354288594200378 -0.093661667639943588 6.5000000000000009 7.5000000000000009 -0.14345796760197846 -0.14324851634641675 6.5000000000000009 -0.14345796760197846 -0.14324851634641675 0.04174320031203891 0.040791873558965304 0.087741003260377759 0.085804230231734266 0.14944851492769712 0.14985523856593258 0.23601028694129073 0.23170334511872792 0.028659064037017751 0.027677766444800352 4.5000000000000009 -0.050144202742363544 -0.049537021675260896 5.5000000000000009 0.3242044487545061 0.32432449796006035 0.56685131874549854
decision_type=2 2 2 2 2 2 2 2 2 2 2 2 2 2 2 2 2 2 2 2 2 2 2 2 2 2 2 2 2 2
left_child=-1 2 4 10 5 7 -6 8 9 23 -3 12 -9 -5 -15 -16 -17 -18 -19 -20 -21 -12 -23 -2 25 -8 -10 -22 -29 -30
right_child=1 3 -4 13 6 -7 24 11 26 -11 21 -13 -14 14 15 16 17 18 19 20 27 22 -24 -25 -26 -27 -28 28 29 -31
leaf_value=-0.054758476378629267 0.0021315093524933355 0.025783942586213127 -0.055101835540651671 0.12453492754988237 0.027883278083427568 -0.055235729415029189 0.10514599581685867 0.089040495281731274 0.018055262001128499 -0.055160183117409237 0.09655493278500045 0.12340353483677678 -0.055755457064814752 -0.056009579607818195 0.14309680927998 -0.056769305771269887 0.1363919369340775 -0.055540022536151604 0.13227873774521448 -0.055915563830783069 0.1348945358235801 -0.056159521624018764 0.049590309289796221 0.035404737217352489 0.1367932804474965 -0.057807778581135533 0.057764265194473065 -0.056388481594135634 0.12369713998851582 0.078325761269594757
leaf_weight=15254.071379229426 9446.877746976912 12663.168566271663 3077.8924114629626 422.50194901973009 3677.9183269888163 1572.0362946689129 480.37775620818138 214.87446988373995 2553.7572299838066 758.32626169919968 268.12919400632381 250.13798594474792 108.6616488546133 224.09600286185741 244.23308658599854 141.83560518920422 314.15396352112293 157.9230785369873 356.76602355390787 128.49827484041452 281.30042378604412 201.83456916362047 2480.1324596777558 700.81816916912794 278.91391014307737 108.60754341632128 490.55562245845795 115.8872232362628 502.57914219796658 866.3714494779706
leaf_count=192243 93574 112282 37184 2364 32898 18711 3273 1519 23598 9049 2028 1608 1222 2501 1327 1473 1709 1673 1936 1427 1518 2124 20710 6650 1799 998 4140 1113 2902 5553
internal_value=-0.000321213 0.0189502 0.00210852 0.0395745 0.0106391 0.00215418 0.040683 0.00836589 0.00556003 0.000285987 0.0297216 0.0765974 0.0404099 0.0805305 0.0749534 0.0843915 0.0793876 0.0864785 0.0799703 0.0894756 0.0814156 0.0466238 0.041632 0.00442942 0.0949246 0.0750977 0.0244539 0.0914073 0.0831687 0.0949828
internal_weight=58343.2 43089.2 23719.8 19369.4 20641.9 16096 4545.82 14524 13950.3 10906 15613.3 573.674 323.536 3756.15 3333.64 3109.55 2865.32 2723.48 2409.33 2251.4 1894.64 2950.1 2681.97 10147.7 867.899 588.985 3044.31 1766.14 1484.84 1368.95
internal_count=591106 398863 236223 162640 199039 160071 38968 141360 137011 109273 137144 4349 2741 25496 23132 20631 19304 17831 16122 14449 12513 24862 22834 100224 6070 4271 27738 11086 9568 8455
is_linear=0
shrinkage=0.05


Tree=6
num_leaves=31
num_cat=0
split_feature=1 1 2 0 1 2 0 0 1 2 1 2 1 2 2 1 0 1 2 2 1 2 1 0 2 1 2 1 0 2
split_gain=22817.9 5237.86 4263.68 2960.93 1257.58 1633.13 925.079 742.048 531.73 3098.05 416.292 1950.55 380.094 605.907 375.801 1448.46 327.943 333.031 1397.77 319.652 1532.63 334.074 1544.12 322.647 302.317 1520.55 348.953 1053.85 275.107 269.746
threshold=-0.20001162812602313 -0.062752728474579689 -0.061824441921687096 7.5000000000000009 -0.12820289280982533 -0.12795916118348821 7.5000000000000009 5.5000000000000009 0.13550157569205426 0.13423446068706618 0.069000197266944216 0.070871513092474317 -0.16994463442381291 -0.16953517344984156 -0.0088591053077788969 -0.0089859161358727489 4.5000000000000009 0.0076836770063982507 0.0081940555005434023 0.21217483120711272 0.21004759238520979 0.35002519094556889 0.34213621001962807 5.5000000000000009 0.067017241650402362 0.069000197266944216 0.13940705916514212 0.13550157569205426 4.5000000000000009 0.50928147751013764
decision_type=2 2 2 2 2 2 2 2 2 2 2 2 2 2 2 2 2 2 2 2 2 2 2 2 2 2 2 2 2 2
left_child=-1 2 4 8 5 7 28 -2 9 10 11 16 13 -9 -5 -16 -3 18 -18 -10 -21 23 -23 -22 -17 -26 -27 -28 -6 -24
right_child=1 3 -4 14 6 -7 -8 12 19 -11 -12 -13 -14 -15 15 24 17 -19 -20 20 21 22 29 -25 25 26 27 -29 -30 -31
leaf_value=-0.054504912531160257 0.0028243737090141332 0.022576410010544924 -0.054929630757938379 0.12013133619694936 0.01621122994973917 -0.054897268022579764 0.10320408153497898 0.061278295494407345 0.054809730063503717 -0.053388799035648742 0.049878602622271007 -0.056828837270632704 0.078389137418627575 -0.056647509218188868 -0.055936144163784701 0.11032024767641364 0.0563975362956659 0.069523949217778616 -0.056238370282310858 -0.056525073790351932 0.039152229535598493 -0.057647391360214364 0.058780061372943497 0.082702474865489192 -0.049595887234371666 0.12286116429393404 -0.055780148822754977 0.079959286811778191 0.04463516869945075 0.0305054839239569
leaf_weight=14575.915627419949 10670.652161970735 4031.1637135371566 3075.9545664414763 361.63430301100016 2945.7202906161547 1188.9127513319254 409.48203151673079 281.22219717502594 1616.3543813824654 1328.657368093729 1801.8146880567074 691.80142523348331 507.60822637379169 177.7868876606226 226.34180817008018 504.49969726055861 1263.7576610222459 920.76287856698036 352.19998471438885 475.21245434880257 1224.8947416618466 459.76271567493677 1214.0370991677046 651.49449040740728 250.58632217347622 388.0276888012886 151.86204759776592 2447.7679076939821 1197.280301168561 2764.0387296304107
leaf_count=192243 105274 35673 38639 1966 26557 14917 2487 2253 12905 14901 15170 6721 3987 1817 2657 2718 10537 7387 3674 4706 10240 4021 9911 5202 2722 2022 1759 15073 10143 22824
internal_value=-0.000349935 0.0177624 -0.000668985 0.0340642 0.00893493 0.000921744 0.0315113 0.00662445 0.0254765 0.0179124 0.028367 0.0230279 0.0485741 0.0156024 0.0713359 0.06689 0.0314393 0.0455236 0.0318484 0.0348264 0.030069 0.0365861 0.0291077 0.0542732 0.0743179 0.068709 0.0786316 0.0720298 0.0244254 0.0391344
internal_weight=58157.2 43581.3 20454.6 23126.7 17378.7 12826.2 4552.48 11637.3 18796 10390.2 9061.5 7259.69 966.617 459.009 4330.72 3969.09 6567.88 2536.72 1615.96 8405.79 6789.44 6314.23 4437.84 1876.39 3742.74 3238.24 2987.66 2599.63 4143 3978.08
internal_count=591106 398863 206074 192789 167435 128248 39187 113331 163872 94063 79162 63992 8057 4070 28917 26951 57271 21598 14211 69809 56904 52198 36756 15442 24294 21576 18854 16832 36700 32735
is_linear=0
shrinkage=0.05


Tree=7
num_leaves=31
num_cat=0
split_feature=1 1 2 0 1 2 0 0 1 2 1 2 1 0 2 1 0 2 1 2 2 1 2 1 2 1 2 1 2 1
split_gain=21289 4571.15 4004.2 2512.74 1126.35 1568.05 779.218 637.27 445.396 3160.49 341.286 324.367 1831.03 301.822 298.035 1213.38 276.52 272.269 1456.96 254.088 245.95 1427.01 268.272 1115.07 243.421 975.267 249.029 694.677 264.862 599.242
threshold=-0.20001162812602313 -0.060484267043936245 -0.059657337693163941 7.5000000000000009 -0.1263835984848691 -0.12581327037244328 6.5000000000000009 5.5000000000000009 0.091407781076813369 0.091996031357399907 -0.18650862361692086 0.18362238178395454 0.18167887155288182 5.5000000000000009 -0.0088591053077788969 -0.0089859161358727489 5.5000000000000009 0.30019175138369397 0.29306141806475527 -0.18618331486371908 0.087741003260377759 0.085804230231734266 0.17750404778719156 0.17314706203824817 0.29011976790023225 0.29306141806475527 0.39354732281782229 0.4005999619829505 0.56685131874549854 0.54935777726538049
decision_type=2 2 2 2 2 2 2 2 2 2 2 2 2 2 2 2 2 2 2 2 2 2 2 2 2 2 2 2 2 2
left_child=-1 2 4 8 5 7 -6 -2 9 13 19 16 -13 -3 -5 -16 -10 -14 -19 -9 -17 -22 -23 -24 -25 -26 -27 -28 -29 -30
right_child=1 3 -4 14 6 -7 -8 10 11 -11 -12 12 17 -15 15 20 -18 18 -20 -21 21 22 23 24 25 26 27 28 29 -31
leaf_value=-0.054265947091562419 0.0027289262219743625 0.022220817177091054 -0.054652973988198274 0.10873466130780829 0.019990302116932042 -0.054645490187258873 0.073266631218376371 0.045259911039504448 0.035842280463694469 -0.055586707913012116 0.059476995651960109 -0.056371246758809494 0.0493487773814918 0.045060470665760938 -0.055675478008668733 0.095222833825757539 0.072833429537132288 -0.056918374119044983 0.035517411667694808 -0.057212726755282953 -0.055591737939662079 0.10454244510780336 -0.056709731893902653 0.10639220086463748 -0.046838096825629616 0.12251725949734822 -0.040973490569615384 0.12036097106287505 -0.059361665678069331 0.080101043300734531
leaf_weight=13924.551457978785 10818.763135530055 5496.9962783902884 2928.9297408238053 366.97970486432314 3839.7656364813447 1157.513852968812 835.70059086382389 115.82868039608002 1662.4841962084174 1324.3233897164464 798.16501656919718 620.58370373398066 1905.5763779208064 1963.0277154967189 208.94070920348167 684.26790824532509 725.75732127577066 467.95656295120716 4787.8669723942876 126.62593144178391 238.00122301280499 513.03094538301229 175.34426572173834 465.57509157806635 173.55745853483677 261.78342984616756 129.3409146219492 315.39085868000984 84.816364169120789 838.37050613760948
leaf_count=192243 106478 47765 38538 1876 33931 15180 5402 891 13703 15063 6287 6353 15084 15818 2553 3597 5581 4445 38367 1254 2866 2604 1936 2400 1639 1315 1027 1596 654 4660
internal_value=-0.000378281 0.0166633 -0.000501751 0.0317836 0.00846286 0.000901976 0.029513 0.00632359 0.0238416 0.0155945 0.0436953 0.0309648 0.0260181 0.0282308 0.0655711 0.0616967 0.0470834 0.0331576 0.0272873 -0.00825812 0.0680181 0.0621921 0.0716716 0.064772 0.0741606 0.0658389 0.0778386 0.0692883 0.0808026 0.0672881
internal_weight=57955.8 44031.3 20621.3 23410 17692.4 13016.9 4675.47 11859.4 18954.6 8784.35 1040.62 10170.2 7781.98 7460.02 4455.4 4088.42 2388.24 7161.4 5255.82 242.455 3879.48 3195.21 2957.21 2444.18 2268.83 1803.26 1629.7 1367.92 1238.58 923.187
internal_count=591106 398863 207961 190902 169423 130090 39333 114910 162179 78646 8432 83533 64249 63583 28723 26847 19284 57896 42812 2145 24294 20697 17831 15227 13291 10891 9252 7937 6910 5314
is_linear=0
shrinkage=0.05


Tree=8
num_leaves=31
num_cat=0
split_feature=1 1 2 0 0 1 2 1 2 1 2 1 2 1 2 0 2 1 2 1 2 1 2 1 0 1 2 0 0 1
split_gain=19888.9 4023.74 3779.66 2222.94 972.962 546.376 1086.53 413.591 2624.89 342.712 1973.43 332.562 583.978 296.459 522.546 257.962 261.713 1108.4 261.888 676.262 279.466 478.66 247.786 1125.34 247.659 241.487 1504.42 268.219 229.565 225.366
threshold=-0.20001162812602313 -0.07003099456652763 -0.070194639667286785 7.5000000000000009 7.5000000000000009 -0.12820289280982533 -0.12795916118348821 0.13550157569205426 0.13423446068706618 0.054176982253218008 0.055871278455821453 -0.11642280632899718 -0.11693698445217594 -0.16428783988300366 -0.16449929979043243 5.5000000000000009 0.29011976790023225 0.29306141806475527 0.4432615717339552 0.45129232204188541 0.63631610614332013 0.64416283180703837 -0.013205794231840649 -0.014787775135682647 4.5000000000000009 1.0000000180025095e-35 1.0000000180025095e-35 4.5000000000000009 3.5000000000000004 -0.16255161827961587
decision_type=2 2 2 2 2 2 2 2 2 2 2 2 2 2 2 2 2 2 2 2 2 2 2 2 2 2 2 2 2 2
left_child=-1 2 4 7 5 6 13 8 9 10 25 12 29 14 -2 -9 -17 -18 -19 -20 -21 -22 -5 -24 -11 26 27 -3 -7 -6
right_child=1 3 -4 22 11 28 -8 15 -10 24 -12 -13 -14 -15 -16 16 17 18 19 20 21 -23 23 -25 -26 -27 -28 -29 -30 -31
leaf_value=-0.054040623083289767 0.0027890533342524834 0.022239799749779077 -0.054163139673430338 0.097131030687619413 0.02897180408142019 0.011567532384025768 -0.054377429469486205 0.022943146284919561 -0.052757797400974353 0.026400741179337918 -0.056377736194076426 0.10234192634474266 -0.053780321725974835 0.020712684737940353 -0.053436554445113818 0.060872367656966013 -0.052487892421767317 0.074402934311406863 -0.045572715756061172 0.086284330424641648 -0.047450788548755729 0.048970795466155896 -0.055421352141645154 0.062510434505087198 0.058220501318681596 0.040865065124790878 -0.05624804839310088 0.049899570553542612 0.03675644136967629 0.10187721138593803
leaf_weight=13299.274168498814 8803.5043606162071 2547.3607756793499 2874.5605496764183 413.85890757292509 209.94846399873495 2231.2432698085904 855.34488968551159 5250.4136499240994 1251.1547492146492 1417.2538997754455 783.09030382335186 298.73372083157301 134.5320953130722 2163.3370054215193 433.58622480928898 1083.7164142727852 339.61944546550512 552.41361702978611 226.40509989112616 349.67295055836439 151.69318585842848 849.58855737745762 212.95035852491856 4038.3062530755997 1075.594863653183 2248.3153907954693 555.02534779906273 1336.2027200609446 1521.2516794279218 214.09595660120249
leaf_count=192243 86354 21819 39013 2093 1596 19520 11729 42156 15213 11691 8129 1597 1612 19808 4920 7896 3370 4137 1852 2682 1177 6539 2744 24715 8206 18111 5844 10522 12555 1263
internal_value=-0.00040004 0.0156589 -0.001168 0.0291163 0.00786447 0.00508531 -2.60163e-05 0.0218725 0.0155046 0.0240771 0.01872 0.0597589 0.0369849 0.00405183 0.00014984 0.029984 0.0403883 0.0313987 0.0447755 0.0343996 0.047802 0.034363 0.0601985 0.0566031 0.0401301 0.0275146 0.020752 0.0317566 0.0217791 0.065781
internal_weight=57722 44422.8 19740.1 24682.6 16865.6 16008.3 12255.8 20017.5 11214 9962.84 7469.99 857.31 558.577 11400.4 9237.09 8803.52 3553.11 2469.39 2129.77 1577.36 1350.95 1001.28 4665.12 4251.26 2492.85 6686.9 4438.59 3883.56 3752.49 424.044
internal_count=591106 398863 199967 198896 160954 154886 122811 169344 99535 84322 64425 6068 4471 111082 91274 69809 27653 19757 16387 12250 10398 7716 29552 27459 19897 56296 38185 32341 32075 2859
is_linear=0
shrinkage=0.05


Tree=9
num_leaves=31
num_cat=0
split_feature=1 1 2 0 1 2 0 0 0 1 2 1 2 2 1 2 1 2 1 2 1 1 2 1 2 1 2 1 2 1
split_gain=18598.3 3541.58 3667.22 1773.33 1157.07 1692.87 703.098 582.525 318.517 277.919 607.872 264.167 649.846 262.856 960.786 229.49 1067.12 253.981 1016.59 232.814 734.477 217.943 208.784 545.753 193.459 569.612 170.124 744.069 177.256 414.745
threshold=-0.20001162812602313 -0.03981925133769134 -0.039050507174886791 7.5000000000000009 -0.10041711865845769 -0.10029711760941563 6.5000000000000009 6.5000000000000009 6.5000000000000009 -0.13987471393431791 -0.13925493683979417 -0.15461242845254944 -0.15410518359444383 0.0081940555005434023 0.0076836770063982507 0.074947120272817011 0.074119902881086955 0.17180774533329687 0.17314706203824817 0.25294476401621652 0.25443570559334788 -0.18650862361692086 0.33684665709333728 0.34213621001962807 0.46475402134791305 0.45129232204188541 0.76274994012889319 0.76520545885936408 0.98239776917714605 0.95953566555829795
decision_type=2 2 2 2 2 2 2 2 2 2 2 2 2 2 2 2 2 2 2 2 2 2 2 2 2 2 2 2 2 2
left_child=-1 2 4 8 5 6 11 -6 -3 10 21 12 -2 -5 -15 -16 -17 -18 -19 -20 -21 -8 -22 -24 -25 -26 -27 -28 -29 -30
right_child=1 3 -4 13 7 -7 9 -9 -10 -11 -12 -13 -14 14 15 16 17 18 19 20 22 -23 23 24 25 26 27 28 29 -31
leaf_value=-0.05382805240218802 0.0022981543982615034 0.018565041004145192 -0.054310965567402482 0.09835093047038021 0.022043319534799613 -0.05467082492734239 -0.0010401959022192367 0.068600420153545769 0.035626172271669566 0.0753851682600572 -0.055705528338149173 0.015698003268809501 -0.05460391225430429 -0.056972065270083277 0.091276786097428175 -0.056947835294762918 0.09071763099067906 -0.051083512253599389 0.10149249725992082 -0.053607024779544647 0.1050494712046362 0.070820559303819045 -0.041918813889421501 0.10243973206711665 -0.06005920942722668 0.092079872947875757 -0.063340331931310834 0.12372378325487397 -0.067881830955283148 0.078107057841517946
leaf_weight=12699.354707099497 9307.2169214561582 14604.828693151474 2672.849707506597 353.70432126522064 3412.8849175646901 1224.2476103827357 144.72184272110462 836.55103483051062 3366.1427379623055 438.7827161103487 176.3783410936594 3236.6138027757406 530.35002395510674 188.0406883880496 475.81137151271105 203.0942200049758 594.97530242055655 209.65572403371334 348.4678615629673 139.21007852256298 282.14853991568089 389.42991174757481 125.04636105895042 303.84074261784554 94.502913258969784 439.14604696631432 115.90466666966677 143.00207710266113 55.687376022338867 384.9608154296875
leaf_count=192243 91345 121499 37985 1666 28686 16579 1120 4974 26262 2584 2177 29137 7024 2195 2251 2268 2867 2266 1616 1331 1298 2598 1051 1429 722 2223 702 737 287 1984
internal_value=-0.00041819 0.0147224 0.000645666 0.0287626 0.00810312 0.00174715 0.00660317 0.0312086 0.0217608 0.0440973 0.0247757 0.00330718 -0.000769475 0.0569934 0.0534286 0.0587306 0.0542284 0.0612048 0.0545574 0.0636647 0.0573379 0.0513508 0.0652817 0.0585309 0.066703 0.057898 0.0676875 0.0523752 0.0753546 0.0596576
internal_weight=57497.6 44798.2 22370 22428.2 19697.2 15447.7 14223.5 4249.44 17971 1149.31 710.53 13074.2 9837.57 4457.2 4103.49 3915.45 3439.64 3236.55 2641.57 2431.92 2083.45 534.152 1944.24 1662.09 1537.04 1233.2 1138.7 699.555 583.65 440.648
internal_count=591106 398863 224209 174654 186224 152564 135985 33660 147761 8479 5895 127506 98369 26893 25227 23032 20781 18513 15646 13380 11764 3718 10433 9135 8084 6655 5933 3710 3008 2271
is_linear=0
shrinkage=0.05


Tree=10
num_leaves=31
num_cat=0
split_feature=1 1 2 0 0 1 2 1 2 2 1 1 2 1 2 1 2 0 2 1 0 2 1 2 1 2 1 2 1 0
split_gain=17413 3139.32 3386.76 1698.1 777.098 437.261 1028.74 339.408 2688.92 255.984 1540.17 252.991 505.28 242.717 426.873 227.874 1612.92 241.704 226.781 1351.9 209.492 201.965 878.957 198.805 1162.72 195.579 823.835 225.198 824.135 193.566
threshold=-0.20001162812602313 -0.07003099456652763 -0.070194639667286785 7.5000000000000009 7.5000000000000009 -0.13586683943802555 -0.13573515745777232 0.091407781076813369 0.091996031357399907 0.18362238178395454 0.18167887155288182 -0.11057622442264249 -0.11026889409375663 -0.17562966840907165 -0.17550973136684053 0.011535630344072902 0.010994648875084652 4.5000000000000009 0.35002519094556889 0.34213621001962807 4.5000000000000009 0.56685131874549854 0.54935777726538049 0.0081940555005434023 0.0076836770063982507 0.055871278455821453 0.054176982253218008 0.13423446068706618 0.12895888054286223 4.5000000000000009
decision_type=2 2 2 2 2 2 2 2 2 2 2 2 2 2 2 2 2 2 2 2 2 2 2 2 2 2 2 2 2 2
left_child=-1 2 4 7 5 6 13 8 15 -9 -11 12 -6 14 -2 16 20 -17 29 -20 -3 -21 -23 -5 -25 -26 -27 -28 -29 -12
right_child=1 3 -4 23 11 -7 -8 9 -10 10 18 -13 -14 -15 -16 17 -18 -19 19 21 -22 22 -24 24 25 26 27 28 -30 -31
leaf_value=-0.053627450482355427 0.0018961992663670563 0.019218486042370628 -0.053772540962082997 0.078291166981955929 0.056939055962256194 0.017959087597714422 -0.054227596515076693 0.039131990285418472 -0.05517100197801536 -0.056184224140357335 0.024813998112671778 0.092984849163169805 -0.056963197242353825 0.017746006411789538 -0.055687773382366794 0.021553552792609926 -0.0529196928399727 0.04949676729590953 -0.057093079292498163 0.042992256276104063 0.041374229636407925 -0.058545770247237783 0.031365161574194389 -0.055753787421903928 0.091181916959168871 -0.057906224169982805 0.08707168445665972 -0.056340562382584815 0.057690725263120857 0.051413565317081945
leaf_weight=12124.045401714742 8188.1389749869704 2989.5884382128716 2645.4413901790977 627.29814347624779 505.01298838853836 4401.8118070811033 828.68832091242075 2556.995750695467 1278.4067862704396 598.91751778125763 1319.5749356076121 268.70894318819046 120.62166532129049 2362.0452294498682 335.00412993878126 1862.7006275653839 727.87643414735794 1323.9061918184161 501.92492628097534 1704.4918232187629 1658.9892797246575 307.51706270873547 2341.6762960255146 253.24930064380169 336.92810633778572 164.69859085977077 514.52499821782112 167.94746793061495 2801.6938623189926 1419.8727022185922
leaf_count=192243 80104 24933 39013 3163 3274 37199 11998 19284 15675 6353 10103 1319 1475 21834 3751 15020 7964 9574 4715 12617 12645 2478 17640 3357 1516 1788 2376 1994 15358 10343
internal_value=-0.000429273 0.0138673 -0.0011437 0.0254565 0.00704127 0.00452369 -0.000525035 0.0191791 0.0124699 0.0253207 0.0210108 0.052407 0.0349788 0.00356334 -0.000367152 0.0225682 0.0162888 0.0331628 0.0270981 0.0206085 0.0271255 0.0295665 0.0209283 0.05202 0.0481324 0.0547331 0.0513675 0.0565329 0.0512417 0.0386007
internal_weight=57238.3 45114.3 19655.5 25458.8 17010 16115.7 11713.9 20592.4 9841.47 10751 8193.98 894.344 625.635 10885.2 8523.14 8563.06 5376.45 3186.61 7595.06 4855.61 4648.58 4353.69 2649.19 4866.34 4239.04 3985.79 3648.86 3484.17 2969.64 2739.45
internal_count=591106 398863 199967 198896 160954 154886 117687 169344 85811 83533 64249 6068 4749 105689 83855 70136 45542 24594 57896 37450 37578 32735 20118 29552 26389 23032 21516 19728 17352 20446
is_linear=0
shrinkage=0.05


Tree=11
num_leaves=31
num_cat=0
split_feature=1 1 2 0 0 1 2 0 1 2 1 2 2 1 2 1 2 1 2 1 2 1 1 2 2 1 2 1 2 1
split_gain=16314.6 2777.99 3158.35 1526.87 653.691 302.256 658.238 287.429 254.707 774.217 195.155 183.199 179.81 732.725 178.346 681.096 201.296 814.31 187.802 928.456 208.244 679.924 175.295 1742.32 162.483 678.469 196.245 401.021 142.431 416.072
threshold=-0.20001162812602313 -0.074777177999363134 -0.073855926081389592 6.5000000000000009 6.5000000000000009 -0.11642280632899718 -0.11570218493516228 7.5000000000000009 -0.14345796760197846 -0.14324851634641675 -0.18650862361692086 -0.18618331486371908 -0.027442235797292297 -0.026359727768043597 0.013740348554225451 0.015469570034143501 0.087741003260377759 0.085804230231734266 0.19067163849597626 0.19072207829231599 0.30019175138369397 0.29306141806475527 0.091407781076813369 0.091996031357399907 0.42647622195486362 0.42466828547705915 0.56685131874549854 0.54935777726538049 -0.16549633937249489 -0.16610290780543194
decision_type=2 2 2 2 2 2 2 2 2 2 2 2 2 2 2 2 2 2 2 2 2 2 2 2 2 2 2 2 2 2
left_child=-1 2 4 22 8 6 10 -5 9 -2 11 -6 -9 -14 -15 -16 -17 -18 -19 -20 -21 -22 23 -3 -23 -26 -27 -28 -12 -30
right_child=1 3 -4 7 5 -7 -8 12 -10 -11 28 -13 13 14 15 16 17 18 19 20 21 24 -24 -25 25 26 27 -29 29 -31
leaf_value=-0.053438043517611167 0.0024033737425299532 0.017724759785520603 -0.054060595171629533 0.030269097890186083 0.047484528029652459 0.066660234214365149 -0.055541843369017511 0.082259651628058761 0.013411197556578242 -0.054001529941041716 0.099639244812269434 -0.05741524395767357 -0.050392975162064903 0.087461374446618181 -0.049019937394541357 0.080182772626494342 -0.055930353963538508 0.076941182615811801 -0.057891424981076869 0.084740976906082066 -0.058657649842135617 0.085800714580275272 0.020095201575073676 -0.054814861030574702 -0.061247704247703705 0.096574496316595926 -0.06048834146418125 0.058169850305869832 -0.057517563155198827 0.058414991504737224
leaf_weight=11572.592134829611 10087.020399339497 7824.5686105564237 2478.7447973825037 3840.5315065309405 77.906308382749557 544.17027268558741 223.56557933986187 364.6940179169178 4293.1997865103185 647.41908328980207 126.11027218401432 89.363300167024136 189.87550490349531 295.10223107039928 175.99751438945532 529.94209060072899 181.72848757356405 646.86388136446476 195.73787094652653 481.787288159132 138.70597580075264 369.2323377802968 8624.7368705049157 925.71958968415856 128.00446116179228 278.83299094438553 76.976200148463249 949.75475609302521 90.78635548427701 524.57415424287319
leaf_count=192243 98447 64574 38262 29505 504 2996 3027 1706 37119 9743 779 927 2561 1326 1947 2409 2237 3009 2135 2211 1313 1711 66862 11967 992 1241 559 4660 922 3212
internal_value=-0.000442417 0.0130658 -0.00139352 0.0236449 0.00642181 0.0360354 0.0213176 0.0405575 0.00311814 -0.000998538 0.0402263 -0.00855787 0.0484549 0.0457971 0.0499026 0.0472342 0.0514932 0.0470832 0.0528153 0.0468566 0.0553175 0.048016 0.0150366 0.0100506 0.0562234 0.0486054 0.0593759 0.0492738 0.0512316 0.041311
internal_weight=56974.2 45401.7 19182.9 26218.8 16704.1 1676.48 1132.31 8843.77 15027.6 10734.4 908.74 167.27 5003.24 4638.54 4448.67 4153.56 3977.57 3447.62 3265.9 2619.03 2423.29 1941.51 17375 8750.29 1802.8 1433.57 1305.56 1026.73 741.471 615.361
internal_count=591106 398863 195938 202925 157676 12367 9371 59522 145309 108190 6344 1431 30017 28311 25750 24424 22477 20068 17831 14822 12687 10476 143403 76541 9163 7452 6460 5219 4913 4134
is_linear=0
shrinkage=0.05


Tree=12
num_leaves=31
num_cat=0
split_feature=1 1 2 0 1 2 0 0 2 1 1 2 2 1 2 1 2 1 2 1 2 1 2 1 1 2 1 2 2 1
split_gain=15301.5 2486.98 3248.46 1170.41 1036.17 1609 577.611 479.524 314.935 1516.54 308.766 803.709 300.712 1244.48 345.123 1106.87 332.023 1098.2 295.621 989.895 327.423 722.438 282.896 544.603 189.963 382.203 165.798 218.728 165.397 484.74
threshold=-0.20001162812602313 -0.023464944911444147 -0.023203869937693345 6.5000000000000009 -0.083670145036607094 -0.083426389720519897 7.5000000000000009 5.5000000000000009 0.04174320031203891 0.040791873558965304 -0.15461242845254944 -0.15410518359444383 0.10471818518721381 0.10336966047282971 0.17180774533329687 0.17314706203824817 0.27049406954606797 0.26673759841416866 0.378620867489188 0.37991192028968851 0.50928147751013764 0.51243892894303789 0.67255921195678059 0.64416283180703837 -0.15668074454232547 -0.15666538738304786 -0.18650862361692086 -0.18618331486371908 0.89285400885811306 0.84953479959797329
decision_type=2 2 2 2 2 2 2 2 2 2 2 2 2 2 2 2 2 2 2 2 2 2 2 2 2 2 2 2 2 2
left_child=-1 2 4 -3 5 6 10 -6 -5 -10 11 26 -11 -14 -15 -16 -17 -18 -19 -20 -21 -22 -23 -24 25 -8 27 -2 -25 -30
right_child=1 3 -4 8 7 -7 24 -9 9 12 -12 -13 13 14 15 16 17 18 19 20 21 22 23 28 -26 -27 -28 -29 29 -31
leaf_value=-0.053259144834612707 0.00070731752345902423 0.015838828490592104 -0.054095006975937304 0.06710899232863482 0.01846340093915658 -0.054614481428217933 0.061016369837853704 0.055283447318466288 -0.056285057036976782 0.071370445085824241 0.014091729560760796 -0.054105018422138801 -0.057547161573883523 0.076908987467491502 -0.051473228545724295 0.074616339962371159 -0.057879090063014726 0.078494002110324534 -0.055338142055180152 0.085332056893893449 -0.053496319416209262 0.088061945533177297 -0.062083999705175988 0.078923121298426782 0.066774081106471997 -0.056468291344929693 0.016401851222748405 -0.056217252506663019 -0.065969523941468572 0.050743823752449041
leaf_weight=11044.23219499737 7595.4922155067325 14089.042738944292 2396.1967088915408 938.41003853082657 2932.8917333930731 1175.1818045414984 180.3327561467886 1265.944658793509 416.20692954584956 776.19865910708904 4948.7821671664715 668.97003875300288 320.33623579144478 690.0379248932004 315.12026399374008 802.39083031564951 270.28221124410629 606.31115159392357 248.02828444540501 505.51530937850475 186.18690500408411 383.37824486196041 120.39319461584091 341.77640877664089 492.65358800441027 112.35909178107977 1769.4038166999817 172.58501758426428 99.624027192592621 831.30761435627937
leaf_count=192243 74180 112282 37184 4966 23695 17300 1017 7803 4977 4073 42448 10092 3569 3580 3212 4165 2617 3188 2034 2650 1400 2033 803 1921 2724 1346 16662 1772 567 4603
internal_value=-0.000448457 0.0123278 0.00110168 0.0244597 0.00730691 0.00184666 0.00600913 0.0295646 0.0399293 0.0362399 0.0038425 -0.00112703 0.0421672 0.0382049 0.0438846 0.0390467 0.0455367 0.0390423 0.0469267 0.0398802 0.0494488 0.0402065 0.0500271 0.03956 0.0478197 0.0159161 0.00258891 -0.000557388 0.0491752 0.0382537
internal_weight=56695.6 45651.3 23710.8 21940.5 21314.6 17115.8 15940.6 4198.84 7851.5 6913.09 15155.2 10206.5 6496.89 5720.69 5400.35 4710.31 4395.19 3592.8 3322.52 2716.21 2468.18 1962.67 1776.48 1393.1 785.345 292.692 9537.48 7768.08 1272.71 930.932
internal_count=591106 398863 236223 162640 199039 167541 150241 31498 50358 45392 145154 102706 40415 36342 32773 29193 25981 21816 19199 16011 13977 11327 9927 7894 5087 2363 92614 75952 7091 5170
is_linear=0
shrinkage=0.05


Tree=13
num_leaves=31
num_cat=0
split_feature=1 1 2 0 1 2 0 0 1 2 0 1 2 1 2 1 2 1 2 2 1 2 1 2 1 2 1 2 1 2
split_gain=14360.6 2204.95 2996.06 1137.3 781.992 1469.07 498.917 406.892 260.939 642.806 208.345 194.27 190.551 1005.67 213.961 687.002 205.987 902.747 176.215 170.23 528.279 163.398 783.712 177.647 504.375 211.087 387.418 129.225 606.755 154.817
threshold=-0.20001162812602313 -0.03981925133769134 -0.039050507174886791 7.5000000000000009 -0.10455747419151319 -0.10470908428219494 5.5000000000000009 5.5000000000000009 -0.14534181272934912 -0.14549484302998053 5.5000000000000009 -0.18650862361692086 0.019574448489212554 0.019443071454350452 0.059633874206477401 0.059100767546349658 0.16074851384170211 0.15798086816828386 -0.18618331486371908 -0.0015949479116425999 -0.0031852355424797497 0.28071537855507445 0.27981594466547377 0.39354732281782229 0.4005999619829505 0.56685131874549854 0.54935777726538049 0.04174320031203891 0.040791873558965304 0.095881359851413175
decision_type=2 2 2 2 2 2 2 2 2 2 2 2 2 2 2 2 2 2 2 2 2 2 2 2 2 2 2 2 2 2
left_child=-1 2 4 10 5 6 -2 -6 9 11 -3 18 -12 -14 -15 -16 -17 -18 -8 -5 -21 -19 -23 -24 -25 -26 -27 -22 -29 -30
right_child=1 3 -4 19 7 -7 8 -9 -10 -11 12 -13 13 14 15 16 17 21 -20 20 27 22 23 24 25 26 -28 28 29 -31
leaf_value=-0.053090105833208515 0.0019346218523584983 0.0128908214429415 -0.053780642602869633 0.080555743442727756 0.014758138121925592 -0.053953611528821735 0.03566900524424315 0.046669372787840273 0.054659210871131694 -0.054616689356367154 0.047251895454533219 0.055112266483441613 -0.055721094988915601 0.059853141955176131 -0.056606372217685441 0.047680803408993708 -0.055865225877536576 0.048510507205826045 -0.057633396770563408 -0.056546684226894822 0.075021970575050223 -0.056443858717392548 0.059215401634074551 -0.044915078880652382 0.064446083935635903 -0.058368896493040084 0.033751065215356951 -0.0572642370125864 0.076783469177222563 0.042902482348389531
leaf_weight=10538.202870771289 12356.156942509115 12111.90703554824 2293.0695307031274 303.63486215472221 3419.6617563664913 1126.6648783795536 125.2727090716362 1411.1292633898556 689.21660370379686 250.1892320252955 769.67314337939024 509.37569867819548 400.527887519449 437.54224617034197 254.86769226938486 1012.811433263123 336.93080642074347 875.7282575443387 84.902767583727837 132.30969932302833 328.65948341786861 274.42490799725056 500.98065453022718 223.08069343864918 449.45677181333303 126.72554612159729 1148.6145575344563 147.036167178303 374.35513526946306 3394.251422394067
leaf_count=192243 119548 96377 37985 1290 27807 17226 891 8766 4311 3360 5143 3486 4737 2783 2732 6760 3817 5571 829 1801 1402 2802 3283 1804 2986 1040 7926 1769 1610 19021
internal_value=-0.000456183 0.0116362 0.000349146 0.0222835 0.00656384 0.000975602 0.00539132 0.0240798 0.0311373 0.0144198 0.0168252 0.0384239 0.0238212 0.0208363 0.026272 0.0234483 0.0275712 0.0223966 -0.00202156 0.0443525 0.0418409 0.0297233 0.0236818 0.0326609 0.0258313 0.0349814 0.0245975 0.0449079 0.0423803 0.0462681
internal_weight=56407.4 45869.2 22265.6 23603.5 19972.6 15141.8 14015.1 4830.79 1658.96 969.74 18923.3 719.551 6811.36 6041.69 5641.16 5203.62 4948.75 3935.94 210.175 4680.25 4376.61 3599.01 2723.28 2448.86 1947.88 1724.8 1275.34 4244.3 3915.64 3768.61
internal_count=591106 398863 224209 174654 186224 149651 132425 36573 12877 8566 147761 5206 51384 46241 41504 38721 35989 29229 1720 26893 25603 25412 19841 17039 13756 11952 8966 23802 22400 20631
is_linear=0
shrinkage=0.05


Tree=14
num_leaves=31
num_cat=0
split_feature=1 1 2 0 0 1 2 1 2 1 2 1 2 2 1 2 1 1 2 0 2 1 1 2 2 1 0 0 2 1
split_gain=13487 1962.57 2700.34 1125.57 500.222 273.434 817.9 235.529 1961.11 221.151 1295.65 190.958 453.475 186.639 862.839 192.972 1037.27 173.028 1307.72 164.132 155.161 701.157 154.516 336.852 154.111 532.79 154.034 149.583 137.609 673.747
threshold=-0.20001162812602313 -0.074777177999363134 -0.073855926081389592 7.5000000000000009 7.5000000000000009 -0.12820289280982533 -0.12795916118348821 0.13550157569205426 0.13423446068706618 0.069000197266944216 0.070871513092474317 -0.16818662994721986 -0.16826053512589675 0.19769382335524957 0.20041012165327185 0.35002519094556889 0.34213621001962807 1.0000000180025095e-35 1.0000000180025095e-35 4.5000000000000009 0.48589294579031178 0.48128698933742625 -0.11642280632899718 -0.11570218493516228 0.71469638145275105 0.69901767815995253 4.5000000000000009 3.5000000000000004 -0.013205794231840649 -0.014787775135682647
decision_type=2 2 2 2 2 2 2 2 2 2 2 2 2 2 2 2 2 2 2 2 2 2 2 2 2 2 2 2 2 2
left_child=-1 2 4 7 5 6 11 8 9 10 17 12 -2 -9 -15 -16 -17 18 26 -19 -18 -22 23 -6 -23 -26 -3 -7 -5 -30
right_child=1 3 -4 28 22 27 -8 13 -10 -11 -12 -13 -14 14 15 16 20 19 -20 -21 21 24 -24 -25 25 -27 -28 -29 29 -31
leaf_value=-0.052930330157659168 0.0018645705189500744 0.015109785881679647 -0.053629867925954623 0.065368762769208888 0.04409589073716294 0.0069833166990691409 -0.053690493009766464 0.03624161892578466 -0.052126991587185138 0.031036544487996594 -0.056019609204130655 0.015122266760420583 -0.054639860836368105 -0.046112663342965765 0.033056431157524595 -0.056972848550495551 0.037886340026792899 0.018056416362585165 -0.055709982295021859 0.041290576972449172 -0.058191466243562417 0.039133518912095475 0.070611902977113991 -0.055970185862468713 -0.059586205919556073 0.024876657680803018 0.034255079716282069 0.027392761731780985 -0.055341341445371096 0.041910978194036948
leaf_weight=10053.7428830266 8681.6093450859189 2957.1547176614404 2183.3379722759128 510.20542438328266 487.87970962747931 2202.6147880852222 674.74807838350534 1583.6505026072264 1147.3465757295489 2126.2130081355572 630.33059215545654 2517.2875917181373 370.22435950860381 500.51931724697351 2495.3171346411109 443.52835820615292 1278.7201716899872 1852.5465231463313 615.41758918762207 1289.008598588407 280.95441876351833 1118.2587575241923 306.54458843171597 101.619030341506 208.98638927191496 1751.4921155869961 1629.5011045150459 1515.4326458722353 185.53942273184657 4434.868401106447
leaf_count=192243 84229 23648 38262 2333 2902 18201 11172 10662 15416 15170 7154 22074 4779 4864 17313 4235 8674 14280 7313 8638 2344 7851 1407 1446 1560 12306 11480 11466 2969 24715
internal_value=-0.000460578 0.0109871 -0.00130921 0.0196461 0.00546703 0.00342637 -0.000179845 0.0147095 0.010105 0.0165375 0.0131023 0.00294107 -0.000446488 0.0205464 0.0174694 0.0216693 0.0160781 0.0183242 0.0127287 0.0275896 0.0230632 0.0174215 0.0418189 0.0268463 0.0243216 0.0158729 0.0219115 0.015302 0.0407267 0.0380057
internal_weight=56134.6 46080.9 19041.3 27039.6 16858 15961.9 12243.9 21908.9 12247.5 11100.2 8973.96 11569.1 9051.83 9661.43 8077.78 7577.26 5081.94 8343.63 5202.07 3141.56 4638.41 3359.69 896.043 589.499 3078.74 1960.48 4586.66 3718.05 5130.61 4620.41
internal_count=591106 398863 195938 202925 157676 151921 122254 172908 103099 87683 72513 111082 89008 69809 59147 54283 36970 65359 42441 22918 32735 24061 5755 4348 21717 13866 35128 29667 30017 27684
is_linear=0
shrinkage=0.05


Tree=15
num_leaves=31
num_cat=0
split_feature=1 1 2 0 1 2 0 0 2 1 2 1 2 1 2 1 2 1 2 1 2 1 1 2 2 1 2 1 2 1
split_gain=12673.9 1750.14 2692.22 904.708 647.77 1293.63 418.91 329.426 228.297 893.884 220.445 1114.68 269.382 1059.35 263.67 945.298 252.142 868.845 255.635 593.385 224.731 458.477 209.737 554.939 205.455 338.483 159.489 140.911 138.748 1276.94
threshold=-0.20001162812602313 -0.037111706264203244 -0.036478695808195044 6.5000000000000009 -0.094354288594200378 -0.093661667639943588 5.5000000000000009 5.5000000000000009 0.0055592616085122009 0.0038379769744191507 0.067017241650402362 0.069000197266944216 0.15522196552767448 0.15798086816828386 0.25294476401621652 0.25443570559334788 0.378620867489188 0.37991192028968851 0.50928147751013764 0.51243892894303789 0.67255921195678059 0.69901767815995253 -0.16255161827961587 -0.16241199026921757 0.89285400885811306 0.84953479959797329 0.71469638145275105 -0.19999104824832672 0.03473003257544751 0.03192723725687921
decision_type=2 2 2 2 2 2 2 2 2 2 2 2 2 2 2 2 2 2 2 2 2 2 2 2 2 2 2 2 2 2
left_child=-1 2 4 28 5 6 -2 -6 -5 -10 -11 -12 -13 -14 -15 -16 -17 -18 -19 -20 -21 26 23 27 -23 -26 -22 -8 -3 -30
right_child=1 3 -4 8 7 -7 22 -9 9 10 11 12 13 14 15 16 17 18 19 20 21 24 -24 -25 25 -27 -28 -29 29 -31
leaf_value=-0.052779258666710085 0.0017006047810474195 0.021559127092259652 -0.053487817429413886 0.061942277563685991 0.014188294260844621 -0.05432867568908948 -0.060995022369616493 0.044576455123289477 -0.056004283029370674 0.057377812137047762 -0.050291374759373897 0.059255874264190628 -0.048717328798939877 0.062656745502531128 -0.053303996946690593 0.064434784890480573 -0.055069450139996513 0.071712495983805996 -0.053249685594696776 0.074126367843557708 0.027740301537572731 0.081374844345804331 0.038312655308292309 -0.055224197422204593 -0.066764732887568567 0.041830634173448171 -0.063151916328343424 0.045866774453309084 -0.055721600663441756 0.014123201977199983
leaf_weight=9590.0981142483652 13092.223006453365 3381.6639812812209 2104.3925707936287 629.71814738214016 2988.7209105789661 980.42504157498479 33.357630550861359 1271.1634101159871 286.69647624343634 885.86137899011374 398.10805457830429 1038.2187396213412 382.59584902226925 869.08924698829651 298.53366699069738 780.46417414397001 258.408197671175 539.20364673435688 181.65720405429602 409.77869503200054 71.032057911157608 284.34954753518105 1287.4454613439739 250.81168111786246 78.125266686081886 880.07476614415646 150.56772793084383 410.2062769010663 694.42084407433867 11354.350627020001
leaf_count=192243 126051 25751 37867 3098 23534 16012 249 7424 3797 4401 4613 5234 4249 4289 2942 3889 2226 2650 1400 2033 407 1474 8614 3636 437 4603 973 2810 8208 85992
internal_value=-0.000465719 0.0103766 0.000346305 0.0198038 0.00592306 0.00132389 0.00494356 0.0232562 0.032984 0.030644 0.0339535 0.0308191 0.0360088 0.0313529 0.0377334 0.0322248 0.0392517 0.0323631 0.0410703 0.0330324 0.0413966 0.0322363 0.026367 0.00421863 0.0440521 0.0329765 -0.0340171 0.0378304 0.0126096 0.0100978
internal_weight=55861.8 46271.7 22418.7 23852.9 20314.4 16054.5 15074 4259.88 8422.48 7792.76 7506.07 6620.21 6222.1 5183.88 4801.28 3932.19 3633.66 2853.2 2594.79 2055.59 1873.93 1464.15 1981.82 694.376 1242.55 958.2 221.6 443.564 15430.4 12048.8
internal_count=591106 398863 226197 172666 188330 157372 141360 30958 52715 49617 45820 41419 36806 31572 27323 23034 20092 16203 13977 11327 9927 7894 15309 6695 6514 5040 1380 3059 119951 94200
is_linear=0
shrinkage=0.05


Tree=16
num_leaves=31
num_cat=0
split_feature=1 1 2 0 1 2 0 0 1 2 1 2 1 2 2 1 1 1 2 0 2 1 2 1 2 1 2 1 2 1
split_gain=11919 1568.53 2526.02 904.579 474.748 1050.27 361.277 302.056 216.979 605.316 176.499 1680.59 234.768 1421.64 188.534 792.205 159.47 158.642 1045.29 181.226 128.126 620.788 126.726 689.257 139.769 591.932 152.628 624.489 128.686 607.444
threshold=-0.20001162812602313 -0.062752728474579689 -0.061824441921687096 7.5000000000000009 -0.11450040335877464 -0.11353000429752379 4.5000000000000009 5.5000000000000009 -0.15668074454232547 -0.15666538738304786 0.23170334511872792 0.23601028694129073 0.10911375092695921 0.10920158771166047 0.35002519094556889 0.34213621001962807 -0.19999104824832672 0.054176982253218008 0.055871278455821453 3.5000000000000004 0.48589294579031178 0.48128698933742625 0.013740348554225451 0.015469570034143501 0.074947120272817011 0.074119902881086955 0.17750404778719156 0.17314706203824817 0.31164835837420596 0.30754543175606242
decision_type=2 2 2 2 2 2 2 2 2 2 2 2 2 2 2 2 2 2 2 2 2 2 2 2 2 2 2 2 2 2
left_child=-1 2 4 10 5 6 -2 -6 9 16 11 12 13 17 -12 -16 -8 18 -3 -19 -17 -22 -5 -24 -25 -26 -27 -28 -29 -30
right_child=1 3 -4 22 7 -7 8 -9 -10 -11 14 -13 -14 -15 15 20 -18 19 -20 -21 21 -23 23 24 25 26 27 28 29 -31
leaf_value=-0.052636377011210579 0.00087402363400351151 0.017933844449607078 -0.053444224179636006 0.057340529365057159 0.011945886042639943 -0.054283368259014579 -0.059238337478351916 0.042732301974831195 0.041146184501665933 -0.055208991994145896 0.033572672048984037 -0.055321191671620008 0.026173186342918382 -0.055178218775047652 -0.056879513980002898 0.033494081979953148 0.037525757897950068 0.011027174926922021 -0.056099635141556886 0.041559764554248785 -0.05773899773043021 0.021396390942141394 -0.05048624026707025 0.064508341023924123 -0.057686245090932391 0.060415584379377052 -0.056496380309549427 0.059793922729575913 -0.058840778509611238 0.042258810058305646
leaf_weight=9146.5208923704922 11285.51340585202 6841.1723286733031 2040.7752899825573 656.23907179385424 2851.4269316866994 811.21096529066563 45.366676967591047 1105.6634839475155 957.26372112333775 276.04468532651663 1840.9002083316445 917.54920571669936 3313.0608372986317 754.64948164671659 357.40775841474533 1327.689201593399 692.79899533465505 840.62829934060574 512.50269999727607 1152.0208723768592 268.85489703714848 3168.0211533308029 229.94980163499713 457.55612641572952 163.87528160214424 700.7155684903264 177.32382392138243 647.86358573287725 161.46426247805357 1861.3093595355749
leaf_count=192243 108732 51517 38639 3051 22906 13409 381 6458 6495 3882 12305 11503 22650 9980 3443 8674 5172 6220 5831 7688 2344 21717 3389 1933 2031 3083 2139 2862 1611 8818
internal_value=-0.000468191 0.00981165 -0.000721157 0.0178324 0.00524801 0.000944435 0.00432389 0.020548 0.0240723 0.00795714 0.0133182 0.0101453 0.0146233 0.0108351 0.0198489 0.0149164 0.0315788 0.0161652 0.0127742 0.0286791 0.0203021 0.0152059 0.0368438 0.0337868 0.0384338 0.0352202 0.0395106 0.0343671 0.0404002 0.0341887
internal_weight=55563.3 46416.8 20066.1 26350.8 18025.3 14068.2 13257 3957.09 1971.47 1014.21 21294.5 14331.6 13414 10101 6962.87 5121.97 738.166 9346.32 7353.68 1992.65 4764.57 3436.88 5056.3 4400.06 4170.11 3712.55 3548.68 2847.96 2670.64 2022.77
internal_count=591106 398863 206074 192789 167435 138071 124662 29364 15930 9435 163872 115389 103886 81236 48483 36178 5553 71256 57348 13908 32735 24061 28917 25866 22477 20544 18513 15430 13291 10429
is_linear=0
shrinkage=0.05


Tree=17
num_leaves=31
num_cat=0
split_feature=1 1 2 0 1 2 0 0 1 2 2 1 2 1 2 1 2 1 2 1 2 1 2 1 2 1 1 2 2 1
split_gain=11215.3 1411.33 2521.29 735.409 627.752 1279.8 380.489 296.154 208.277 678.462 195.739 1042.79 198.356 711.954 198.925 1043.33 238.854 686.967 223.335 780.588 236.148 444.202 139.821 589.627 199.277 475.871 130.016 152.325 126.713 974.098
threshold=-0.20001162812602313 -0.023464944911444147 -0.023203869937693345 6.5000000000000009 -0.083670145036607094 -0.083426389720519897 7.5000000000000009 4.5000000000000009 -0.15461242845254944 -0.15410518359444383 0.04174320031203891 0.040791873558965304 0.087741003260377759 0.085804230231734266 0.19769382335524957 0.20041012165327185 0.29011976790023225 0.29306141806475527 0.42647622195486362 0.42466828547705915 0.56685131874549854 0.54935777726538049 0.76274994012889319 0.76520545885936408 1.0973473680762518 1.1056676737570499 -0.19219920988752223 -0.19076642019012466 0.03473003257544751 0.03192723725687921
decision_type=2 2 2 2 2 2 2 2 2 2 2 2 2 2 2 2 2 2 2 2 2 2 2 2 2 2 2 2 2 2
left_child=-1 2 4 28 5 6 8 -6 9 26 -5 -12 -13 -14 -15 -16 -17 -18 -19 -20 -21 -22 -23 -24 -25 -26 27 -2 -3 -30
right_child=1 3 -4 10 7 -7 -8 -9 -10 -11 11 12 13 14 15 16 17 18 19 20 21 22 23 24 25 -27 -28 -29 29 -31
leaf_value=-0.052501196506079088 -0.00030288942543097108 0.021326106689864177 -0.053557921656307475 0.050736162633405593 0.011483666454593597 -0.054198130961689787 0.037779129175335824 0.037637950456474369 0.01108846761924386 -0.053631613233666602 -0.055899035938211744 0.059060257348036826 -0.056604550246008523 0.049544999283233915 -0.050985771555022458 0.060642288837659 -0.049272378530252119 0.059593422919767415 -0.060514063345045312 0.067149744678492163 -0.059709369251772962 0.059596968665322519 -0.062257575336070653 0.067516929465187267 -0.062736249693689086 0.043212393448356548 0.012674717499608412 -0.056159993798829792 -0.05552633453199151 0.012363771922520094
leaf_weight=8722.275720063597 7336.4112605899572 2653.705060325563 1964.0487418100238 1007.5938574373722 2611.8900902494788 980.62925926595926 821.630848698318 1848.2829398587346 5116.029075331986 583.33289043232799 358.65799891203642 598.51160828769207 234.16837274283171 1303.567619331181 388.71974167227745 728.41940995305777 258.54476685076952 738.38962959498167 225.26922965049744 506.69057585299015 132.14601874351501 443.77209681272507 161.58664420247078 412.84299899637699 129.73399180173874 578.91997897624969 2169.3406490422785 124.11973340064287 553.64027938619256 11571.043581187725
leaf_count=192243 71303 19508 37184 4966 20275 17300 5087 11223 42448 10092 4977 2831 2821 6584 4381 3487 2472 3628 1867 2422 1047 2223 966 2083 673 2930 20000 1311 6782 85992
internal_value=-0.000470438 0.00928054 0.000679599 0.0180947 0.00561322 0.00126312 0.00463055 0.0223219 0.00285382 -0.0012711 0.0300955 0.027207 0.0315638 0.0289277 0.0322611 0.0274724 0.0345382 0.0292385 0.0353354 0.0284221 0.036891 0.0286436 0.0354047 0.0270375 0.0399033 0.0238163 0.00190066 -0.00123218 0.0114298 0.00926376
internal_weight=55263.9 46541.6 23555.7 22985.9 21591.7 17131.5 16150.9 4460.17 15329.2 10213.2 8207.53 7199.94 6841.28 6242.77 6008.6 4705.04 4316.32 3587.9 3329.35 2590.96 2365.69 1859 1726.86 1283.08 1121.5 708.654 9629.87 7460.53 14778.4 12124.7
internal_count=591106 398863 236223 162640 199039 167541 150241 31498 145154 102706 50358 45392 40415 37584 34763 28179 23798 20311 17839 14211 12344 9922 8875 6652 5686 3603 92614 72614 112282 92774
is_linear=0
shrinkage=0.05


Tree=18
num_leaves=31
num_cat=0
split_feature=1 1 2 1 2 0 0 0 1 2 2 1 2 1 2 1 2 1 2 1 2 1 2 1 1 2 2 1 2 1
split_gain=10559.2 1261.52 2457.41 642.33 1269.01 631.007 362.711 277.857 218.975 593.345 177.911 853.153 174.425 634.44 200.959 821.472 201.419 693.799 176.876 547.768 164.161 709.58 205.442 403.374 150.305 174.136 122.386 439.996 137.181 463.231
threshold=-0.20001162812602313 -0.011976318761208549 -0.01189436832805795 -0.076915168274937842 -0.076181459129764748 6.5000000000000009 5.5000000000000009 6.5000000000000009 -0.11642280632899718 -0.11693698445217594 0.04174320031203891 0.040791873558965304 0.079301193352110513 0.079981943594953517 0.14944851492769712 0.14985523856593258 0.22808679278777402 0.22052510844335924 0.30019175138369397 0.29306141806475527 0.42647622195486362 0.42466828547705915 0.56685131874549854 0.54935777726538049 -0.18650862361692086 -0.18618331486371908 0.71469638145275105 0.69901767815995253 1.0973473680762518 1.1056676737570499
decision_type=2 2 2 2 2 2 2 2 2 2 2 2 2 2 2 2 2 2 2 2 2 2 2 2 2 2 2 2 2 2
left_child=-1 2 3 4 6 -3 -2 -5 9 24 -7 -12 -13 -14 -15 -16 -17 -18 -19 -20 -21 -22 -23 -24 25 -8 -25 -28 -29 -30
right_child=1 5 -4 7 -6 10 8 -9 -10 -11 11 12 13 14 15 16 17 18 19 20 21 22 23 26 -26 -27 27 28 29 -31
leaf_value=-0.052373267720715592 0.0013185488595165032 0.01108967990809665 -0.053661347138030759 0.015439658890162187 -0.053995217387803933 0.050930719964123766 0.028059546237087809 0.044578310127440769 0.042972952018837302 -0.052559213817280154 -0.05594907606269596 0.058382897931008627 -0.054197057445990175 0.053440324021242727 -0.055543063211924572 0.055266870395413337 -0.057966850259574737 0.058558341081244775 -0.058293211458212195 0.053843317533806528 -0.059957006016828587 0.062548243646982596 -0.059168235434816863 0.059734942526416368 0.032603133272057869 -0.056559129310314274 -0.063311147175092328 0.054143210481408646 -0.061686519946465512 0.040325353813525359
leaf_weight=8316.6392747350037 14286.462580185384 14167.680048059672 1899.3799545243382 3736.9458981379867 984.3795751966536 806.34776137769222 133.5658150985837 1047.4463234394789 826.15575218200684 297.45749958604574 303.0071531124413 494.59491509199142 228.77969565242529 832.76296076178551 285.09276803582907 768.3100264519453 225.15372728556395 550.40054358541965 174.46311660856009 713.96372698247433 216.22310097515583 516.50162334740162 126.82162299752235 347.64503800868988 1168.301836553961 111.59823414310813 124.0458776652813 550.74729700386524 137.20493075251579 589.07546988129616
leaf_count=192243 136429 106293 36462 27941 18387 3817 891 5387 4598 4679 4205 2285 2640 3943 3471 3627 2441 2580 1762 3455 1867 2422 1047 1680 7938 1421 792 2736 737 2930
internal_value=-0.000470689 0.00878226 0.00096144 0.00555368 0.00118374 0.0174265 0.00441238 0.021819 0.0218339 0.0116265 0.0286611 0.0261618 0.0297771 0.027562 0.0305993 0.0270277 0.0316979 0.0274593 0.0322119 0.0280648 0.0325997 0.0267847 0.0346255 0.026936 0.0251341 -0.0104587 0.0331805 0.0265916 0.0353244 0.0210538
internal_weight=54967.2 46650.5 24491.7 22592.3 17807.9 22158.8 16823.5 4784.39 2537.08 1710.92 7991.14 7184.79 6881.79 6387.19 6158.41 5325.65 5040.56 4272.25 4047.09 3496.69 3322.23 2608.26 2392.04 1875.54 1413.47 245.164 1748.72 1401.07 1277.03 726.28
internal_count=591106 398863 244133 207671 174343 154730 155956 33328 19527 14929 48437 44620 40415 38130 35490 31547 28076 24449 22008 19428 17666 14211 12344 9922 10250 2312 8875 7195 6403 3667
is_linear=0
shrinkage=0.05


Tree=19
num_leaves=31
num_cat=0
split_feature=1 0 1 2 1 2 1 2 1 2 2 1 1 2 0 2 1 1 2 2 1 2 1 0 1 0 2 1 2 1
split_gain=9947.41 1140.37 653.846 1811.01 412.949 1001.33 189.07 709.8 186.134 738.827 156.305 799.518 143.89 351.536 135.037 127.78 320.359 115.744 241.934 113.39 598.168 109.571 500.808 102.242 102.05 147.635 101.109 491.613 109.546 368.15
threshold=-0.20001162812602313 7.5000000000000009 1.0000000180025095e-35 1.0000000180025095e-35 -0.074777177999363134 -0.073855926081389592 -0.08799070713434419 -0.088056768803779037 -0.13586683943802555 -0.13573515745777232 0.03473003257544751 0.03192723725687921 -0.17562966840907165 -0.17550973136684053 5.5000000000000009 -0.061824441921687096 -0.062752728474579689 -0.16255161827961587 -0.16353492112773907 0.10471818518721381 0.10336966047282971 0.17750404778719156 0.17314706203824817 4.5000000000000009 -0.19745882547143026 1.0000000180025095e-35 0.29011976790023225 0.29306141806475527 0.56685131874549854 0.54935777726538049
decision_type=2 2 2 2 2 2 2 2 2 2 2 2 2 2 2 2 2 2 2 2 2 2 2 2 2 2 2 2 2 2
left_child=-1 2 3 4 5 8 7 17 9 12 -4 -12 13 24 -13 -8 -17 18 -3 -16 -21 -22 -23 -14 25 -2 -24 -28 -29 -30
right_child=1 6 10 -5 -6 -7 15 -9 -10 -11 11 14 23 -15 19 16 -18 -19 -20 20 21 22 26 -25 -26 -27 27 28 29 -31
leaf_value=-0.052252172670515511 0.00020902944725804457 0.044672050656035821 0.026947471752310548 -0.053522474763246279 0.016261539435183856 -0.05323748240515102 0.073000764591044695 -0.054377105148312989 0.011263525846691767 -0.053573304039489206 -0.055721475925925294 0.0092252370791594679 0.0072569219217722518 -0.055047306339241465 0.035747419867303114 -0.057446748644089309 0.032109317615719619 0.047801171068541308 -0.054987305006669096 -0.055386574722107541 0.038432305120907756 -0.05603381096779371 0.036496784298783155 0.031341717565950437 0.014382835003232626 -0.036225505010868013 -0.050684280140840976 0.034945629809249153 -0.056840577733020481 0.023234080846762616
leaf_weight=7928.9032731726766 6785.3058456331491 161.16105574369431 1720.1829906329513 1492.4925891458988 4857.3163174726069 847.77409851551056 181.67860139906406 315.13854774087667 4413.2620762959123 627.33890758082271 435.54108756408095 9105.679044380784 1929.2129972949624 289.34730624780059 861.12221927195787 101.87906968593597 5035.7788463942707 529.40552719309926 97.885306857526302 276.29553916677833 709.38881615549326 220.99336571246386 857.61945576965809 571.0741706751287 1218.4341695234179 289.91597943007946 245.66152714937925 1135.7403747066855 161.96375473588705 1261.898772507906
leaf_count=192243 66002 802 11663 28663 35128 17175 755 6568 34706 11526 5401 66833 17516 3751 5057 1584 28895 2762 1199 3653 4150 2620 4928 4318 11310 2792 2719 6883 1578 7926
internal_value=-0.000468802 0.00831631 0.00519882 -0.00023653 0.00340674 -0.000272323 0.0278833 0.0090494 0.00251252 -0.000785381 0.0126588 0.0110493 0.00220253 -0.000872338 0.0130095 0.0317907 0.0303334 0.0344005 0.00701398 0.0190224 0.0160648 0.0203628 0.0170624 0.012758 0.00101771 -0.00128392 0.0214725 0.0168793 0.0233638 0.0141256
internal_weight=54665.4 46736.5 40313.6 23321.5 21829 16971.7 6422.93 1103.59 16123.9 11710.6 16992.1 15271.9 11083.3 8583 14836.4 5319.34 5137.66 788.452 259.046 5730.68 4869.56 4593.27 3883.88 2500.29 8293.66 7075.22 3662.88 2805.26 2559.6 1423.86
internal_count=591106 398863 356298 232887 204224 169096 42565 11331 151921 117215 123411 111748 105689 83855 106347 31234 30479 4763 2001 39514 34457 30804 26654 21834 80104 68794 24034 19106 16387 9504
is_linear=0
shrinkage=0.05


Tree=20
num_leaves=31
num_cat=0
split_feature=1 0 1 2 1 2 1 2 1 2 2 1 1 2 0 0 2 1 2 1 0 2 1 2 1 2 1 2 1 2
split_gain=9374.64 1023.35 589.605 1665.64 297.487 856.582 168.383 500.569 164.33 652.028 136.987 1135.73 122.609 294.948 120 109.143 106.853 216.96 106.458 578.127 104.788 104.328 400.28 100.495 404.029 91.4363 567.147 116.721 363.997 115.082
threshold=-0.20001162812602313 7.5000000000000009 -0.023464944911444147 -0.023203869937693345 -0.083670145036607094 -0.083426389720519897 -0.12043270204363778 -0.12046396014463424 -0.14345796760197846 -0.14324851634641675 0.031661932682458656 0.03192723725687921 -0.17562966840907165 -0.17550973136684053 5.5000000000000009 3.5000000000000004 -0.10686493882370289 -0.10653816594283748 0.11403471712898587 0.11546590380968626 4.5000000000000009 -0.066800049406734244 -0.067608456373513329 0.17750404778719156 0.17314706203824817 0.013740348554225451 0.015469570034143501 0.052133354126426952 0.049731317734092013 0.095881359851413175
decision_type=2 2 2 2 2 2 2 2 2 2 2 2 2 2 2 2 2 2 2 2 2 2 2 2 2 2 2 2 2 2
left_child=-1 2 3 4 5 8 7 -3 9 12 20 -12 13 -2 -13 -6 -8 -18 -16 -20 -4 -19 -23 -21 -25 -24 -27 -28 -29 -30
right_child=1 6 10 -5 15 -7 16 -9 -10 -11 11 14 -14 -15 18 -17 17 21 19 23 -22 22 25 24 -26 26 27 28 29 -31
leaf_value=-0.052137513543423997 0.00096464420646202864 0.033383900392876385 0.013801328327057813 -0.053104460195242426 0.0073647234196958806 -0.053366282073310713 0.085293965570260796 -0.053978758402954824 0.010636201121868293 -0.053534898466096485 -0.053186217646254176 0.0088712408030275289 0.01325963239027703 -0.055046681491427385 0.032712887231050605 0.023748931908756266 -0.05672180436286095 0.058338479899329471 -0.050827163845376458 0.03867177303668648 0.032965672678008567 -0.056299364787941279 0.046891716895909263 -0.055990410590246301 0.020161408487260096 -0.050708447253276251 0.063391958447443775 -0.060197524625783178 0.061538202809753556 0.029459359790277223
leaf_weight=7558.3737553842366 8299.9729229956865 483.94868300110102 1855.4660597518086 1417.4151270985603 2175.0818581879139 720.66730368509889 83.817914620041847 247.98427048325539 4351.4412368237972 557.3273567892611 690.14417843148112 9252.4420060962439 1954.853956386447 241.88563372939825 1019.2532318383455 1908.1645018234849 73.839261222630739 297.89304389059544 312.56533366441727 593.35061722993851 1158.7218532264233 137.39203717187047 705.82797581702471 182.77551427483559 3702.7167465351522 220.1925859414041 270.34414935112 110.11409774795175 303.74166888743639 3515.1012292020023
leaf_count=192243 80104 2673 13453 30115 16368 14660 347 5392 34486 10444 9318 67471 17042 3078 5948 12857 1109 1276 4143 3362 7218 2444 3297 2197 24034 3550 1104 1375 1254 18744
internal_value=-0.000465978 0.00787125 0.00491814 -0.000709127 0.0029657 -8.6867e-05 0.0263651 0.00378479 0.00240554 -0.000834473 0.0114028 0.0095342 0.00196368 -0.000621467 0.0124079 0.0150213 0.0292553 0.0284217 0.0180393 0.0149178 0.0211685 0.0295523 0.0279229 0.019506 0.0165792 0.0301806 0.0275117 0.0316132 0.0294266 0.0320108
internal_weight=54402.8 46844.4 40394.2 21626.8 20209.4 16126.1 6450.2 731.933 15405.5 11054 18767.4 15753.2 10496.7 8541.86 15063.1 4083.25 5718.26 5634.45 5810.66 4791.41 3014.19 5560.61 5262.71 4478.84 3885.49 5125.32 4419.49 4199.3 3928.96 3818.84
internal_count=591106 398863 356298 219154 189039 159814 42565 8065 145154 110668 137144 116473 100224 83182 107155 29225 34500 34153 39684 33736 20671 33044 31768 29593 26231 29324 26027 22477 21373 19998
is_linear=0
shrinkage=0.05


Tree=21
num_leaves=31
num_cat=0
split_feature=1 0 1 2 1 2 1 2 1 2 0 0 2 1 2 1 1 2 2 1 2 1 2 1 1 2 2 1 2 1
split_gain=8839.56 923.263 528.015 1564.04 243.558 868.901 150.385 462.35 143.648 488.034 127.026 116.97 100.926 419.292 110.611 590.26 99.6019 135.546 94.9018 309.789 94.7281 545.184 91.8633 335.771 89.8073 185.208 89.1677 578.777 116.096 347.336
threshold=-0.20001162812602313 7.5000000000000009 -0.037111706264203244 -0.036478695808195044 -0.10653816594283748 -0.10584122042192033 -0.12043270204363778 -0.12046396014463424 -0.15461242845254944 -0.15410518359444383 3.5000000000000004 5.5000000000000009 -0.0060555050250930493 -0.0060596159035639493 0.059633874206477401 0.059100767546349658 -0.19219920988752223 -0.19076642019012466 -0.092548070816777836 -0.092243810713132687 0.16074851384170211 0.15798086816828386 -0.057255794094468244 -0.058042516973255444 -0.16818662994721986 -0.16826053512589675 0.019574448489212554 0.019443071454350452 0.055871278455821453 0.054176982253218008
decision_type=2 2 2 2 2 2 2 2 2 2 2 2 2 2 2 2 2 2 2 2 2 2 2 2 2 2 2 2 2 2
left_child=-1 2 3 4 5 8 7 24 9 16 -10 -4 -13 -14 -15 -16 17 -2 -8 -20 -17 -22 -21 -24 25 -3 -25 -28 -29 -30
right_child=1 6 11 -5 -6 -7 18 -9 10 -11 -12 12 13 14 15 20 -18 -19 19 22 21 -23 23 26 -26 -27 27 28 29 -31
leaf_value=-0.052028919510037769 -0.00038311041229442753 0.040736991023086346 0.0075696235574642728 -0.05291106543262443 0.012222703267692278 -0.05356418021585601 0.06196792738166601 -0.053805193997988693 0.0037829676931495195 -0.053580025419381699 0.023869167425352972 0.039282827741776383 -0.055607744378315421 0.032511459548233083 -0.055102440139892267 0.030149214210626243 0.010850342217894982 -0.05559625038927736 -0.053566022446659083 0.057390687586833911 -0.054890882536368923 0.018690709995045685 -0.056761375762246907 0.045701861537982419 0.049600318621485701 -0.058603547418895889 -0.058573280197050319 0.062140955860938457 -0.060553725705822896 0.030407396588093702
leaf_weight=7204.374665401876 7345.3344721421599 135.24629320204258 12725.459704998881 1353.8734294101596 4968.9644803106785 735.33624912798405 195.5436117425561 236.63167408108711 2143.2019033543766 418.84557549282908 1243.9801419489086 421.48528690636158 209.26482113078237 905.56903525814414 295.5388958863914 1157.0798715427518 2217.8284478150308 112.86612514778972 118.15727289393544 257.96817271411419 268.88026634976268 3948.03843941167 117.43495765700936 673.21116412431002 283.13698022440076 71.841654852032661 192.67306039854884 264.21942760050297 107.92911887541413 3800.8504270575941
leaf_count=192243 71303 650 95094 30824 36867 15013 822 5392 17992 7593 9408 2391 2973 5232 4308 6760 20000 1311 2038 1081 3817 25412 2060 3103 1337 686 3228 1082 1358 19728
internal_value=-0.000461691 0.00745517 0.0046543 -0.000971485 0.0026936 -0.000636813 0.0250164 0.00359221 0.00224994 -0.000739639 0.0111598 0.010452 0.0155421 0.0140672 0.0162848 0.013693 0.00154766 -0.00121866 0.0277351 0.0265251 0.0174763 0.013999 0.028273 0.0268162 0.031298 0.00627439 0.0287641 0.0261522 0.0300641 0.0278958
internal_weight=54130.8 46926.4 40471.5 20540.2 19186.4 14217.4 6454.84 726.857 13482.1 10094.9 3387.18 19931.3 7205.86 6784.37 6575.11 5669.54 9676.03 7458.2 5727.99 5532.44 5374 4216.92 5414.29 5156.32 490.225 207.088 5038.88 4365.67 4173 3908.78
internal_count=591106 398863 356298 210311 179487 142620 42565 8065 127607 100207 27400 145987 50893 48502 45529 40297 92614 72614 34500 33678 35989 29229 31640 30559 2673 1336 28499 25396 22168 21086
is_linear=0
shrinkage=0.05


Tree=22
num_leaves=31
num_cat=0
split_feature=1 0 1 2 1 2 1 2 1 2 0 0 0 2 1 2 1 2 1 2 1 1 2 0 2 1 2 1 2 1
split_gain=8338.83 834.089 475.529 1486.9 190.696 690.247 134.756 493.094 128.556 462.248 111.716 111.671 95.6257 90.0886 343.843 93.5918 504.535 98.3585 393.457 89.9322 334.513 88.8878 150.702 88.4585 85.9 380.058 86.0076 447 114.617 370.032
threshold=-0.20001162812602313 7.5000000000000009 -0.058042516973255444 -0.057255794094468244 -0.10653816594283748 -0.10584122042192033 -0.10857148566961713 -0.10798950780082063 -0.15461242845254944 -0.15410518359444383 3.5000000000000004 5.5000000000000009 4.5000000000000009 -0.029982685488949345 -0.029164138113979346 0.019574448489212554 0.019443071454350452 0.059633874206477401 0.059100767546349658 -0.072747018062502042 -0.072446779781209836 -0.17562966840907165 -0.17550973136684053 4.5000000000000009 0.11403471712898587 0.11546590380968626 0.19769382335524957 0.20041012165327185 0.29011976790023225 0.29306141806475527
decision_type=2 2 2 2 2 2 2 2 2 2 2 2 2 2 2 2 2 2 2 2 2 2 2 2 2 2 2 2 2 2
left_child=-1 2 3 4 5 8 7 21 9 12 -10 -4 -2 -13 -15 -16 -17 -18 -19 -8 -21 22 -3 -6 -20 -26 -27 -28 -29 -30
right_child=1 6 11 -5 23 -7 19 -9 10 -11 -12 13 -14 14 15 16 17 18 24 20 -22 -23 -24 -25 25 26 27 28 29 -31
leaf_value=-0.051926060954112167 0.00019281621775793812 0.03757332836788764 0.0067959525902150002 -0.052873267317254558 0.0075698853151812441 -0.053705575571406011 0.05464656440984822 -0.054329336714737823 0.0035837872925734283 -0.053397983126058979 0.022319844085637211 0.037477505238172247 0.020829662685830235 -0.052213357157671648 0.032244968589573202 -0.055156881200165278 0.036764743260677267 -0.055532011253132701 0.033811514132679465 -0.054796222090350601 0.027104571607684088 0.041574115139286182 -0.058845792456125617 0.024832575667709217 -0.049360726756872371 0.032135681749716434 -0.049511510961231506 0.0377245995213931 -0.049927022470668943 0.019495405600845388
leaf_weight=6866.2457027994096 9088.4157857894897 100.72973029315472 14015.976795054972 1306.0139774754643 2386.2601472884417 577.1486041508615 271.43247675150633 246.77673649042845 2149.0473759323359 399.74217972159386 1263.2980115450919 397.42336031794548 598.29615443199873 196.48907259106636 696.46692289412022 260.88053083047271 514.50045090168715 196.75973907858133 629.36163488030434 127.73385060206056 5204.9393054097891 433.45885948836803 67.805857263505459 1077.0509352348745 224.4278659299016 803.45216242969036 257.18093295767903 650.38100732117891 206.9299191236496 2650.8734583780169
leaf_count=192243 87790 474 105623 31454 18337 11504 1141 5877 17992 7593 9408 2179 4824 3096 3983 3994 2783 2732 3453 2357 29779 2206 731 7017 2943 4479 3008 3521 2198 16387
internal_value=-0.000456211 0.00706316 0.00440591 -0.0014047 0.00242776 -0.000158318 0.0237598 0.00519352 0.00213112 -0.000706961 0.0105201 0.00945186 0.00146744 0.0142957 0.0130315 0.0148393 0.0129436 0.01584 0.0139242 0.0265718 0.0251428 0.0295938 -0.00121837 0.0129384 0.0164444 0.0141641 0.0172845 0.0141156 0.01878 0.0144686
internal_weight=53865.5 46999.3 40546.4 18845.3 17539.3 14075.9 6452.88 848.771 13498.8 10086.5 3412.35 21701.1 9686.71 7685.13 7287.7 7091.21 6394.75 6133.87 5619.37 5604.11 5332.67 601.994 168.536 3463.31 5422.61 4793.25 4568.82 3765.37 3508.18 2857.8
internal_count=591106 398863 356298 195919 164465 139111 42565 9288 127607 100207 27400 160379 92614 54756 52577 49481 45498 41504 38721 33277 32136 3411 1205 25354 35989 32536 29593 25114 22106 18585
is_linear=0
shrinkage=0.05


Tree=23
num_leaves=31
num_cat=0
split_feature=1 0 1 2 1 2 1 2 2 1 1 2 1 2 0 2 1 2 1 2 1 2 1 0 0 2 1 1 0 1
split_gain=7869.44 750.362 430.724 1522.32 290.757 839.463 144.106 630.123 122.625 837.592 122.378 388.56 104.276 344.567 101.023 92.7583 888.931 106.751 876.2 124.861 726.647 105.734 513.397 99.7876 88.3691 86.3374 274.625 85.1365 90.6657 138.77
threshold=-0.20001162812602313 7.5000000000000009 1.0000000180025095e-35 1.0000000180025095e-35 -0.07003099456652763 -0.070194639667286785 -0.12820289280982533 -0.12795916118348821 0.048248339711920558 0.045131854958635607 -0.13404263417241521 -0.13468252144231949 -0.16994463442381291 -0.16953517344984156 3.5000000000000004 0.11846211927288866 0.11546590380968626 0.21217483120711272 0.21004759238520979 0.35002519094556889 0.34213621001962807 0.67255921195678059 0.64416283180703837 3.5000000000000004 2.5000000000000004 -0.10686493882370289 -0.10653816594283748 -0.19564575195318823 1.0000000180025095e-35 -0.19999104824832672
decision_type=2 2 2 2 2 2 2 2 2 2 2 2 2 2 2 2 2 2 2 2 2 2 2 2 2 2 2 2 2 2
left_child=-1 2 3 4 5 6 7 12 -4 -10 11 -3 13 27 -8 23 -17 -18 -19 -20 -21 -22 -23 -11 -14 -12 -27 28 -2 -30
right_child=1 10 8 -5 -6 -7 14 -9 9 15 25 -13 24 -15 -16 16 17 18 19 20 21 22 -24 -25 -26 26 -28 -29 29 -31
leaf_value=-0.051828598252891801 0.00015972045399155314 0.031605119179802819 0.020469585769219766 -0.053183811887267243 0.013927461951021444 -0.051941888731076795 0.0035498982488557404 -0.053128527440074548 -0.055242890551633277 0.0074165515893040192 0.059257861490955958 -0.053208317228986869 0.0019768520961863248 -0.054239399674419167 0.019152230632968774 -0.055145056638645377 0.020310523290116057 -0.055865637834972587 0.022221823950636585 -0.056657056519816042 0.020649207510491652 -0.058679915391247651 0.014364630291341079 0.026624617011495124 0.019881544935067545 -0.055193162156568776 0.025135666708618828 0.01199041751188294 -0.056420710321722828 0.0027855706512097248
leaf_weight=6543.3466196581721 6790.4269636720419 369.9759650118649 2456.6409708112478 1284.9090282507241 4638.4292332753539 749.08312144875526 2472.1107540950179 545.06402746587992 499.45993830636144 1142.0935861691833 175.0610075071454 212.66518612205982 1473.8808409906924 291.33565530925989 1787.7515427656472 521.56760298833251 2692.5090911723673 492.12435102462769 2468.7243991494179 394.88564060628414 2655.2064079493284 270.79752790182829 2154.1401852667332 1657.3959686607122 1294.3205277696252 108.4587180018425 5602.9370567947626 1473.9830305278301 182.86242089420557 215.72253136336803
leaf_count=192243 66002 1922 16129 28663 32341 16997 19520 11729 6870 8091 742 4743 12762 4596 12555 7037 16980 5784 15442 4021 16780 2224 13731 10322 10440 2114 33044 13363 1830 2089
internal_value=-0.000450263 0.00669131 0.00417165 -0.000288799 0.00281252 -0.000171636 0.00217478 -0.00057645 0.010117 0.00841569 0.0225068 0.000648045 0.00186707 -0.000754936 0.0100978 0.0106161 0.00865231 0.0116424 0.00887573 0.0128865 0.0086772 0.0137557 0.0062076 0.0187884 0.0103485 0.0246704 0.0236102 0.00104374 -0.00120069 -0.024377
internal_weight=53617.9 47074.5 40605.4 23199.9 21915 17276.5 16527.5 12267.6 17405.5 14948.9 6469.1 582.641 11722.5 8954.33 4259.86 14449.4 11650 11128.4 8435.88 7943.75 5475.03 5080.14 2424.94 2799.49 2768.2 5886.46 5711.4 8662.99 7189.01 398.585
internal_count=591106 398863 356298 232887 204224 171883 154886 122811 123411 107282 42565 6665 111082 87880 32075 100412 81999 74962 57982 52198 36756 32735 15955 18413 23202 35900 35158 83284 69921 3919
is_linear=0
shrinkage=0.05


Tree=24
num_leaves=31
num_cat=0
split_feature=1 0 1 2 1 2 2 1 1 2 1 2 2 1 2 1 2 1 2 1 2 1 2 1 2 1 2 1 1 2
split_gain=7428.7 693.306 246.063 1050.61 213.954 932.118 166.85 580.892 134.844 594.855 134.627 410.31 122.399 695.322 127.259 871.017 162.885 580.628 162.065 565.482 174.264 425.033 97.2629 318.704 99.5593 324.918 102.739 124.035 93.314 293.199
threshold=-0.20001162812602313 6.5000000000000009 -0.037111706264203244 -0.036478695808195044 -0.050144202742363544 -0.049537021675260896 -0.0060555050250930493 -0.0060596159035639493 -0.10041711865845769 -0.10029711760941563 -0.08799070713434419 -0.088056768803779037 0.067017241650402362 0.06395402132310947 0.21217483120711272 0.21004759238520979 0.31164835837420596 0.30754543175606242 0.42647622195486362 0.42466828547705915 0.67255921195678059 0.64416283180703837 0.89285400885811306 0.84953479959797329 1.0973473680762518 1.1056676737570499 1.2761494909198317 1.3478772159625789 -0.1263835984848691 -0.12581327037244328
decision_type=2 2 2 2 2 2 2 2 2 2 2 2 2 2 2 2 2 2 2 2 2 2 2 2 2 2 2 2 2 2
left_child=-1 2 3 8 5 10 -6 -8 9 -2 11 28 -9 -14 -15 -16 -17 -18 -19 -20 -21 -22 -23 -24 -25 -26 -27 -28 29 -3
right_child=1 4 -4 -5 6 -7 7 12 -10 -11 -12 -13 13 14 15 16 17 18 19 20 21 22 23 24 25 26 27 -29 -30 -31
leaf_value=-0.051736235702750447 0.0013288915380404696 0.022419432351915517 0.0073167284175653909 -0.052644981746427635 0.043799298108092549 -0.054085812336763586 -0.056504339162426968 0.036052504251505128 0.0096324466355237805 -0.053055722874317618 0.040069312431678702 -0.056437457963517915 -0.056343263704780336 0.032773027226758934 -0.056988242599559806 0.043722301797694957 -0.058839184711023888 0.046611999232376015 -0.06104887497061591 0.043472230384453969 -0.061552003582450769 0.044904411741105994 -0.067741651227899491 0.053307539651147012 -0.062457753331018155 0.076892741398234932 -0.02811718166603297 0.033246892679420013 0.036888706931367664 -0.055598758122950613
leaf_weight=6235.0550720840693 13403.333617266268 842.29652212560177 16325.720738179982 938.13695708289742 710.74503739923239 543.23068239539862 249.98869432136416 1141.9410813674331 4072.1206396184862 522.4013238735497 559.90673211216927 195.11015194654465 297.90097836777568 1875.3580088168383 363.51607789844275 814.75736848264933 224.807567730546 648.62269634008408 205.01636659353971 865.60665234923363 160.45241866260767 407.89428429305553 102.25033283233643 236.13417707383633 111.90016479790211 98.642665475606918 102.31597720086575 421.97004477679729 556.50072877109051 140.51221127435565
leaf_count=192243 127506 5121 119951 24102 3330 13750 4233 5428 29945 12053 2649 3612 4744 9466 4802 3709 2303 2973 1671 4059 1194 1921 567 1100 573 467 482 1981 2652 2519
internal_value=-0.000446397 0.00633767 0.00281842 -0.00105981 0.0167857 0.00480786 0.0205455 0.0185611 0.00162907 -0.000711259 0.0187522 0.0118706 0.0208839 0.0183869 0.02174 0.0173968 0.0235418 0.0189561 0.0241599 0.0187905 0.0253191 0.0157469 0.0241209 0.0162217 0.0250637 0.0159877 0.0300793 0.0212715 0.0205287 0.0112652
internal_weight=53374.1 47139.1 35261.7 18936 11877.4 2837.56 9039.82 8329.08 17997.9 13925.7 2294.33 1734.42 8079.09 6937.15 6639.24 4763.89 4400.37 3585.61 3360.81 2712.18 2507.17 1641.56 1481.11 1073.21 970.963 734.829 622.929 524.286 1539.31 982.809
internal_count=591106 398863 313557 193606 85306 30303 55003 51673 169504 139559 16553 13904 47440 42012 37268 27802 23000 19291 16988 14015 12344 8285 7091 5170 4603 3503 2930 2463 10292 7640
is_linear=0
shrinkage=0.05


Tree=25
num_leaves=31
num_cat=0
split_feature=1 0 1 2 1 2 1 2 2 1 1 2 0 0 0 2 1 2 1 2 1 2 1 2 1 1 2 0 2 1
split_gain=7016.33 637.975 346.543 1396.13 234.199 721.447 111.023 564.186 106.522 734.762 102.512 312.635 93.6658 82.8607 78.5099 99.5017 529.424 104.127 352.163 87.5276 703.52 134.033 429.788 121.159 379.264 77.4837 85.1437 76.2855 70.5139 290.126
threshold=-0.20001162812602313 7.5000000000000009 -0.0089859161358727489 -0.0088591053077788969 -0.074777177999363134 -0.073855926081389592 -0.12820289280982533 -0.12795916118348821 0.03473003257544751 0.03192723725687921 -0.14345796760197846 -0.14324851634641675 4.5000000000000009 3.5000000000000004 4.5000000000000009 0.079301193352110513 0.079981943594953517 0.11846211927288866 0.11546590380968626 0.24439786788335047 0.24306810158322159 0.35002519094556889 0.34213621001962807 0.56685131874549854 0.54935777726538049 -0.18258676558225972 -0.18241987630397391 3.5000000000000004 -0.10686493882370289 -0.10653816594283748
decision_type=2 2 2 2 2 2 2 2 2 2 2 2 2 2 2 2 2 2 2 2 2 2 2 2 2 2 2 2 2 2
left_child=-1 2 3 4 5 6 7 12 -4 -10 11 25 -2 -6 -11 -16 -17 -18 -19 -20 -21 -22 -23 -24 -25 26 -3 -8 -12 -30
right_child=1 10 8 -5 13 -7 27 -9 9 14 28 -13 -14 -15 15 16 17 18 19 20 21 22 23 24 -26 -27 -28 -29 29 -31
leaf_value=-0.051648699654442666 0.00018763149148586129 0.029643548247639831 0.018730241209687568 -0.053064050918058915 0.006059399456311414 -0.052865123466574529 0.0032101457873034652 -0.0529808069362009 -0.054836873972471348 0.0052820581628794409 0.048821269310097726 -0.054620897853561778 0.015149966255930208 0.019660396740051239 0.02874537146761319 -0.053331489583187924 0.033044401983583056 -0.055652404335690103 0.023026645241535224 -0.05615290599458065 0.0326255286871239 -0.05659027053403444 0.028464394197153048 -0.057384514660327339 0.015436505529825412 0.047153217410735998 -0.062380464751146829 0.017247790524308929 -0.05449276254405036 0.022979645940438904
leaf_weight=5940.7666202075779 10591.142030630261 65.616371989250183 2363.4552585855126 1193.9604575112462 2310.2381976209581 626.25951327383518 2312.7118742614985 492.10686085559428 461.15138299763203 6948.8073466196656 242.72693138569593 176.16006370633841 1160.5971311628819 2173.2195348106325 844.12176155298948 310.11112913861871 615.99608680605888 189.35978715866804 1762.9239142611623 370.63307004794478 914.22479341179132 219.61388984322548 1177.6908031851053 198.27407815307379 1820.4439091831446 201.25973684340715 40.743117704987526 1664.2821914702654 123.51471552252769 5592.9801179282367
leaf_count=192243 101458 299 15326 29264 16752 15737 18201 11172 6817 48997 1050 4174 9624 14134 4787 4133 3496 2552 10463 4583 5230 2291 6844 1846 11125 925 295 11466 2778 33044
internal_value=-0.000440159 0.00601001 0.00369689 -0.000448902 0.00249619 -0.00020656 0.0018265 -0.000531041 0.00882867 0.00735066 0.0206295 -0.00150575 0.00166531 0.0126521 0.00921622 0.0124617 0.0106481 0.0133776 0.0115567 0.0135256 0.00996252 0.0156214 0.0110707 0.0157194 0.00828418 0.028911 -0.00560808 0.00908458 0.0224265 0.0213057
internal_weight=53105.1 47164.3 40721.3 22524.5 21330.6 16847.1 16220.8 12243.8 18196.8 15833.4 6443 483.779 11751.7 4483.46 15372.2 8423.39 7579.27 7269.16 6653.16 6463.8 4700.88 4330.25 3416.02 3196.41 2018.72 307.619 106.359 3976.99 5959.22 5716.49
internal_count=591106 398863 356298 227808 198544 167658 151921 122254 128490 113164 42565 5693 111082 30886 106347 57350 52563 48430 44934 42382 31919 27336 22106 19815 12971 1519 594 29667 36872 35822
is_linear=0
shrinkage=0.05


Tree=26
num_leaves=31
num_cat=0
split_feature=1 0 1 2 1 2 1 2 2 1 1 2 1 2 2 1 2 1 2 1 2 1 1 2 2 1 0 0 1 0
split_gain=6628.57 574.543 312.973 1267.16 175.629 614.09 100.842 555.373 93.64 862.567 91.8237 316.269 88.775 281.157 79.7045 872.473 86.4055 766.313 99.2422 625.744 86.3425 466.726 86.6396 197.46 77.5999 241.958 74.95 73.7087 73.621 128.35
threshold=-0.20001162812602313 7.5000000000000009 -0.023464944911444147 -0.023203869937693345 -0.076915168274937842 -0.076181459129764748 -0.13987471393431791 -0.13925493683979417 0.031661932682458656 0.03192723725687921 -0.13801413407756849 -0.13818665775063832 -0.17562966840907165 -0.17550973136684053 0.11846211927288866 0.11546590380968626 0.21217483120711272 0.21004759238520979 0.35002519094556889 0.34213621001962807 0.71469638145275105 0.69901767815995253 0.64416283180703837 0.63631610614332013 1.0973473680762518 1.1056676737570499 3.5000000000000004 3.5000000000000004 -0.19745882547143026 1.0000000180025095e-35
decision_type=2 2 2 2 2 2 2 2 2 2 2 2 2 2 2 2 2 2 2 2 2 2 2 2 2 2 2 2 2 2
left_child=-1 2 3 4 5 6 7 12 27 -10 11 -3 13 28 -11 -16 -17 -18 -19 -20 22 -22 23 -21 -23 -26 -8 -4 29 -2
right_child=1 10 8 -5 -6 -7 26 -9 9 14 -12 -13 -14 -15 15 16 17 18 19 20 21 24 -24 -25 25 -27 -28 -29 -30 -31
leaf_value=-0.051565703644692699 7.5755862181755415e-05 0.026904980569044997 0.0079799789970785538 -0.052633294751865012 0.011996023424156494 -0.052948361557837824 0.0025952325937457447 -0.053190582731563789 -0.052380348893994934 0.01523712625933135 0.021342558267795166 -0.054907770693390284 0.010242715973044629 -0.054511042429936055 -0.054643619208554386 0.017516676081614401 -0.055476643486538017 0.01910455065105977 -0.056091797032676909 0.017896187633357281 -0.058572869097107183 0.02273862229183907 0.04450060561320375 -0.040617328015027765 -0.054100882144734776 0.013318570842059724 0.015407145090690395 0.023256475737967693 0.011853807248081343 -0.034742885801410953
leaf_weight=5659.8975928276777 6799.1624678820372 354.62595554441214 1508.1287238076329 1111.9365072082728 3724.4565411768854 530.47084429301322 2767.6449652053416 484.6686381008476 597.50273983553052 3706.4759890250862 5923.1899016331881 177.1323218960315 2296.7099325992167 237.14135748520494 550.2757770344615 2762.0961558222771 459.35215231776237 2537.1280004829168 365.1958780772984 2524.0150235146284 261.33670472353697 958.40731985867023 265.47082450985909 152.91604010015726 157.32610329985619 863.47720228135586 1942.8552661761642 1657.3352409079671 1256.5745942369103 275.39557030797005
leaf_count=192243 66002 1781 10444 30115 25259 13430 22223 11156 9318 24060 36306 4478 19461 3471 8133 16980 5784 15442 4021 15434 2198 5942 1639 1158 1025 5339 13935 10227 11310 2792
internal_value=-0.000434312 0.00569592 0.00350066 -0.000660712 0.00218398 -1.87381e-05 0.00172954 -0.000822919 0.00811433 0.00657401 0.0195557 -0.000347407 0.00151311 -0.00082684 0.00883735 0.00683679 0.00982892 0.00734381 0.0109129 0.00716685 0.0116241 0.00422862 0.0172556 0.0145537 0.012521 0.00292789 0.00787953 0.0159783 0.000701253 -0.00127965
internal_weight=52868.3 47208.4 40753.5 21427 20315.1 16590.6 16060.2 11349.7 19326.4 16161 6454.95 531.758 10865 8568.27 15563.5 11857 11306.7 8544.63 8085.27 5548.15 5182.95 2240.55 2942.4 2676.93 1979.21 1020.8 4710.5 3165.46 8331.13 7074.56
internal_count=591106 398863 356298 219154 189039 163780 150350 114192 137144 116473 42565 6259 103036 83575 107155 83095 74962 57982 52198 36756 32735 14504 18231 16592 12306 6364 36158 20671 80104 68794
is_linear=0
shrinkage=0.05


Tree=27
num_leaves=31
num_cat=0
split_feature=1 0 1 2 1 2 2 1 1 2 2 1 1 2 2 1 2 1 2 1 2 1 2 1 2 1 2 1 2 1
split_gain=6264.05 533.22 178.366 970.42 161.441 816.984 146.681 308.699 134.968 544.644 119.167 399.767 110.466 357.042 101.321 562.204 129.479 574.662 154.784 560.543 138.612 460.46 141.45 464.905 123.742 383.805 139.22 293.532 82.668 287.33
